0.15753452617028024,0.03698208859223635,0.08812188734082756,0.19968170127882956,0.1666832190318288,-0.08476712285045272,0.08558959948996762,-0.01176535940101019,-0.007510489611103397,0.037904977278301215,0.014344627389358662,0.1301536864542413,0.06855087578738817,0.011317697908606638,0.04047824109188014,0.03109048697862956,0.13367203467739053,-0.016520745795576993,0.029284390996059933,-0.07387925698527333,-0.2240416972395004,0.05938512178828182,0.07801894140966002,-0.06398588569103085,0.20223271492645362,-0.12693612470915816,0.005657373880197067,-0.014932017065149353,0.13709267621189036,0.13148704791911053,0.01530840107479671,0.035038014395254564,-0.07684076857856902,-0.17356135316347457,-0.040478962585232335,-0.0034568740012299085,0.08301972397047552,0.09773294193863703,-0.04259068882426574,-0.0431267035856337,-0.11762881524077078,-0.13984549229883947,-0.13929798147108416,0.16267020182097283,-0.0532598623759051,-0.05032665032990139,-0.1277705612693819,0.054930066701709745,-0.14799903625701177,-0.023253098874292628,-0.084536730102292,0.03420684013988516,-0.04353636793489107,-0.10274127378993018,-0.000878126450815851,0.0394724004263907,0.007492201521688378,0.028347845396350452,-0.0544482770286235,-0.03191248399965283,-0.058990974623357534,-0.03176325129693633,-0.087158308838978,-0.19611159584502322,-0.04160517546682358,-0.07570002229227621,-0.2048309863030341,-0.05053231868744059,-0.17659238582279704,-0.061755239132305184,-0.026175830680168315,-0.07727508596065823,0.001023890044860422,-0.18942277326180418,-0.010901344192368562,-0.07210453250678539,-0.07946911877570124,-0.061830487802706294,-0.043377211892882524,-0.0020568880712412514,-0.10095466821046073,0.08207018395312972,0.042771987754753625,-0.1341731868701469,0.1331570064386367,0.16918736573873383,0.10588791341180115,-0.01861547928984301,-0.09650775151234142,0.0980755230033718,-0.07095627635654363,0.07123179385393837,-0.05583360470068855,-0.04352060491296717,-0.1305692144746657,-0.09594054665394888,-0.17635707786593635,-0.07956127994597327,-0.25252808541403715,-0.31066788470031925,-0.13174769941606612,-0.28154615862814214,-0.12468589528808831,0.15117844583651485,-0.00789462455062859,0.22596329644583033,-0.023144845562918646,-0.0712438511176038,0.17304506062221503,0.13398582222714053,0.16623105878434846,0.08169664438562173,-0.07450946110920116,0.17044242402734439,-0.02153170419334516,0.07350172952748157,0.093042234091049,0.04141303180481491,0.05675152905711306,0.07619096357590027,0.0835229842142101,-0.26363468550959474,-0.07233762548144874,-0.019507074788293634,-0.16080719978913896,0.05644579551727751,-0.18376504278178896,-0.37294206743333874,-0.45877902762259376,-0.3724298721684364,-0.12666371113705246,0.06803744470556088,0.015090977062965511,0.04987344893828922,0.027700877479787174,0.138466493956584,0.10442165664770786,-0.0038501681296563835,0.029848690216818744,-0.09554190153937957,-0.13019694039219892,0.040449960590249585,0.017241272912357962,0.06700337786931769,0.2884576846055925,0.21053189087387814,0.0005527497394763664,0.28626848006249217,-0.023836618019962817,0.012431531638810394,0.07177808207634312,0.17576768564377498,0.09829372798503261,-0.08426387547316994,-0.0698413792404027,-0.19782736389500188,-0.10971425791519612,-0.5157123608039141,-0.42437950057167345,-0.19359368196382112,-0.13152983408531094,0.11706324957746554,0.22479829617980418,0.3075748724113485,0.11517625967521092,0.13954269598118998,-0.10020438109259149,-0.13457118947369273,0.10662084444806992,0.02969884249593833,0.08178404963814657,0.03040565627134052,0.13818138428329854,0.024955988091243015,0.006745124278616508,0.16598160874498566,-0.06054866593697148,0.0927768536574589,0.0639979750921874,0.01564569589790865,0.046172274610753426,0.048522635890174214,0.04149656228395139,-0.19477571284054404,-0.17766826801295993,-0.5692686629979395,-0.38251915646684725,-0.08945456026798683,0.04707609239744442,0.13259565592460348,0.08321404757944363,0.4229871611853307,0.305230018100803,-0.01350299813601537,0.06317167835520573,-0.014766664882083242,0.06979116870599673,0.0760709752718638,0.18133907091096357,0.1517204177449823,-0.0666865689808099,-0.048778558401774856,0.05301010024504539,-0.03066677224497464,0.021501571216860273,-0.05221874466324546,-0.01479121504281387,-0.0595799507676728,0.09784909046430058,0.2262364500558861,0.23839000335176844,-0.06940938712967135,-0.4131941521308255,-0.7601329333517397,-0.49914183014485614,-0.03457276504282034,0.13619929391472158,0.14024872771391905,0.3971160276599034,0.47687418747195004,0.39572121161432094,0.08949339323720333,-0.04461383393709407,0.034099036273847444,-0.134937308099954,0.005420583958326725,0.008711130165109354,0.0209946180765103,-0.07549084910799542,-0.04973097411149608,-0.23358805173519417,-0.05965175731153698,0.009051878573133675,0.03896436051393307,0.029368001295107925,-0.09129092458733451,0.2467985410101316,0.32546354121828897,0.516078808385702,-0.015588784064608213,-0.8439924923487417,-0.7757866082888022,0.00032322795625295555,0.04220434738310922,0.012047630527157165,-0.12147670226277488,0.27436196723282613,0.48166876418496063,0.3895249859808487,0.029599313270919584,0.03630954578575712,-0.062058737799375895,0.0161312577302369,-0.02240328015073116,0.0552383542675104,0.08535091969136341,-0.1761615501697745,-0.08508615569563772,-0.1663944267779099,0.10959455482431955,-0.07042409796384479,-0.01143211109737142,0.10520162432424597,-0.027980365641642028,-0.07557291849406834,0.4581495083149215,0.46303752421982847,-0.3986106262182504,-0.9320203391807111,-0.5611415886246044,0.1623660697340141,-0.09844723033784776,0.16700968264974872,0.1384938956772295,0.20522006324880626,0.19775083560986154,0.11492941941669729,0.00874356583361833,-0.20193308369111254,0.2038900208270687,-0.006525143257659535,0.08329396766993663,-0.09140115429250288,0.09533802771982076,-0.15638929302824026,-0.017093999597430437,-0.11450865956298617,0.2350178459365648,0.1498350080740817,0.012184771708511923,0.009720846312088654,0.04614445257957803,0.24667937309578905,0.354948224506629,0.17457350626825524,-0.4983037861935189,-0.9324919019055785,-0.27303341295838557,0.09870331319022058,0.18877523154952375,-0.04206856157737393,0.3359956641227518,0.2108350580361903,0.04570611372034581,0.10537695693380882,-0.004934858916676318,-0.11362011690924508,-0.10873119489287934,0.06293799988554838,-0.015628891418068835,-0.05772102912746831,0.03800106785454539,-0.1392316205098445,-0.05999381117863802,0.025198163135519352,0.05611111700509884,0.06799024110790355,-0.07046945515180052,0.01856520370687255,0.006866688982832914,0.05579296314512704,0.14058706026874956,-0.010293551327534197,-0.5358263110940951,-0.7086406999245515,-0.15469032943715405,0.10294610383882953,0.2912182133091525,0.09633539651308054,0.1858569386893366,0.1988830640071376,-0.16868779285283889,-0.13681198155730712,-0.16498118173882606,-0.25627118077083316,0.05587546479606419,-0.1533641217938803,0.038984209514074865,-0.08240718436441363,0.10923023918131346,0.1377916565684284,-0.05740600319091449,-0.14750370605065816,-0.1403346928745135,0.08229821450432828,0.05978971575427442,0.03343876292397826,-0.021441489718660178,0.08311295536493438,0.05310913508770663,0.02665055599197369,-0.32083544072901615,-0.24222216107223385,-0.16311499764220921,0.07721481055902066,0.34192357934584455,0.11951804423593379,0.22835259202275596,0.1844319822657933,-0.12185619438061258,-0.12929075165665468,-0.072082354162223,0.03886405301670396,0.036046266573587636,0.00015965719738009836,0.014483080923386196,-0.012235449917873861,-0.03398592948024505,0.13070424781547552,-0.027693549445565093,0.13562284825103435,-0.19128299896797976,0.1153738569750093,0.22108837260699532,0.013951623505374792,0.06355431772759154,0.12697984655605962,0.13910588020049097,0.02941917715105076,-0.003316245620215805,-0.31374709357105834,0.16098014441354933,0.11586447293884855,0.010747235973260027,0.08585037451103643,0.005141742725041029,0.021568197688131903,-0.30104946708571934,0.013826218628530144,0.010758189381822837,0.04631425126015532,-0.012441864621914338,-0.025556572158531757,-0.13802110912630738,-0.024248513094535396,-0.0719508094755865,0.08204094631506333,0.20476439519954834,0.15498577268298924,0.04669246116319219,-0.05645531116216542,0.0074269327529501395,0.02426924320689028,-0.18473234593203533,-0.07080300535242227,0.010914142779390262,-0.03970322577647423,-0.26112132846394065,-0.1545081676608209,-0.043121392976947275,-0.10469638572157337,0.3790792560871524,0.05662872088982618,-0.1607446213306012,0.062241121584305434,-0.0945196681996565,-0.09702635476356013,0.01168217047847408,0.11008380893611383,0.1534611628591427,0.0850585244531815,0.06094012983901429,-0.16276229473300474,0.05868354693271566,-0.10382693058097237,-0.04977605854963889,-0.030124347139695442,-0.33503807978596223,-0.005702807129300473,-0.04531376120832669,-0.25615356690746394,-0.13016422453941454,0.11449482702532443,0.10265792371549738,-0.14572059807349655,-0.19905481005230705,-0.09771497714566152,0.11257483348774375,0.02065100942432772,0.12470692739505095,0.014883922462294424,-0.18814960766520256,0.06337025922594977,-0.10885384285439724,-0.04318023985246275,-0.07700195532410287,0.04235139232092092,-0.0790645248107598,-0.06781585634438152,-0.0042113914456214365,-0.07562254166423828,0.06110267892528497,-0.033701195822189056,-0.05076160531290408,-0.08126477785722347,0.15752983358698386,0.15048012962170088,-0.22577178966457584,-0.10192286864045387,0.032252859155926863,-0.04454246933483611,0.05460592873167549,-0.05618984645851258,-0.11302986081648526,-0.23777335164863808,0.11286532685004672,0.04970586111280885,-0.14566090791898137,-0.04205874216240425,0.13875443305353893,-0.09229840447981125,-0.12013308870492972,-0.13507152418904794,-0.16317051427287854,0.14606701727790647,0.09662537818894165,0.11820918296333562,-0.07523702146216159,0.12021210923366192,0.04306481265754432,0.047452742786095056,0.017240279426238306,-0.09519068851032762,-0.059347763280440294,0.08467400882915196,-0.19092252583847028,-0.063868759042459,-0.10030978652810252,-0.028518904791350157,0.032034619359806955,-0.10429799606854612,-0.09290939314109548,0.010138774591808647,-0.016303272046069864,0.10572197617038298,-0.03227050926868414,-0.053639968387048834,0.1221025072828105,-0.042875642508206725,-0.06875969286127978,-0.03593395957449963,0.0005570176077216198,0.09853020746024208,-0.014822072920645375,-0.030412487410252247,-0.04985876652964174,-0.1467709111528483,-0.08389760779879338,-0.030281012650984256,0.02536947913368719,0.026946548644741112,0.060065934645105706,-0.0885281467100197,-0.24545706176018,-0.2718789889687914,-0.042220376339368135,-0.14770429323598833,0.05200120387338046,-0.03053618401822965,-0.019537652928670227,-0.00843495486523544,-0.1902044594247725,-0.24215987018328072,0.06805322607095847,0.10954875497361483,0.05189647743890379,0.1006376306921513,0.03263787650319667,-0.2020693737498983,0.09556649207736859,-0.18975935119127527,0.04004102436404073,0.1098801389494309,-5.636364989635399e-05,-0.13488635446296873,-0.019878035918646467,0.137737637666806,0.0709624135290411,0.023427755990937542,0.06500056581578753,0.18947142823902602,-0.06489506359106444,-0.16266009026760878,-0.023472132175854005,-0.1893824251301667,-0.16243331170635786,0.011502462893440658,-0.2882476430294194,0.053684734729665506,-0.1340471655771756,0.04266905053353811,0.016815523671134515,0.08910308249573566,-0.09539102143682994,-0.10999673507508523,0.09839455349821254,-0.18106693248666889,-0.012121537935559227,-0.1049645120000497,-0.06606212577004567,0.17938450891622565,-0.002066953129973005,0.012099912522865075,-0.17802825154251586,0.007432119155495492,0.07396417186817215,0.11249560910860927,0.06861716626534,0.057995857263457684,-0.033262769681351244,0.032562143633726406,-0.045604540019526234,0.11572291902520675,0.032606528473348634,-0.06414224038585288,-0.1253801553485707,0.07381359890069725,0.031205678411692903,0.014658291907476117,0.0004853229681860453,-0.14166402613628473,-0.026070447897954034,0.0014386925927532437,0.10554679991051956,-0.02867547711656236,-0.1025951467726267,-0.012444329618990021,0.04201479262789645,-0.03307221393407716,-0.26742950878583693,0.05795199623659446,0.050524595595737284,0.050440283788188614,-0.012963066172960296,0.06732138125058128,0.005419293536080121,0.037027264664017456,0.1449096779023582,-0.10480052356429999,-0.04381458392362871,0.009677861775675584,-0.047323158685243186,-0.08612739178402638,0.024239110217514744,-0.01902579200655207,-0.027271726949452183,0.002688919558010107,-0.15785654346865322,-0.05262612872042447,0.019520372619616096,-0.0884709727558731,-0.1206399304386272,0.007060913072219245,0.0049661796978100635,-0.010315485341634048,0.03738866324562702,0.021395640593716722,0.03073738397840429,0.11642215318921922,-0.1399712653571884,0.10264778243544462,0.09703476956502376,0.0832944739031342,0.18103904085167336,0.12919257383287078,0.023683799204885662,-0.051937639929755385,-0.01121333927572137,0.11905349383161037,0.07437284320881533,-0.0735248541131598,-0.20026743725811874,-0.09595395345371246,-0.015663045797975332,0.07225794078824455,0.1112688578856682,-0.007024705512050205,0.14826393228596285,0.13120717865284603,0.10155231581416013,-0.030336164899430064,0.08225059128024327,0.08551279329551928,-0.0864415079486741,-0.10603871843189584,-0.025342377897692375,0.08829369612423595,-0.013673541459007692,0.012363817153539399,0.14881750767873797,-0.005348032019530721,-0.12053602112061729,0.0537097906883413,0.014280794847798864,-0.2294063693152355,-0.041719218655979634,0.06646415876503929,-0.09623633060534299,0.01531840049280199,-0.055834872249208044,-0.08157446617471038,-0.12285084933823168,-0.12373639772407241,0.08974064217571127,0.039497387259232526,0.072878334202759,-0.02443909984099642,0.0801378711262002,-0.17581937742531467,0.024685173114969473,-0.04924163179684277,-0.16496257469408476,-0.1703646263900424,-0.07906657066220192,0.017727925712591915,0.04583461989612532,-0.021340925452792484,0.11610497800906569,0.04605888623865048,-0.15298094241403506,-0.1844991483828537,-0.04719472408707792,-0.07314612239156161,0.3052382993641177,0.102707605140744,-0.2786443320203403,0.11466039415444494,0.005513972967486449,0.04042711958039763,-0.045111759684071995,-0.12904060084325084,0.0820128703036449,-0.04278563491809745,0.044604229518528445,0.04412346978689946,0.08158700894636899,-0.054781292560445435,-0.06278008530162897,0.01966368190706645,0.097243320368803,-0.12610302250166905,-0.10538504086273602,-0.06872025815837156,0.10146565382945119,0.04602434039385908,0.16067113201636846,0.04486472916477658,-0.010983340720317956,0.14776130222192116,-0.07160698760395771,-0.08731910228253484,0.05665345325087871,-0.09010396308203324,-0.11511714348266727,-0.03087009327191055,0.001397664145056643,-0.07248318929003378,-0.2000905045724999,-0.02871163821336315,-0.22885541622332134,-0.07003009392568522,-0.003215574256670609,0.02311076714826457,-0.020453092658435486,-0.15196732530729348,-0.07609696280744155,-0.08026037593601709,0.11150780013619062,0.07344376990377331,0.053519740331221165,-0.04305493248824226,-0.0714039209671441,-0.0796917226135452,-0.15912978496500063,0.18705424306010465,-0.19268249678439864,0.06007935291176815,-0.1147470738228211,-0.054425696523938416,-0.18726426067524174,-0.17135751916536554,-0.15352219529027508,0.02339608191755152,-0.10165110646452474,-0.10089641594151277,-0.05602889795964411,-0.08800637536364352,-0.009830064441064486,-0.18813982303967483,0.09741059886537763,0.09540890707615352,-0.15789013290835896,0.04103770518086748,0.15126086607126904,0.00029960629571462667,0.07421556766721689,0.06088346822986377,-0.060922405409635,0.005127770106555021,-0.13689121912165297,-0.03850945211463878,0.024613395165549258,0.06267541847015161,-0.013426633315460628,0.043476738678980366,-0.10885219485960157,-0.04243794570342705,-0.01958847194637979,0.15584468888511804,-0.006693634867254263,-0.03529523941974188,0.008374556424808478,-0.08705865623295027,0.019872735442496403,-0.029685580865586314,-0.16029313705688866,0.00054973988998497,0.02932428899525309,-0.09796289389663558,-0.0015548945778741025,0.13325456669299357,0.04769003107805888,0.05570008759167475,-0.11695982480483973,0.04275000535258563,0.013718959734643248,0.04735918097496344,0.03795319206910155,-0.11959102496394627,-0.003061602797532728,-0.0663892065564223,-0.0038291038099228197,-0.0787220385795547,0.11660483361634202,-0.07532540356275746,-0.07885826531403736,0.0052190876786817105,-0.10024698072744126,-0.03841246937093102,-0.0728229082010056,0.12532891350207315,0.0700536483567002,-0.004481889249925921,-0.03398128228613508,0.08376389975285911,0.03641306564746879,0.044619775619561534,-0.0017173420526943536,-0.1486221160775659,-0.009342935837709898,-0.04646815757090387,0.05761311629032493,0.09003282726017825,-0.05755745915255229,0.04199754344799133,0.15402922285028517,-0.05823832054360768,0.14949213194322203,-0.09587957439873297,-0.032683991907988694,-0.04038363875613761,-0.008356915651414035,-0.07812334102049978,-0.03967924449609831,-0.09929182332373733,-0.01623490017389797,-0.010082196457293836,0.13408321562435738,0.09385218850525075,-0.046318357890493524,0.006412568089643541,0.035728198794512445,-0.03351869413176672,-0.028949439497625275,-0.02030370923738864,0.06994429918905969,-0.07438390275954465,-0.028187639701138627,0.0421785548793548,0.02812603856196154,0.02177407079611244,-0.032088367520641974,0.08674889141527951,0.18899460447945382,0.034577688670141125,-0.0177309970558867,0.047318662917777324,-0.1280551744411309,-0.16218616972772232,-0.007845797332188056,-0.23539594929439872,-0.12636886397958208,-0.09392659003370389,-0.16497249080858153,-0.1571085707823915,-0.08294885674316035,-0.07923240543284454,-0.011555783222259048,-0.06889598035251743,-0.028296725799528376,0.07394931571794061,-0.02616688753393599,-0.036629560835376815,-0.008530807468036495,0.017721231165517225,-0.0886156570411683,-0.009547054779916398,0.027887758627686735,-0.12056146335205145,0.0771113780119981,0.10050020929063952,-0.055151905095916456,-0.021270468069777677,-0.07338177299996666,0.035795821026049945,-0.18188597114514563,-0.13766703610419476,-0.16198600002821514,0.0007675358757850281,-0.16892728687906008,0.10434737971712084,-0.2120913891856826,-0.10719292704221291,0.08417985544079211,-0.045076303908519695,-0.017636719107934032,0.14767986476357245,0.014538082337683876,-0.012547825655445283,-0.0899894669479547,-0.014958765803506871,0.051986199543405366,0.08546602449173966,-0.010548531559764453,-0.12442070092836716,0.17719378309044062,-0.07511123150676449,-0.1356602851036747,0.24325610705893638,-0.03397122477434079,-0.13444685781400786,-0.055554187529277,0.03532510462677422,0.03783363635899657,-0.10407859472578211,0.11548600732526623,-0.015477506565966135,-0.1556849945923815,0.07973728578665282,0.017623292978779303,-0.18237127160838204,-0.0834168409149612,0.15403868692589848,0.010671964636652743,0.11345711408748338,0.06446012299295883,0.004429292681268397,0.11188985876347972,0.21486190475975608,0.10183240350218759,-0.05949678540589902,0.12448222536933826,0.11708855990047133,0.018329561292461088,0.004587067574144801,0.20739331724855628,-0.02246423601767684,-0.02119180085340651,0.04314958452761994,0.13426054200252857,0.15424205882778858,0.07311440568618026,0.08961059875284798,-0.06524508270437587,0.09080184497342352,0.12289009848471116,0.15421788347582177,0.18368602120208918,0.0668564526227571,0.10565699791449311,0.2164983940647984,0.26692199107069936,0.25062806160899065,0.4218113692288301,0.17820438895289795,0.21781208988402911,0.2023013229334435,0.20361017126084727,0.1026046337356655,0.012660368864481809,-0.08396712891436395,0.021842413882502885,0.1244603006507754,-0.03560704153380116,0.04615497336896687,0.008068482192714346,0.1050589451722064,-0.018985815558904134,0.2218104114860199,-0.00966392738552285,0.015563428760066613,0.06677930607599679,0.07140874542634991,0.13953893408676224,0.011321569732011648,-0.12242230866194848,-0.23531454465569235,-0.12799591171935043,-0.1691859727543778,-0.2807473383583343,-0.10396918832947674,0.284022626652634,0.29413408408937497,0.3172745214232187,0.44067305982890204,0.17636678052396687,0.08590802746792038,-0.027542530930337122,0.0018498806088102745,-0.029216290666126972,0.03243846894042159,-0.010319735336969348,-0.02685384119445174,0.10542772047420189,-0.02092661507553273,0.1695406124265311,0.03160490277746456,0.1370510269387172,0.28466845300182986,-0.022617408686617723,-0.06830610755437432,-0.09527963866395132,-0.2360629344449812,-0.0938209692923323,-0.2293381919852332,-0.25746070008593985,-0.20483182974856806,-0.15044749756198075,0.01993662946080511,0.07389043553435384,0.20875752679131704,0.2668506762220105,0.34651833316296365,0.3233872929262697,0.1990872213069819,0.08215069226452817,0.08460232864191967,-0.1558448149291428,-0.0018101141463476012,0.019097854526572217,-0.07421741815319671,0.16419071409860472,0.04251260604281476,0.23497425120675086,-0.06652191305259454,-0.15754919092231748,-0.06309251561566652,-0.21785598158198172,-0.08559182960629477,-0.027876409149511394,0.002496355448415282,-0.03189330635049992,-0.13567310743071714,-0.17689269545389266,0.19237004665983054,0.007223751883857362,-0.005782819519595873,-0.04084035221155335,0.09847408046535931,0.1642695946245655,0.33164746362825204,0.27579814907999517,0.1746841725764996,0.05180955224861197,0.09429886387210527,0.09575922546430529,0.08640977034861154,0.06602602563763492,0.030663558093393325,-0.1853630870884909,0.12382629291895841,0.13127449473556943,0.002435176973226634,-0.010858134014533371,0.03138815014729428,-0.018999656229556072,0.04025198198623236,0.04156068083321702,0.0986878534070014,0.012415668131728917,-0.08043626591534227,-0.024953455393498736,0.18911470519001308,0.2683720436011922,0.4271365618767879,0.07155457046046101,-0.03373036229792708,0.2738720706724096,0.31519464678970055,0.27010008490697757,0.2272378660484747,0.013473332897159436,0.04206032096934545,-0.014344154171948514,0.0075634734264007335,0.03069765864942599,-0.0521276890482334,-0.022716062566886828,0.007969802883128294,0.10661202074414203,-0.10751861919584851,-0.1483783344589691,0.04234808617401189,0.09996800461532639,0.12903848958295508,0.08115770453850694,0.2867017355228834,0.12188467602541088,0.1412513831282943,0.49651362726815435,0.30434488339092874,0.26212746585426594,0.08487536659289338,0.008695526290348175,0.01889002290452827,0.059124457407382196,0.16419699143656527,0.15020421061516026,0.26592379751129863,0.12013472803395764,-0.047588338049251194,-0.017600382037575454,-0.14631207318375727,-0.06714584591247769,0.12025058527454455,-0.07060926855236256,-0.01922838692877448,-0.017667128443733995,-0.01281018033534829,-0.07088044303021224,0.07259276767022954,0.26735267587751377,0.2212905936325826,-0.05108117818436828,0.06678326599847993,-0.11480463267068618,0.06613731997168765,0.4547409254211549,0.2862835161095405,-0.02329086218302114,-0.05816145993373748,0.08013664512867277,-0.026593055210002325,-0.04887973262335421,0.328247971281879,0.2517603322330889,0.10630314197913787,0.1385091753087994,0.14041238867667666,-0.02029683520572078,0.06385201202299752,0.09439406393039222,-0.11889910030817584,-0.15280669767443106,0.02169886752408894,-0.014064813197948252,0.004171412908623767,-0.03052989608715312,0.17162051338383677,-0.014324291785823399,-0.0803504902957053,0.07109285288786225,0.21967903998689897,-0.05688977498068973,-0.07283261445141612,-0.06818350435204878,0.129496157611076,0.07406204005735537,0.05468436209558428,0.03152678304279528,-0.14076439948297492,-0.06886345657958078,0.16692132944971028,-0.12802510662498737,0.08321030810356811,0.019977697532494936,-0.0026351491969921355,-0.023094251365655055,0.1085738437472696,-0.017401741561495827,-0.025735896241331126,-0.25261395502926215,-0.12446808108405431,-0.026419633604707345,-0.044751258473762975,0.05313925459763132,0.20178002914158702,0.12065515043810462,-0.004712426333043773,-0.05714078529624312,-0.05286105101287903,0.07318243604032455,0.05687562671453123,-0.10075726188308895,0.011071894728230622,0.06116750197575962,-0.033594231454298365,-0.1722460561623962,0.015621184580434327,0.09185475411714021,0.10982919065455683,-0.12832893366377704,0.017644709459371907,0.03437507976116291,0.19967917125965173,0.0038393811286484506,0.03979537380418482,0.02088383563647027,-0.06626204163722343,0.025237717564522977,0.0774900424347702,-0.0438979235996882,0.06780444736082733,0.05635374732179839,0.03234506029108114,0.03215964061489278,-0.013405244258190584,-0.18969767372329066,-0.09471733390809649,-0.114241465198955,-0.07020868603547033,0.019963565836500052,0.11144157176577475,0.09541330900635991,-0.13748035860506233,-0.18366032314402472,-0.0787035790997826,0.03288346747557714,-0.10445804187060491,0.04142030586202533,-0.09066601659804435,-0.15845644949112533,0.15212311311315452,0.05786669779947992,-0.09944717495863983,-0.10689380077021648,0.08529944941485183,-0.0375937665871273,0.1403740040740091,0.054690630954762516,0.14370905541623852,0.27282892810293435,0.37914785847228144,0.2786403072531337,-0.011143261022520204,-0.36202316454339256,-0.06626031154264692,0.18035274048772673,-0.02786427421007585,0.03779009164571196,0.12330095285393658,0.12516415438566458,-0.12648102919687337,-0.09826276033872165,-0.05556776520571695,0.0385488906356958,-0.03149711790429021,-0.005561769126434182,-0.09413333574934427,0.016583354370663016,0.14625938822868723,0.05562513543331407,-0.06831352915501636,0.1539697141569169,-0.12136487162645378,-0.10388421243256371,0.09492800173120156,0.09740442732553227,0.0805371037696088,0.10741772341947133,0.3988880723010707,0.12944624161715673,0.12483657665796997,-0.24610320240103728,-0.10260222918227214,0.19290183945049116,0.03087668173325376,0.017677532591715464,-0.1787413565842991,-0.2145680953092335,-0.01094173505869564,0.14491361995442825,0.20197685883369967,0.08506976423855021,-0.04740763035447816,0.017766631907574236,-0.17549361188287022,0.14954589535001359,0.024299653499804796,-0.011794579136964923,0.012227352144300641,-0.12362771489151943,-0.00045757103797740994,0.2273114790143879,0.1387146605316844,0.18405653262466273,-0.04621454911237979,0.3393371558065748,0.16997002660278202,0.47115214143619766,0.038522623354864054,0.024855628413710498,-0.01875233008679076,-0.08125124841884543,-0.16911230771914718,-0.03673446826229187,-0.09275182389114191,-0.07482065168657055,-0.04837156541506736,0.2133908094593838,-0.005990786907282639,-0.19048137774943238,0.06170730891826118,0.1738767198664729,0.052014182996300735,-0.04863256805411634,0.0836860636316753,-0.030443222766052387,0.005553610799031655,0.13995920636690906,0.0491275300176712,-0.006411315405674487,0.13249105986371632,0.11973696816874962,0.3498064303722124,0.018450948261961485,0.23875323682816854,0.3156554522841629,0.21676472221943216,-0.16734080683472277,-0.3870511606035265,-0.29410957757054595,-0.28314581034260583,-0.2927713846042776,-0.03632043621975441,-0.07695280513625254,-0.02386799793646817,-0.060245323342663644,-0.04105463443891318,-0.1022558895458735,0.22989514833174915,0.15293982692701769,0.16429768860521524,-0.0019280313840474596,-0.0574639637235099,0.06641850553070952,-0.07132810890347974,-0.05559646269510805,-0.020936720657516977,-0.06524478079012384,0.05844667304687969,0.10854374748331497,0.16571783926533967,0.010005753739794666,0.02589528426195485,0.20951283985898253,0.24322825484845229,-0.11985509863978666,-0.44797095214479293,-0.3256981989872151,-0.19091289321998428,-0.07634063897297214,0.2023157244516346,0.21259384203177897,-0.04644363732761949,-0.1226826136213501,-0.04738819301047514,0.2803199845719014,0.1258830441684361,0.33082563363238016,0.09538148284977918,-0.01953352154113809,0.0999564638874118,-0.05561220756412427,0.05084289107703847,-0.029325374834104186,0.05186211871187104,-0.051428846613393954,0.12962127533008724,0.14127929564552213,0.052837140697152674,0.40789207832112223,0.16550267147214343,0.39657632019187083,0.33795350739015306,0.060876054221033586,-0.2609047672166014,-0.06968070167761274,-0.09194549440792382,-0.017729919330919636,0.05214428911220447,0.1336877814737989,-0.08503716636970107,0.011784866758637994,0.05269375242937142,0.17171949804239647,0.18225144290452786,0.1576699242251596,0.11234730855332764,0.11262330812860452,0.0840490705305556,0.02199545101414693,0.03508127746440708,0.14271052188072217,-0.03472772055661466,0.10026920801707541,-0.09567793068444387,0.12896458085488677,0.10720674727281802,0.2812793080922717,0.285366393929224,0.2780129437036194,0.39045324784653906,0.4316442619504114,-0.00541584966335011,0.15837578972961575,0.02900827320500735,0.012162218024961292,-0.021322109379243583,0.23605396051099523,0.09494138072717104,-0.07911891203489807,0.04723253181097606,0.23626148561956836,0.17891205529817278,0.034181548035435896,0.0677286291052321,-0.14579528205241246,0.08227226235129644,-0.03664516546063043,-0.040903404716740116,0.07803110945388836,-0.11077699734178645,0.20122671005466794,-0.00889306422497456,0.03576979546245723,0.2312073279003178,0.1643732431183374,0.2933092964180588,0.14654329106211658,0.08988698923384604,0.16321643982157658,0.002576844592777465,-0.03667515746804691,-0.05368136394028,-0.3888369631206702,-0.02734973987884288,-0.1752577826012499,-0.10175640109127372,0.06321657287495616,0.05649029292436351,0.14222834722752847,0.19929531882570656,0.0714493215821684,0.051294930883919135,0.08516573510894486,0.027712121615081884,0.08708714644074107,-0.09746714119142999,-0.047796473699228424,0.06780354182791774,-0.19799738393758148,-0.08031974683327121,0.1427843439465042,0.07633573051489231,0.23535683796064916,0.2351066792639909,-0.06394088953705813,-0.06910024588978303,0.054053076783450046,0.18647702830866716,0.25093308788063123,0.22965281783653924,0.06952180410160108,0.12593150018840182,0.14006781833615872,-0.040792694558045045,-0.02617613084912583,0.07778399668249111,0.1649262734608235,0.0445471725551618,0.1140727237951571,0.07047310172361371,0.08167016133785623,0.0029970590133959947,-0.06717002869909347,-0.08817267851095983,-0.08763077096726632,-0.11930660090817173,-0.09105074787413744,0.15748184810911448,0.063214277169469,0.014225970003511458,0.0785971105765206,0.1559780877416695,0.1264081308438905,0.03556368476316706,0.04291426464787885,0.16309750895190364,0.09084403599023051,0.1415224001500595,-0.030933108925224485,0.18529741226912638,0.19524583601064183,0.25926108710013857,0.0029809779298985784,-0.058234419403936914,0.08146443301982292,0.07432362003868175,-0.0004559016776575559,0.06085171728454998,-0.05158775889235324,-0.10356736724145026,0.03745953265214528,0.06139844607133534,0.005004547940395891,0.12021591625318016,0.08261721710286507,0.23819354134353016,-0.03384963037801529,-0.005441217764318193,0.06484931949826515,0.031682835181725495,0.07032402502382341,-0.03631312033802282,0.12170886274643353,-0.019367838557187336,-0.058996543127943675,-0.14120044355899844,0.08332420598591087,0.17564248943737035,0.2644566222277814,0.14165609674964813,-0.10088710731615819,-0.06721558936575622,0.016127216404880008,0.003188219582220011,-0.014126762542943953,0.08559038037571769,-0.08757798320809498,-0.07267418400072348,0.11172131409513816,-0.1304718632037344,-0.11513902947746901,0.07288720239043725,0.020757796128177318,0.0028789368845226525,-0.014341357121560632,-0.005315378532872961,-0.035241932475046735,0.05614903591571705,-0.12787213526833724,-0.04580097497241324,0.09777414500117289,-0.06337770534683042,0.16965851352940248,-0.08057832516229724,0.08496700461484015,-0.26210194870610287,-0.1026525330031248,-0.21835227823046266,-0.03129112774190714,-0.2032521474364503,-0.008514632779913883,-0.04087721293608239,-0.11015817810635782,-0.14258906113226216,-0.04452337894109587,0.15444910711812218,-0.025342912533765985,0.08166944306243054,-0.00444417829040767,0.07809017739290783,-0.16087993150082255,-0.034934008054768574,0.08577296258074264,-0.013059487658327627,-0.011037340999626792,-0.0431558531706546,0.09537405838611064,-0.017691257997021953,-0.030290688134873855,0.025525939279196035,0.030537381122202896,-0.04800250649041836,0.11113107316131476,-0.03337734468956439,0.015955191750030583,-0.0754415267160145,0.0023743108111604645,0.13496768857979577,-0.06356680463229421,-0.1054344571996654,0.08851579143216864,-0.012551447854559541,0.009083399571941708,-0.003389743843035265,0.007591184968592627,0.07482824641270286,-0.07451755600693113,-0.0897777948156036,0.00716143790739859,-0.14233930507523862,-0.12171068861155562,0.16464428373590334,0.06660261876192988,-0.0012376302597935508,0.10907663211839538,-0.092325601839467,-0.028244393916843757,0.057143315574221656,0.08452807029500796,0.04601894702111013,-0.2249216616120541,-0.08591593409638573,0.041818505071030576,-0.03181071964149344,0.22417812027482298,0.0815482018941863,0.04897917995222187,-0.09907408079032826,-0.003468575818995234,0.02097086451541796,0.09933417624369006,0.07753296640605783,0.0909554527140567,-0.08201181177800185,0.12446899991324381,-0.12236274856749338,-0.04771735791447303,0.037527172011435794,-0.013932384548151698,-0.06963683240978409,-0.037793312613989785,-0.09293174244834373,0.05195054397492854,0.11365630372033621,0.0014980139432729045,0.019226141279139106,-0.08412109697793343,0.09729134745778698,0.24012374070160775,-0.11851894222560899,-0.0676243453678498,-0.02319659438526709,0.0038957775163082084,0.060896680426825375,0.16930526128516757,0.11420479878210117,0.0530968141535445,-0.06433561729505707,-0.09931084488354944,-0.07077440809952545,0.13648231129499416,-0.005806143722335509,-0.03984387345873208,-0.016809098591955472,0.07266063357373027,-0.11499886260187397,0.12643513922104,0.04021105477025823,0.05512352254323592,0.12356874064069112,0.0006306761575674201,-0.041108770961948884,0.026579509853000588,-0.029637470782806364,0.043703359183401236,-0.021971118308637756,-0.02785401882475043,0.010979874520620015,0.17259090672268507,0.02965929910971143,-0.019951715663325233,0.09878299854466202,0.24754564476021096,-0.0678540410289659,0.05807453261715851,0.02360443575359896,0.10111635756306796,0.08723606920343535,-0.016851665211870908,-0.1492404521201759,0.07094208338922353,-0.07571635676293553,-0.08379327706730227,0.10320567847483823,-0.08800973174052515,0.17997227160678117,0.1292408765905324,0.07835574993693621,0.014334401719377174,-0.21451730475058461,-0.10770871965681147,-0.0003414839694195492,0.1584797904700131,0.09898850578455563,-0.15141613821755445,-0.08419862822027895,0.008917473844614799,-0.0458720224687271,0.11981631833630621,-0.09214674970813903,0.14339401663900353,0.03784915196889721,0.10915585681130423,-0.10040056487850171,0.0003842095087587912,0.19069992742773448,0.05817089709699118,0.008541451515905765,0.04730525129274815,0.0035991822568754335,0.19590464363691346,0.09366322589639249,-0.002756738173372079,0.09979304459456932,0.023044093265603777,0.08810362685179791,-0.14096478696808099,-0.14938359914079885,0.0786639831896558,0.04244716170085258,-0.028966709931231533,0.021944213917551157,0.18136015201581307,0.07209221241335793,-0.017294478096542578,-0.10053027912881407,0.015819282473648534,-0.14602939846435029,-0.04766313418642635,-0.042575104266285205,-0.21123828114851653,-0.2765709039287497,0.1029757193034002,-0.004923842058567108,-0.051388479206812304,-0.14993458190528836,0.06411696308293646,0.061446093864099396,-0.022737546368791415,-0.09567171425195276,-0.008597790460750236,-0.0015661776427989245,-0.06695545612710391,-0.027881376812561975,-0.08257254973316941,0.047475244228068335,0.03766418347587766,-0.042883979280287345,-0.06809591786938103,0.19446489830036875,0.022765552469671765,0.2023163112868261,0.14951533488798194,0.013525597003608615,0.19263129246056487,0.1519394953211025,-0.042718174972093965,-0.11284645189304846,-0.0029174151441071633,-0.03180762329746012,0.028984247169827195,0.004140316204005705,0.16193549009954306,0.031091290679420115,-0.0425175367564221,0.04074389403386599,-0.022499987644047887,-0.10266985834038293,-0.12871467564322525,0.06452225735305264,-0.10318810164399153,-0.05416459955069236,-0.26303183367368776,-0.2695692116659003,-0.07254683552843734,0.3157081152710135,-0.02422340926897238,0.022797997017116708,0.24532531253087303,0.1963914295556659,-0.0069706874246432855,0.2227475622949534,0.21026620872311452,-0.013707207947914744,-0.02248469875377503,0.08696489247044953,-0.22291910046601193,-0.10485800896818448,-0.05253357997376133,-0.16292545713894294,-0.07339498762437582,0.016720610748506837,0.11476337772676369,0.08138720350647327,0.021645350640355044,-0.09579826807338619,0.10064037313610412,0.00879176588325419,-0.0868227366125986,-0.11223049974453475,0.03285530781358008,-0.0381752922836519,-0.0419199375773972,0.0289923746538143,0.12382398663659319,0.1599143074577136,0.24517991122338695,0.029233450668122926,0.2661283450626005,0.09934019988450672,0.0466442690148447,-0.18095460734601682,-0.023512372936753158,-0.2964408964095247,0.007464370623072149,-0.07719420764116272,-0.19377709501271506,-0.043932599211568946,0.05150972214501838,-0.14121363324976835,-0.0005935128294085916,-0.10740891140825937,-0.06342860930647624,-0.02549796041204439,-0.047337154701178566,-0.041741870983969614,-0.034956234021975036,0.002857788095629809,-0.013156419353479866,-0.051767192392539754,-0.07107881408923099,-0.002778616716634633,0.07596241100132019,-0.13852398994498488,0.012713425157750001,-0.02748743049230511,-0.03171713431535597,-0.2528279161045869,-0.2992797167671218,-0.33984318042367473,-0.5031596842115559,-0.43114243538612845,-0.38222487048684434,0.04630487874484227,-0.15055179970585866,-0.12402093977705651,-0.07443134218019674,-0.06862294485894328,-0.02379139459842618,0.06135927769321235,-0.04746622314552981,-0.11201331275503512,-0.18108303849288274,0.07927242253283415,-0.007841268120502414,0.02883258462099418,-0.00961081191838854,-0.055801406892921464,0.03318652284270668,-0.03246767826344723,0.004002301208759171,0.06688354433488779,-0.2573698923823411,-0.5108001349375404,-0.6183260632223936,-0.6708582255513207,-0.7865870740233769,-0.5050596325961764,-0.5216452227326349,-0.562311253798571,-0.3047059181345292,-0.3236582902355427,-0.05049878703851134,-0.028046248704261062,-0.10979004934156272,0.016611817689448433,0.15035411664353715,0.0018296362772736018,-0.06976107588309037,-0.030985484982006414,-0.0182808041380633,0.08664205294426175,-0.10620768156374903,0.0890978019415487,0.1824565456774575,0.032253132511167217,0.0541754231552162,-0.028687311639521776,-0.04608406265221246,-0.006876917115134051,-0.4997047668701992,-0.4650662804515869,-0.6129612709544922,-0.5551063399705412,-0.6229067236278628,-0.42768313623551024,-0.5156787657156539,-0.44533957893270043,-0.3077216913028478,-0.19053612426463315,-0.20901019365583223,0.012806682276738462,-0.06544903881974255,-0.0016895978756227077,-0.0487709719558489,0.07856006923794658,0.019171261546861478,-0.011674851131451851,-0.005337816048536873,0.07879905044516762,0.21702973261883232,0.03266258805934401,0.21197409721929547,0.01801912422002173,0.07952379957199789,0.009683461472420772,0.14627899778301393,-0.26694156309030015,-0.20920535271992188,-0.1671582185499317,-0.07561326900255841,-0.20393066538666454,-0.2659680632578196,0.14070988449722988,-0.32833498757785273,-0.23900112681044855,-0.051652004390483994,-0.057071818617065374,-0.08555435681207892,-0.054302805487272336,-0.10680064646895863,0.0030340030213027052,0.045642325205525865,0.006140992283660795,-0.06617287456846999,-0.13685153318969426,-0.00022086982181488467,0.1871702477193215,0.016218074541714447,0.1697084506122226,0.17724832819884653,0.21407016529047154,0.0075523965609798505,0.1729177826947354,-0.32963514017191364,-0.30958514665344317,-0.2160995623046097,0.21074145730095706,0.06242008562813127,0.3315251193553435,0.007803497234844669,-0.019277988399957136,0.024576617505672728,-0.15145971299528949,0.248153424901384,0.19602708283646741,0.062299594567728954,0.028886685945520765,-0.08750624644583824,-0.03842985611036581,0.04969175043348313,0.06174754325972117,0.10269260432132726,-0.09002666820824094,-0.07600131397842137,0.1666030453753356,0.03279756214286993,0.09120515298472352,0.12031486093009107,-0.020395788796025816,-0.0705799789777011,-0.027239763905617092,-0.15014932280083795,-0.2174453075352566,0.3753738046730353,0.283320157317752,-0.010522443697134804,0.13102519179845284,0.26096586086060425,-0.14420967903084436,-0.19860593744250482,-0.125162846188082,0.20965809126921728,0.2808993760877033,-0.13084981404039353,0.05100665677051847,0.15027715602052216,-0.01789596276806765,0.14153383309192102,0.019562555061026235,0.17199781686563553,0.05801666737252643,-0.17043990053798688,-0.01874957114712485,0.1384527415056375,-0.04751733532908219,-0.03777440926182396,0.048230684919274715,0.0925901762802482,0.07304812389261173,-0.1517427169659497,-0.25209895106840274,0.0270081840392805,0.05342425743924975,0.07633947932449585,0.16002553865161254,-0.02688037061768735,0.03957387596522794,-0.03654317149588161,0.047473268227031816,0.08496032568864287,0.032260374064081616,-0.13192308249042764,0.008616239058531167,-0.0048438467712612005,-0.11141674670834537,0.008954342369758157,0.12345291610999701,-0.0973176092863879,-0.018972752826735655,-0.09275425457217057,0.019363152649610398,0.010055457146593056,0.050065407360661215,-0.09357831318896805,-0.0851134308307119,0.006371182743865566,-0.14996564532317244,-0.28077928235142496,0.024592324367344067,-0.045945604693646225,0.045384732247502634,0.13624054476010608,0.1337132417634101,0.0655086492918911,0.2721705408095748,0.1966195060010749,0.07873444105730487,0.04452575354659123,0.18797404793537542,0.1123084023688557,-0.03593425089907552,-0.06383330299834858,0.06230634735680079,0.04042453764432355,-0.26619825659789864,0.0229312628799106,-0.2459252372292103,-0.01014691612929177,-0.08022074097859783,-0.0748219907683806,-0.05268995431226058,0.043170248845962905,-0.08579436362290752,0.01047249627914834,-0.06010848173461331,-0.03584763457786318,0.21487302816197654,0.05438505562210203,0.06656113503342756,0.20487538590264676,-0.059145919319898654,-0.035584137184888155,0.09719203556440459,0.2843329743484253,0.13285232887409654,0.13825412147459168,0.05614389528028955,0.03947681285102787,-0.11502243486944747,-0.04275734943166664,0.020869479993946793,0.009630834125525043,-0.04805990004495147,0.09047276911531961,-0.21551514421876164,0.014919865794572591,-0.19908415814604205,-0.002188147914614852,0.03963104680920236,0.10010136009037213,-0.040664920247192475,0.1343125403137746,0.08779352824181089,0.06387299685965353,-0.012369091683896605,-0.3764593866220053,0.025353268984224235,0.024511144964834173,-0.1704633336859482,-0.1716211438817908,0.08306021240092193,0.22152536879293586,-0.005400491951808996,0.18361329871873833,-0.0009792523213433596,0.0670773894889864,0.0850485241557808,-0.014785502400358476,0.04409574814267103,-0.005343413284379565,0.03907170844328563,0.0182599511899296,-0.06063699048260365,0.052781549618292165,0.08088073256200175,-0.005320516810745042,-0.012670404012761425,-0.10128177287659432,-0.17219413122953872,-0.22348836244205725,0.2650394197382114,0.030583576710377987,-0.16654796143755576,-0.028826678283446604,0.027011343861632522,-0.09413972481477492,0.09580272948542294,-0.034876422086403666,0.05920550025181966,0.06808720463067944,0.04847731968444118,-0.09123009845231242,-0.009493447812077343,-0.09472107783309777,0.028718383357737524,0.12076093779224527,-0.0003784201884488991,0.03726439296880088,0.029278613669249103,-0.06987157454551957,0.12018244818896534,0.1210406497113961,-0.06974162592065011,-0.052352055251577385,-0.07230537735319927,-0.16164061133687382,0.028432681699185655,0.18745779672888477,0.22588626896674535,0.031539973263968575,-0.1857788739318905,-0.2535245760108392,-0.25730041242312984,-0.08828020817006854,-0.06331144242067281,0.11943616145412009,0.04975636186944125,0.018041537697128244,0.049042812647430385,-0.1404053218880079,-0.13985117229838437,0.024593497709390278,-0.05223221619431277,0.009260512568840357,-0.004527554499098155,0.05834516695527656,-0.06854461269559076,-0.0187835546800055,0.18743971637732187,-0.03774607981360331,-0.07259295424177203,-0.1095806797711517,0.005390845355092062,0.08538123460905923,-0.05803386568790521,0.12817597572163522,-0.050100272657741404,-0.031084423125066617,-0.12776025181948927,-0.013261148721989966,-0.2518118897848092,-0.12298952173757997,0.015241152505322165,0.10680870930466639,0.1311503016422901,0.0167937684746028,-0.041423018122733905,0.08977895016353937,-0.16622401150101437,0.10787200556019563,-0.0013306542350157676,-0.14243204753144392,-0.08571249935422967,-0.06459935250959861,-0.06442788841267097,-0.12362740228448463,-0.06327409902037401,-0.04980268688362824,-0.0944640112359818,-0.05137976497101308,0.03433202284383082,0.047254493027327746,-0.04011054849253972,-0.24484266462703821,-0.03770996430458148,-0.09684219390891437,0.035959929902763796,0.1658544537269392,-0.22541393742077473,-0.1351421422639467,-0.05117820147194625,0.08245411991807487,0.20673859103753123,-0.1513743798795475,0.011173338434041512,0.1342921824297333,-0.18481829782363687,-0.03654725895792636,-0.1241129573971886,-0.08277337275968062,-0.08982332745809626,0.11019253449043898,-0.01957836126343108,-0.07213741245744466,-0.0828699768673198,-0.0023526913221413124,-0.08134981122296712,0.005818288256042037,-0.05478662042819322,-0.10850905150073673,0.0009345332483730709,-0.12157079901609827,-0.043170217055353406,0.17788223217740476,-0.029557380577076624,0.10040019129351335,-0.24391307020787498,-0.13000100094911626,-0.026454232125037443,-0.04179213155065697,0.03650168448546154,-0.0719126582445811,0.0880346107933538,-0.06714689496365718,-0.105502275296416,0.04005513808512786,-0.07313009573345838,0.14368693653387776,-0.06904665772015864,-0.026865575782236275,-0.08906427783769887,-0.18110271040259318,0.1734371178434358,-0.027481061615429455,-0.05551191725047456,-0.16925192391151436,-0.0029570569651629357,-0.14230859208730698,-0.14533519552823745,-0.28129512641726884,-0.22820403759572505,-0.02877301458747635,0.036755117048997574,-0.18798460374268,-0.2353054782385134,-0.2848251928358454,0.04244852346616744,0.029832537162249914,-0.05260697697588012,0.11562753177143008,-0.08073941390057833,0.07323012156255028,-0.031514016630101484,0.024152658495096426,-0.05103166049256023,0.031965269755463405,-0.14776106430121738,0.05162692963782099,0.13746248479608567,0.08575955811675091,-0.17005551310291628,-0.07809199443756601,-0.029577338607907636,0.027792168762823758,-0.09686905013190074,-0.11272567000858714,-0.07369977805778763,-0.0036923359162531304,-0.10064152816912095,-0.14585327342442087,-0.2693434985325537,-0.07972450112397242,-0.10198536656032077,-0.07941044677587861,0.005597645639411203,0.1648955885080114,0.07371204335235293,-0.08612426283701331,-0.1102647798169402,0.07110805237578001,-0.14767961013026612,0.05552117106136833,-0.01735621814876627,-0.10427886701906919,0.025041443870717137,-0.0006029692898160166,-0.0035267330437930436,-0.007271389539784871,0.03706016402373783,0.07700120990885347,0.01772538562810173,0.06686779329146701,-0.03843491971578278,0.15801256094457733,0.04626802147311715,-0.008866758473840145,-0.09555298723834718,-0.03387520423414367,-0.0768407893690176,-0.12854170434403803,-0.05428770587974119,-0.11075760987362827,-0.10490329326758253,0.10336720017261507,0.028419625197889185,-0.00014567534285910336,0.007452742035993464,0.10081272616695769,0.04208818850446777,-0.020363218901188914,0.2171651792105459,0.0167837116207866,0.09970730796702432,-0.04993293925704023,-0.1208168535940787,-0.07012163172958949,-0.022990063607287774,-0.04580105214026785,0.11763841381775982,-0.01584800126446804,0.03137302994568723,-0.020903448682399253,-0.04794322610520317,-0.010657010503613165,0.1414842440446358,-0.038500850411534455,0.10116112514298849,-0.10880022718697131,-0.05082790036558971,-0.01558437915754877,0.030989272174467404,0.15514075336774605,0.014334868380541073,-0.04669536711496177,0.07915831480903193,-0.026561921066055188,0.020773930847133117,-0.01062218479686711,-0.17212769513913612,0.044578969797509124,0.05121417886569944,0.08155230906572189,0.15879117324809627,-0.10598200313283562,0.04532510783870332,0.035884148990861474,-0.03716242891333558,0.03545867417989503,0.04400851430954009,-0.10818232086377555,0.0229556984781925,-0.07998563660313898,-0.053892529981287816,-0.15678286002980715,-0.042660636100207,-0.025148421430278504,0.046801427782504096,0.001083419884188657,-0.14115941885143304,0.06948788390497082,-0.012472507528052058,0.04545567166846289,0.0855158499231601,0.1255155787041573,0.1730008576251698,-0.006733819843273989,0.027151020375096983,-0.09566331031366213,0.07765547448412616,-0.12090785378340171,-0.17574082425587767,0.057218836513850325,-0.0622895042224764,0.05255381230866906,0.01989143356441028,-0.16025085139486234,-0.25656557555417486,-0.11310442686224914,-0.014719955123964115,-0.12416840182795424,-0.07383955315485217,-0.1447432085155095,-0.0008150918387432676,-0.008135186527374707,-0.05872710901812774,0.10730668313145736,0.11620294610435347,0.033785423603515004,-0.17525641128340552,-0.11381934718334596,0.01980796683349691,-0.0717347763281044,-0.05923081721113108,0.06328063218888802,0.028977770953735504,0.09997832855106192,-0.05411471093434834,0.10537629214880076,-0.06515635571855657,0.11635996471760132,-0.006823780765281473,-0.09223641502917262,-0.1599908363555818,-0.04221618062036963,-0.04310305968918906,0.05461428788108182,-0.028025990691026244,-0.05234591222023958,0.07735682645802626,-0.033638618097826575,-0.06947583869612502,0.03449756393166235,-0.05416724718561843,0.043442352567395766,-0.06910518885413716,-0.028217559601602472,0.0018826033675138428,-0.04893827097850726,-0.017090954977471002,0.055956234824763494,0.020114803467754305,0.026334519904755434,-0.07234225692346394,0.059202603634595334,0.043003898516669296,0.07260134234179921,-0.08036317534526467,-0.03138942005576128,0.039956213164273405,-0.0698308240486305,-0.04062133765995438,0.15195993809521494,0.1450684989383325,0.07335043105293532,0.05243792568218377,-0.10993362842550954,-0.012321799157189818,-0.09979948924005916,-0.14464869212690545,-0.14728444517358225,-0.05665328811990822,-0.09542923133977133,-0.10431065622788382,0.033956470855089876,-0.04917128347304763,-0.03291087010530924,-0.011741950852876874,-0.07530457852229473,-0.13943482042566258,0.009998992401168893,-0.06099374051920554,-0.19390733260934112,-0.05087598168084027,-0.1127169495154102,0.045027049871566124,0.02969559677572416,0.028863535455027674,-0.10406685174271531,0.034911936921613596,0.01083906074311077,-0.058688827122148374,-0.09421213301198479,0.00034733998179165714,-0.10378658829643428,0.02807077665447403,-0.05306840792518174,-0.07243670661181176,-0.06787498977440624,-0.09711300639483705,-0.1272273786751374,-0.1829480200441708,-0.19888981125735772,-0.009998487813197267,-0.11168950203710012,-0.073168889448865,-0.2301394649918047,-0.3011855712376905,0.0634126814389416,0.03865895525468747,-0.12717347722387962,0.09191050651298044,-0.20061037912450427,-0.07078317869131193,0.0671523172810152,-0.13225218682326723,-0.05662708801637553,-0.24497477323488923,-0.12251606111359507,-0.34790560403568405,-0.15826088127460847,-0.28035646990926555,-0.1685471477276753,-0.1883674326275468,-0.2263652222075081,-0.32880028333887457,-0.24451986047081425,-0.2029932423878505,-0.03674687145674149,-0.06067320275299493,-0.15169622911518074,-0.33660807679357657,-0.36888006543562946,-0.3475633532786488,-0.1630910880336338,0.06562282324467708,0.10328532917766482,-0.01130132990245305,0.0029132231520677277,0.14780453652298425,0.1089499042611671,-0.04710875052424443,0.05926590398059459,0.01979948031498214,0.04123306430079526,-0.14481092663808764,-0.39352436809732977,-0.4171596672517487,-0.05726790434776982,-0.08411726867483293,-0.14931065159869608,-0.15632817205995045,-0.10323613049249318,0.11704075871139544,-0.25716916120484745,-0.05977235029468329,-0.07356705219920014,-0.277757638103608,-0.0034146431905062447,0.09606505890918579,-0.17591701436803722,-0.058248226141946614,-0.22470655005064186,-0.23540842153585495,-0.008488319443881526,-0.09213420428155278,-0.16462988503138365,-0.0071462369244210434,0.02832077892945867,0.1214987533509293,-0.02102119748176931,-0.13292174709625185,-0.07507974831007759,-0.264236743388376,-0.3953803723013963,-0.2956962871133848,-0.14420529516844466,-0.015973022595359314,0.02844385987779342,-0.14074081418680545,-0.05216652542113672,-0.1545514527692507,-0.1938891245695183,-0.2752397877923174,-0.2573696386110352,-0.30285151762596046,-0.031298916966429655,-0.027339819231158826,-0.1989131377217304,0.15639819114717643,0.042179200725161375,0.3148661571831706,0.09239312816999203,0.17713939910206442,0.06418908573080317,-0.06526046405540067,-0.03410601712048152,-0.12740878252357535,-0.19023253519763958,-0.10069083530452991,-0.08328739759180599,-0.1900812257591803,-0.17257862614783226,-0.02269297844363548,-0.0864335098861807,0.2164569704873889,0.09380060480075485,0.03362366226156404,0.30494848163518756,0.10633916561518232,0.029614455788659948,-0.16946901248299714,-0.07079661625774578,0.05161590269185002,-0.0937969831080199,0.08758053736366853,0.16514256859312698,0.3058568210454703,0.4096277389800805,0.12760439798000253,0.08735152046979605,0.04224052518557864,0.04773044573025091,-0.021735715460164305,0.03062435875179869,-0.12414353567042466,-0.028473087661269447,-0.20646788341052028,-0.26549974621708433,-0.048817710543659666,-0.02217556802086471,0.15709594735622132,0.34239122215487844,-0.2451267835230338,0.031013930260124105,-0.0024159027875143234,0.13700750638717266,0.03608002487704645,0.022061680129855977,0.23129856263506784,-0.005927051375770611,0.21599918307179186,0.2961892729097648,0.2971603728197256,0.3181830831042755,0.2718829729320783,0.2937597289124298,0.29280360925015486,0.26868605729005157,0.16003529794008498,-0.18088841156891455,-0.03176309043629964,-0.09429443160593055,-0.10062872818660294,0.03767406771467279,-0.10488338029042373,-0.11750420929865958,0.036609784422484394,-0.03657754668651587,-0.2611882815177535,0.009143806212415583,-0.1652985668152298,-0.2277263821190039,-0.15747986733131103,0.1740484042606282,-0.015884807287486306,0.18987660861996078,0.3092150226897983,0.7027143587061316,0.573906387484854,0.3416467417935319,0.2715106380581735,0.317873133209559,0.32786722096279897,0.24495553257274053,0.3949738090748898,0.2046088549072595,-0.013412516152319245,-0.0407161832621337,0.011102448340441011,0.07331900184376013,1.202764562866743e-05,-0.11384460315989452,-0.046417023703221566,-0.13001293624270555,0.061110576872501765,0.033661141779757785,-0.001066531369362766,0.043401070128795266,0.3825772171929458,0.08482919789773474,-0.24548792918675647,0.048472824912816834,-0.17077930117602538,-0.35019648830681466,-0.6255738040511911,-0.6175996579630856,-0.2465265025394267,0.040737168970302155,0.11114550118436939,0.28397003883234423,0.12121348112248656,-0.11435665065470796,0.0045378078542836564,0.10871838357529508,0.14209680547730752,0.036448025841937376,-0.03456918470019979,-0.03349439520404645,0.14204805751364263,-0.0027426311043287797,-0.07483200112039341,-0.08579930673313985,-0.032261563312828694,-0.2932412235040978,-0.2165928276299621,-0.11626499006380593,-0.007812615402029545,-0.08264485048757177,-0.19693189364295996,-0.048107419118455265,-0.22380834029873614,-0.5004651086223922,-0.48589422849718555,-0.8476829011677459,-0.9688472385917651,-0.9673071561411529,-0.9574751342286227,-0.6006820155379219,-0.6308514103168049,-0.5146580943357566,-0.4715998997689142,0.11800907104247055,0.05668629675591113,-0.008079198077573712,-0.05215776546638649,0.022015500110301196,-0.03825911569307002,0.013186115912328662,-0.17515632851397256,-0.07412743523078791,-0.019788933351813864,-0.15876679434670932,0.03761920461848321,0.06814690388267987,0.17974297603835085,-0.1158819057290151,0.22209248422033065,0.340257313377116,-0.13070329000818134,-0.010588157486586673,-0.30024855697517033,-0.3184755946826239,-1.0332156982968528,-1.6699721050444227,-1.3337168784419282,-1.0231761982571301,-0.8896856459449116,-0.739836037152412,-0.4777302944618688,-0.024750388981977116,-0.10149595172239563,-0.07863973697173814,-0.1247366705136415,-0.061184941734033355,0.05580243834071972,0.02890641440953374,-0.03978001334282636,0.18812179096959158,-0.03186878024347488,0.06469701831887702,-0.23569077988918696,0.005275480125360304,-0.23904015409497695,-0.08630750743626091,0.2351126083569647,0.09625388030123946,0.28733132484806817,0.1242962080548458,-0.13869391037116213,0.24134826866405623,0.2033344098498449,-0.0930018887158601,-0.5237367418824834,-0.7568465315867547,-0.5469320523826227,-0.6075230762154429,-0.1949827207978072,-0.11940758200659507,-0.11092944459130925,-0.00973283165715296,0.0660723308284444,0.07536702576129596,-0.0009225850096673839,-0.13533187351384826,-0.008882352036476426,0.00095514661203839,-0.008708556126877967,0.08421082558361363,0.0066375984127680625,0.19750124160897348,0.056122168902577846,-0.1776472183823392,0.1688979710971382,-0.02311627615570933,0.040536210603479284,0.057608049063788726,0.13197383253805595,0.07365946639958514,0.11885312764873347,0.027225098303332307,0.010740157982247806,-0.32124228123449766,-0.5121333733387387,-0.3445100668659601,-0.22371329174840168,-0.011702663822302225,0.08717857567904876,-0.07644052520131585,0.0006482770460085066,0.050088763032987545,-0.010394869828933489,-0.17424728199216782,-0.09757699312031069,0.17175929239718912,0.01716500400494019,0.14251459770970926,0.0031589313255276567,0.2405153352391699,0.06256674677786486,-0.12123643956611892,0.15379458670067694,0.12764241761763165,-0.013465097347125105,0.0739115926555864,0.028285667169036334,-0.09160178468747661,0.018830983600456264,-0.2155216259210861,0.030265283201129645,-0.12037442465501394,-0.27381975956704685,-0.15745412416137697,-0.17239244467945863,-0.0032646730007562753,-0.15174703145421126,0.022963574557477766,-0.1016521143161385,-0.17039059350441682,-0.03160395176706233,-0.04056442803272727,-0.02662495140892371,0.012501208413883375,-0.2430829814181623,-0.0895376182406923,0.04124488456055156,-0.18954564976134125,0.11411109972240392,0.0504467683113217,0.09145520073355849,0.20554627926988014,-0.045176775590135554,-0.20005710820104597,-0.2325356872982416,-0.12378527165678758,-0.1536078343940181,0.05492635767584376,0.02610836622655147,0.032752124974855974,-0.10681036105104792,-0.1777923548288968,-0.09550209687222212,-0.0340428259553589,-0.06951781866360941,0.013804383677948498,0.0603247310429506,0.09614360520868925,-0.10286109708529291,-0.0009642445214657768,-0.09883204158692523,-0.039996739266202286,-0.04580459237081129,0.09229081810263082,-0.020142010410216633,-0.2692077415618529,0.2457851475698232,0.1678179738081277,0.026469660451821517,-0.15420911789317027,-0.22620042981823155,-0.0877652968628421,0.05932215555356746,0.11916286314653124,0.09153716247899471,0.0010557361396905881,-0.0244511205745001,-0.0645874209049721,0.06305541824324283,-0.005178075243252777,-0.014645707988688384,0.04244420011502209,-0.03803032732256609,-0.09832171983609181,0.06504272928010625,-0.009066304051474815,-0.11647892425046606,-0.14546632950607605,0.04975246228459311,0.07793924092552959,-0.022789240397817028,0.11503054591273579,0.07791742573349827,-0.09563065875635071,-0.5007299874887252,-0.23252368765327766,0.17621009806422813,-0.0026784002257122827,0.01956795646872288,-0.04304255756331129,0.09034940333871146,0.0864770701618433,-0.18605796904415592,-0.010255539043084731,0.058033754092905426,-0.156373277200965,-0.04183283119808141,0.07741162643505008,-0.06549758023615371,-0.237036553620398,0.02201110806160907,-0.09015088883786593,0.10100647796317999,-0.04612863638421906,-0.06973469568265306,-0.10986611937982844,0.07158182865018918,0.09004655416955705,0.11004227275658175,-0.1286485378870659,0.10366457651184069,0.0973304731553052,0.02950206364288635,-0.10736176776553136,0.032644278098631865,-0.009823760929705999,-0.06362337497339975,0.07877202662506141,0.08683209672540149,0.01692413667244189,0.026409940365690103,0.05062675221797713,-0.007451362789976964,-0.14364110984633788,0.08447320288343921,0.1893402343894654,-0.04826626338547924,-0.10210599159928638,-0.12482849242631053,-0.050933927334484666,-0.09186480237315864,0.09448985693169581,-0.0025235289120459797,-0.27804557890469817,-0.17426946500658552,-0.015745041642051403,-0.029060033142222004,-0.0953955554674788,0.10079963042150684,-0.10242751570339663,0.039428048093478676,0.04258994657602401,-0.030447796393837635,-0.07022914289860387,-0.19137803904695708,-0.07374539349248488,0.08817632839429357,0.026671341609318912,0.07398246056342062,0.15503550121581142,0.07109687435075222,-0.03916951402514933,0.06884208502852608,0.11646162576695457,0.10315352320592765,-0.031448438547964065,-0.1774076015528519,0.03559380669611356,-0.004692895745766927,-0.14024656739860564,0.06565069751424243,-0.12053256012639542,-0.09623178859042465,0.028131126043506965,-0.13247049141932854,-0.23977656799896846,-0.1185142365441134,0.0567722775948822,-0.15426354544235577,-0.006162399498273655,-0.0035876720899516877,0.14018249023487986,0.07801194525891811,0.1698854869250828,-0.27594874629332994,-0.01700661620060193,-0.03330505969211605,0.053564085924211996,-0.03294802062429026,0.13255188904205728,0.15283020187422744,0.14719005013535108,0.0816909593047756,0.025883706723123925,0.08709187179796248,-0.029962795455652454,-0.0814790001479523,-0.02130658961574789,-0.11754280596428457,-0.1890979312960661,-0.11016334253589395,-0.13535228547496705,-0.08377087204886031,-0.06707801150603493,-0.05926331482703613,0.18158737728002936,0.09216050801613802,0.15302896481119324,0.28644043932039565,-0.22430502355919202,0.09387481921033482,0.0008183944885016883,-0.06057724692676136,-0.06796260194040817,0.14775907897434457,-0.04684848411413491,-0.06732533531522056,-0.00697139433591508,0.003214675039541246,0.031032734405992333,0.14356423104149824,0.06470507374719986,0.019217235314653875,0.16758700466108623,-0.09638702905326424,-0.03318390041613543,-0.11794519861902777,-0.043231945716683026,0.1321037740986606,0.03929308525234144,0.04409060653773115,-0.07205651460141542,-0.008107484087402582,-0.04097909159001416,0.13281765687967886,0.10637604921393971,-0.20163457154538275,-0.24955040641098636,0.0415712786420864,-0.26996309521102185,-0.1030812211544934,-0.08727630943279965,-0.1281161993579954,-0.05961856669156834,0.055256855747387056,0.0755031642033137,0.1338441742016688,0.10940590308390973,-0.11035496960606227,0.018179609040527515,-0.05292844643752516,-0.03692185658946489,0.063348109443014,-0.15570128525682603,0.004192953282980006,0.11780963807281881,-0.14947584687391238,-0.10843165183509175,-0.15174714200635395,-0.09322793339840385,-0.10704150508373877,-0.03748927113353099,-0.01151455609750345,0.08819001052180205,0.25354907649655417,0.08169857603362822,0.0640120726975575,0.20166981106616413,-0.0761334205636495,0.1677447157982035,0.04922653765231357,-0.033822072859644496,0.09721462778207517,0.17175429443495713,-0.03681521078170806,0.24770187055746873,0.09493593814215547,-0.08264677028657158,0.009064384249526857,0.08037241791591912,-0.10523372104392845,0.03392703675403625,-0.0797480824735608,-0.05949417608289493,-0.11680711704404191,-0.11121215658229276,-0.30680340320841515,-0.15274725724881483,-0.34439996385175,-0.12704945429656836,-0.24751303201068442,-0.21928047522959226,0.020288884745633368,0.028736054134286492,-0.2526001516038927,-0.09104589970521922,-0.02519954059379047,-0.05747202630625761,0.03173743687002424,0.15096754882895333,-0.07177174328708776,0.03266924245837435,0.029789861133380627,0.12471546130628919,0.046526527878553575,0.1602107164630268,0.06541611530466783,-0.09159395018351499,-0.05041160516727059,-0.046900031173212224,0.27608503268575707,-0.14954288572097596,0.002064831020305449,-0.2013810106726302,-0.07626969521531628,0.0018958161332407273,-0.32659299805938047,-0.20499809703238725,-0.22040784952760278,-0.22243692583331492,-0.1491490069083563,-0.08514212614650721,-0.172870172508024,-0.026201443546180318,0.12087315969176828,-0.09137221156751266,-0.021621068546211042,-0.01812209881915684,0.1397046488326331,0.009267190217987614,-0.004333698801317945,-0.17701649821547777,0.01882542894021839,0.144116590849363,-0.09299394221318608,-0.056679728148519036,-0.11679218416358325,-0.004761179248696635,-0.010518617345974151,0.04614334311068317,0.03261501468866407,-0.08639202636148212,0.00344791965396982,-0.0337832438710861,-0.10396249956431333,-0.029782992246412128,0.3207218075442091,0.18139726506645437,-0.014339290183982063,0.1327955409144858,-0.00861685003286489,-0.026925973784679865,-0.1933496314403046,-0.10441561154856606,-0.11477597679933156,-0.0217226748487246,-0.028915981129100092,-0.07837580934096956,-0.07775613216886437,-0.03062475454539745,-0.13827830363443344,-0.07032772046508068,-0.049879191975866925,-0.12657014289992163,-0.02844998468567725,-0.07304802875893512,0.10993260537440447,-0.02081021774867524,-0.016014431390257475,0.038571894157508044,0.04996870624886009,-0.15272434716921282,-0.032564127793306974,-0.07960866824546986,-0.012092160981102752,-0.04666634830797696,0.013267214118670987,-0.08801531981027558,-0.04847239162437241,-0.0514719118152058,0.09642765944511045,0.03326643240319374,0.03334466036047248,-0.02456800271146784,-0.03326537822650763,0.05032531537109178,0.06945529784462445,0.0020779963847581103,0.10164757252758977,0.11335965456072444,-0.1464007120041689,0.03877967551955158,-0.0030263170351122783,0.03505940370783005,0.09937851835745071,-0.08062565015201106,-0.14241945204363524,0.09865182590627568,-0.08998398903339447,-0.06529996013770994,0.010221036024937888,-0.06265364693855706,-0.1445082846367759,0.005510359222740731,-0.07414395362055881,0.045920255198593565,-0.04838318271336632,-0.06764516943463554,0.008772376991687135,0.09200971725827675,0.06214147816852103,-0.12151811421854032,0.2145889674516392,-0.05271036650911401,-0.11649457473705851,0.07767151192557964,-0.03122843386461322,0.19110290562670887,0.07564022135525125,-0.016825321829322233,0.13997796899259377,0.07579108753578473,-0.10783606599361809,0.0795790556628432,-0.04628096150524449,-0.006852738964290653,0.006733553486594771,-0.09304370934050146,-0.13304853778867887,0.04405641184363673,-0.11679128950596812,-0.21399349985938432,-0.045854514789867774,0.09865943885789422,0.021539342497441535,0.11566409966122157,0.040735183879366706,-0.06273958204036131,-0.07604905074743105,-0.22748319209530796,0.0276504324136358,-0.17142686635707,-0.12507239875901843,-0.0324498825777017,-0.0033969306432496864,-0.13292729678743884,-0.07929961564499763,0.024165697922486164,0.10059357803231198,0.03158704520737622,-0.0020459341914878196,-0.13663905303338209,-0.05495166496586544,0.038871559110544116,0.08254913528172911,0.04142464231053389,-0.037083919462265094,0.08244977995954653,0.2583055184308789,-0.04445909452494714,-0.039978077995964485,0.2121264831785739,0.05393449171878153,0.016769800979973642,0.07704584693153531,-0.07556761952233049,-0.19762128600767961,-0.22664538504696588,-0.05147666145685096,-0.21739761868288682,-0.008571555643072316,-0.10951322170777618,-0.0713369061345718,0.08092752708470358,0.07664761874281044,0.031054326495036977,-0.1648227548732948,0.13959296689747472,0.11430193234715214,0.004872278241164934,-0.020219491194237264,0.13515488092852238,0.053547764289230936,-0.03628098368384856,-0.04431695296554093,0.06972569592169706,0.1848091648291198,0.1445791501816487,-0.08318745811279524,0.10723002083330341,0.14733904026775324,-0.15031527346780318,-0.023566755198893032,-0.10506010363591305,-0.022596308202824565,-0.2846513252179842,-0.19398794263761457,-0.19102219546973803,-0.18088111797241357,0.06753123381188249,0.07324234410448732,-0.016523495618486577,-0.07911084413076835,-0.022143739243045496,-0.09022239778057317,0.08674813072726734,0.17576031887350138,0.09323489499617257,0.00913700431050964,-0.05004679696747915,-0.05268739137641222,0.15495506150107102,-0.02870336210982086,0.1506357992367727,-0.07637406388786412,-0.05384680144760482,-0.15977992639805158,0.04543930599417157,-0.038466317605997113,0.10436272075622095,0.10508218387805131,0.058905321620978654,0.14453000285482256,-0.03398894846680157,0.010160166913348553,0.13346463135474834,-0.012098843419644697,-0.1344310528909769,-0.19843248502477384,-0.05807169248868524,-0.162430056142168,0.07078500862301207,0.06978528092566244,-0.0766924755756624,0.05454996842703951,-0.053200281853344286,-0.021268008525874085,0.002562219519223141,-0.003607606891602521,0.09285746328855102,-0.18186546158060454,-0.05724385027918287,-0.08123707983691734,-0.2874079649397045,-0.2103517002363185,-0.2902398757556788,0.008515224308260707,-0.006390232119880456,0.035250910843038635,0.049172864476151996,0.2842917902261411,0.225069593528644,-0.012013234984637628,0.09115005776713722,-0.09821923862345787,-0.19855077954546566,-0.19473800693630466,0.060661383932514745,-0.01915263237700014,0.07554100620918375,-0.0070617031046766145,0.02325474633027201,0.19383946798570545,0.1130375239384992,-0.04529607352878093,0.03286626980610896,0.08814713850538397,0.001893890569669595,-0.10190990472876223,-0.2031012699385778,-0.15984131425919848,-0.07416636750411548,-0.05865562679034739,0.034077165724699696,-0.07083896550857799,0.0420383609214974,0.029537902395193504,0.1752824713779325,0.21101224272147664,0.10745253124513414,0.13382638217475035,0.052957937558907014,0.08279014068174925,-0.04862828747684306,-0.0007443075580840265,-0.032924750734790474,-0.14271595073370025,0.002510364014625542,-0.06663826170335549,0.008663545770957131,0.10597954165022021,0.0025423486296358966,-0.05870951885227451,-0.10251617599414543,-0.2248149063598572,-0.09230964690196564,-0.4040731333512622,-0.1913201870462006,-0.2555239586713031,-0.018212835834333942,-0.08964898666591534,-0.06365079198725988,0.15087412237342096,0.02590254742190975,-0.004342078356419592,0.17750971986994107,0.0908952461563302,0.21872723427635243,0.05530126969490629,0.14425552412488848,0.11938308306761056,0.050158470996180995,-0.1161157034756359,-0.01826771124761647,0.017342415508154446,0.024911985478222206,-0.086348134535082,-0.1403617344523427,0.008519739939200308,-0.014609937559410719,-0.042933733207863554,-0.016713959027096232,-0.30833375976632643,-0.13757511947912565,-0.22302493977217708,0.0030611470110958675,-0.07233539037177122,0.12031045004030445,-0.061319756354191644,0.05323431642352357,0.1960426051919532,0.16890299240883122,-0.09515240158699725,-0.02831628166885319,0.0508353728649755,0.0035385539271581027,0.25315555213732793,-0.006719917887942352,-0.060235263267857,-0.036473844554767834,-0.0032359906319109582,-0.0948845821427516,0.16102631363323935,-0.056118135363742605,0.05891339810316483,-0.002619043333405273,0.11252856989466772,-0.003515047320278438,-0.22212446146993717,-0.047330884191024,-0.18781434637282066,-0.18409002206591724,0.022953162929989772,-0.0404411771062472,0.026358065238940243,0.04688196016971345,0.0054208252918029245,0.2666569065273303,0.21623502014779028,0.016213196181308544,-0.37610403054116576,-0.15821205320072423,-0.04494918420679805,0.13570001705048673,0.17788745064860995,-0.02034924144695797,-0.05522481551540906,-0.07072454615595172,-0.20001265203883545,0.08183470065542862,0.019072926689274638,-0.029652521464614192,0.021313006270580786,-0.07290193244160197,-0.024849745118316325,0.24886398356312575,-0.0413233837102423,-0.02010977057652329,-0.1765346397650098,-0.19379284455162615,0.013483172373612514,-0.18445399480694002,-0.2801142535154896,0.024472719754354614,-0.004785210470442303,0.11524344381416744,0.22279544737612883,0.1022576769474557,-0.31921587171624244,-0.3623482903110881,-0.34261588629089346,0.07144683725823102,0.15928506436758094,0.03179456005225574,0.1714391346768338,0.10907873772305145,0.028471263184454167,0.15956005377002494,-0.12092052868284692,0.09047749303001958,0.006078985525661243,-0.02228295066986499,-0.031037261985466937,-0.05432781068104882,-0.11577328547503352,-0.12174498700699798,-0.10628554142207537,-0.259494665535617,0.0621788048590127,-0.055431430833736174,0.05344528309859643,-0.09698748206691397,-0.0791982436757447,-0.17969283637916045,0.00541496757459152,-0.018574245692131355,-0.3027001370688761,-0.20900861103015905,-0.05222446604322763,0.20013254525662696,0.13271085159123594,0.1355426498982555,0.08278546184910927,-0.04349245403596461,-0.120473077409868,0.16109835895052668,0.042101326150591374,0.00042989551186302936,0.03062898209149791,0.1307477964376378,-0.02618354706835798,0.12026828552205293,-0.11850080560835508,-0.019281525334815548,0.07350037946798081,-0.15856514955216255,0.19027135661385747,0.15407908090130396,-0.017976750527583223,-0.15103440469800333,-0.10646079507077316,-0.024392321292193635,0.019162915234914056,0.0041184617030233,-0.12700075066863062,-0.1476993422503452,-0.0541860654705436,-0.12498316185242139,0.022054337776035583,0.1470613604171968,-0.033640744013339,0.0023765833179396423,-0.1120791349244436,0.13280850481329232,0.08475002379125295,0.19210821874776668,0.12566242075302908,0.13289287615026427,0.060594664311728025,0.059665004604786055,-0.05336959333158438,-0.041995163160828894,0.11720211494986857,-0.19915764282532847,0.10102507374862371,-0.0688824212040469,0.054639522579583454,-0.19316668028512513,-0.019063492617735996,-0.22028344950411674,-0.06576422999012939,0.12581902350673824,-0.029443403430024634,-0.3715250612784365,0.08313137708783952,0.054253578504126786,-0.0030010467281757235,-0.08678050515006645,0.031477372661879936,0.051707722231148535,0.15127064111300664,0.05497218034185313,-0.013577296181928074,0.014905770879682163,0.07167545277776147,0.021903808083945625,-0.06525243271990999,0.08321916467905238,0.1410280495895029,0.25251821656819085,0.12054789624039897,0.019559749986602513,0.12996670075596156,-0.0717193798135361,-0.157101736062065,-0.23563614142721356,-0.11990192172456907,-0.09051603800502821,0.08908014546053857,0.08402005025576555,-0.20017983350858062,-0.015182597164438897,0.0834207161514335,0.016508650708213647,0.019013230009372776,0.13400620341138303,-0.10942448309905818,-0.014227262271120452,0.07645295459399468,0.11520728573942303,-0.10718415865691139,-0.08752607183766752,0.01343401645436309,0.07627866079454657,0.00792158227680997,-0.06189535835885555,-0.03558885214743383,-0.024442641827964556,0.010015878187939418,0.07201946986684765,0.11680619322378973,0.11394012886903679,0.113097066225509,-0.07286294451538504,0.08163925703746752,-0.08038092594109038,0.25029852500445676,0.21172451416330418,-0.06001033664701896,0.03795621349247657,0.053762702914132154,0.005176283083552277,-0.027992445314933164,-0.19014591703821826,0.044955509020779896,-0.09449119896621339,-0.09603597060834368,-0.029525759116802334,0.06648013976908956,0.08058297029400276,0.09013940486807845,-0.07996877697449398,-0.07689178051657065,0.24955702063865406,0.15729090404804644,0.05582949978791453,-0.05563428749813882,0.17452408435747965,0.00045902089687536226,0.202497794566872,0.05676843949286119,0.24570353206878057,0.22812530035576448,0.16846479452902452,0.0881513547900771,0.16640279904661975,0.08356083002007539,-0.21340889490298298,-0.08919704971081253,-0.07693653929996526,-0.11923147690074205,-0.1270315804917482,-0.030046841458481542,-0.18640337183168507,0.02317579165563075,0.11526067313429096,0.047130400469705895,0.16613926687215216,0.003043295656626412,-0.037676337773856594,0.013717010133568054,0.14070366206431803,-0.060300376090656575,0.06648536953555716,0.15029318062361569,0.1607620678826068,0.07077101307296942,-0.0034401190645376822,-0.08227387629381759,-0.0012948453503577677,0.28972202772266026,0.07790410574948416,0.037603763780119676,-0.21817436323678518,0.009599323657199073,0.0013965917476955845,0.13435208995574885,-0.03028301845562551,-0.07977907871757349,-0.04170617598138514,0.08066142960241404,-0.19801096367774962,-0.08814768273101835,-0.05611400087922647,-0.011252320346849134,-0.03666960345184706,-0.11799006454428794,0.06773519196415961,-0.04097487152874481,-0.07531362542146479,-0.058126130254904894,-0.001003899823267355,0.03084420962773486,0.047435783608561745,-0.1170397321138056,-0.24331622478231488,-0.18026337173277082,-0.2679963093544891,0.04460161207093795,0.025864997767451093,-0.12438596884121031,-0.13865575642623706,0.011717335882859989,-0.11199230615152969,-0.10564034943426308,-0.04553190862689862,-0.06617410928644467,0.038206967543778426,0.2340897993631327,0.12637153990536887,-0.07503793036259733,0.05902613766352118,0.10661446801395043,-0.05601071709785701,0.05765281413159254,-0.12492807768766664,-0.05117005101128628,0.05617331052870787,-0.019769983909496,0.23112516278830256,-0.02159078470620748,-0.11709143559058836,-0.09552799849523544,-0.08049781959503145,-0.2638865949276904,-0.18033976284694253,-0.4149418845557607,-0.2887523327177773,-0.3300888557557881,-0.07360889759701289,-0.06340314408638768,0.11210357616294646,0.1175577442647661,-0.09080255608259999,-0.04254947539358525,0.06845185618550621,0.003541046470445597,0.01517645443847548,-0.1259727938318336,-0.10871041460600801,0.008340139188722007,-0.04053900674737308,-0.0011644456325733226,0.0196450749117248,-0.039521683432657495,0.05336951956500638,0.2291285688291268,0.01747340173407139,0.04430256004333817,-0.09853478620071049,-0.04443052379571701,-0.2559831359784484,-0.29992836568191383,-0.40878358666650344,-0.2460514600912136,-0.11458063356119517,-0.07300365848697195,-0.03577265405428399,0.08249450032470246,0.24510405264541313,0.07286997938094285,-0.10124198052552309,-0.1179242776570425,0.06400644351010519,-0.014715983650233523,-0.1206270039416892,0.04579970999262863,0.10087638426444907,-0.03569960730873351,0.058874009820077164,-0.3300543895774187,0.08677929824746264,0.11304963241061414,-0.10348399096787045,-0.021649396805398013,-0.09411140464394765,-0.03163279718722437,-0.11159368210779022,-0.2075466418127626,0.03472286970721462,-0.14373391498076687,-0.037731270326575916,-0.1596011050312275,-0.12955878529849682,-0.0827996189538757,0.015451076754542603,0.2577573639632613,0.19111962628958631,-0.0037090376404243265,-0.0585874921016274,0.06773131008867003,-0.09219867835092999,0.020384986913750215,0.018343421691223428,0.10755534968635529,0.06476224378590409,-0.09644676781028645,-0.07576649204225173,0.06548236211003042,0.1693007118151916,-0.11188552179708784,0.00953094695764123,-0.01740718049388831,-0.20789963145081322,0.009722961270632713,-0.08715383587393989,-0.3023839936646043,-0.03866983638263582,-0.144303048439586,-0.07976795335644447,0.13278687343938378,0.12966998466623714,0.00705304778367666,-0.027393342653837863,0.10810966983570505,-0.11829079763724343,-0.20535872827173826,0.11848068432748171,0.006390745608442187,0.041037849395498115,-0.10425067031016977,0.027656874197939066,-0.06642466929512383,-0.015303213855999255,-0.026349849358752942,-0.038723088158220106,0.08372159338616489,0.040253574864103636,0.10044246051249044,-0.12312542959136069,-0.08045795556783271,-0.06346978120742872,-0.0824654823327774,-0.022046617156760227,-0.10430475437650226,-0.08004122920617632,-0.14962679233904566,-0.11838916894643811,-0.010482747997223917,-0.10841020317707445,0.018290793754298654,-0.21607870993992517,-0.11862243346955251,-0.23103812020094924,0.17904201018828164,0.0435843705840231,0.14241843760154532,0.056949800068322044,-0.025520767667535048,-0.10941253888670185,0.016884210633949924,-0.044681598096804824,-0.011436516073986394,0.05830670982790033,0.007654803513667872,0.034071883426513835,0.014388090688928405,-0.13038175884252048,0.1221612822287252,0.11681762875871723,-0.04333645483582814,0.0717679806056974,-0.07600658784956472,-0.1304603656927127,-0.03656272079476276,0.13425396233384296,0.015880947017497003,-0.0348774208437373,-0.19144435417438999,0.13416279435519354,0.06220990632002951,-0.2615149689061599,-0.0073559837093875305,0.014833486225858665,0.12073619909497225,0.060968559341477255,-0.08189654626159046,0.16080950703747646,0.015935290917966322,0.08515830559704428,0.12186107516865123,-0.06450533335616823,-0.07985051277899993,0.09990273381001924,0.12384979625496403,-0.12063900364009943,0.19518642822489882,0.016105683736774228,0.0949307229868478,0.06315755636699893,-0.09882017224193698,-0.10782686242594512,-0.20371466716636205,-0.10038721812162484,-0.09252623550906984,-0.00202282401008225,0.06729698845966979,-0.03916135786344132,0.01329620236457943,0.018244256977366858,0.026685119543228778,-0.042995008592471455,-0.13370430852052023,-0.057009497729673696,-0.001779280468732363,-0.07322950794964513,0.032790892940748564,-0.025150534974681032,0.055700974379692944,-0.07025781303501791,-0.08075200096068463,0.15754510535549085,0.0032809133669364767,0.04961475798817683,-0.09632444340054283,-0.032649765133680245,0.06140508919244265,0.14473440252524597,-0.058017887020686144,-0.07072330811131654,0.003489215204879753,-0.1265399401129396,0.006378443016722286,-0.013939647519473223,0.058766524871302094,0.1184804969701002,0.04044741505213853,0.058306837894697296,-0.002495838044383438,-0.03422210593118175,-0.16695485073944252,-0.08663616660201241,0.0164850534191999,-0.14677346184381126,0.022207827127243722,-0.03468992068982489,-0.08955479036269576,-0.04080547567281395,0.06041169977186893,0.0742638852309314,-0.17521421625294592,-0.01721673952275223,0.07677266019774061,-0.026798995196958445,0.005613907305921394,-0.13618099100866837,-0.04643347643084138,0.15763834373438185,-0.07366012609435642,-0.1313392070729087,0.012120248778975249,0.0709193863510859,0.10022381683586866,-0.04981853628111002,0.01566015392122763,0.04411053353685511,0.05337855114206633,-0.052370441060721695,0.1473808319288633,-0.06475314285597415,0.05856355576404118,-0.005940792646924297,-0.055907373271638,-0.06082465878796883,-0.05583032929402755,-0.04350228974099743,-0.09406170925882211,0.05763879661170024,-0.06618665098204436,-0.05836477127499545,0.0391658702963878,-0.013659088919817128,-0.13079854559266985,-0.08762170844839819,-0.019864204007592492,-0.05269388554682184,0.06554596794902243,-0.07863407221916618,-0.09739831981058535,-0.09298880182656005,0.02592214435913964,0.017793738911926812,-0.2076569400937287,0.03177885584319904,0.0763576575349929,-0.11910790177965538,-0.027158703252113465,0.1421251232551628,0.09476540144183088,-0.0012482423565638968,0.04030051120864775,0.18267383004351434,0.040437298996960386,-0.11190937274432756,0.11664060812637915,-0.08098494413405628,0.08377181455741832,0.05368455730851459,0.07447411381675546,0.13184493922855814,-0.13721438830528887,-0.02170238543407561,0.1565579944714724,0.05925138196059857,-0.004491556182380391,-0.07996682505597745,0.0003644027518111178,-0.1117262456848251,-0.17372845007606125,0.07506128112411432,0.007230829763542571,-0.0942043814942649,0.05866787268066289,0.07647447002430544,0.21426745004160078,0.030050596048888146,0.1665142306611223,-0.06776355530982743,0.05159696741888448,0.1603569476857223,0.019957189291327313,0.09644463325484916,-0.15765237618145939,0.05849837692615052,-0.001263727772210224,0.06256058988239516,0.07406923233023993,-0.19300869360232392,-0.03690073735572834,-0.055025129118488114,0.0410127018428517,-0.19450428876353354,-0.14344144364036493,0.02866355695683971,-0.04984180599067569,-0.26998738071902245,-0.11629088173976186,0.051461377472799705,-0.1763143099354343,0.052227208286045705,0.07127318030086147,0.14023247127307184,0.16245379720866684,0.21533341016943755,0.044604565898968794,-0.02023285072203566,0.12694073146534393,-0.10374066994296739,0.029944411503906587,0.1348949278065636,0.09121798757194576,0.06771726811480794,-0.20041316352098765,-0.010592468514886032,-0.04343811760964174,0.13970775550181003,0.029644752206717907,-0.00010509400489245247,0.09648220844666032,-0.11327296800283146,0.04477380307811389,-0.059215175386548455,-0.3579877717629367,-0.17042739607448967,-0.21657846948140544,-0.0439585357060422,-0.014794647806037979,0.07273633974120684,0.020446008237642862,0.11692914057017258,0.06016559399259892,0.16555676583257875,0.04571458059155312,0.0015165751534368898,0.03248347419534002,-0.13791367917095174,-0.014559267100854409,0.002542852545131007,0.008718279622784545,-0.08777188115893524,0.11973770021304042,-0.026339352635708354,-0.11912556860735646,0.14650812358028226,0.03440984864156762,0.11480950633882019,0.1726600000609361,0.21777372845537563,-0.12294641868897331,-0.4244533357902906,-0.18052033255610506,0.17071709090124243,0.008717860729355363,0.20194885848368466,0.06053761181844486,0.1435518094220617,0.25541747388396313,0.1530248803859638,0.06169779641687581,0.03295369564819771,-0.20558355725071517,-0.15255021016031453,-0.07087408038871959,0.03511223909080044,-0.1245812446497158,-0.0067067997229440755,0.12244045845705458,-0.12091671527347062,-0.045044371562951234,-0.10486850203992203,0.05104426713354188,0.1544836941049428,0.08081823229830343,0.24463459148470806,0.22996048345424694,0.09162472671614545,-0.11568575591389978,-0.25598649910048193,-0.08227960921494099,0.06253850328151779,-0.0428752448552186,0.23634305111192527,0.017092588324496102,0.115532602227881,0.15653579596261258,0.361533005569401,0.0645474525588443,-0.056909604350803486,-0.047974700060252506,0.09694991573195909,-0.09117978039730423,0.1421938781161175,-0.08235472272348955,-0.012957763381238975,-0.14992099790303265,-0.22673025075696904,0.08142295134532988,0.043498534148542614,-0.17609573399068973,-0.1272685478612951,0.0614881804439078,0.0008299039277958309,-0.025495381990919518,-0.016917944695912804,-0.13826872401426718,-0.386555615963463,-0.3472947694380701,-0.18605487574240834,0.15915148108649574,0.2655821387012524,0.006128737500122451,-0.06283336765997456,0.062109216752028594,-0.006687579572283267,-0.09381038823699682,-0.07995807702658309,-0.2946137717624264,-0.10297298842597236,0.03343518341644338,0.00017456422365936476,-0.03576357293326571,-0.03301491931726393,-0.07033222522924867,-0.047845443010621956,0.0679775017488255,0.06072951778422426,-0.11136068882378455,0.0741924475309814,-0.0928005023098522,0.08303540520044694,-0.27418071720735504,-0.13451839545115582,-0.2228313224048375,-0.4620301605452598,-0.0032568237580968217,-0.2138389822633804,-0.07722492805991746,-0.08818304902851198,-0.22924336668186293,-0.31530358505910533,-0.14521391067363648,0.14182395793973615,-0.1328439034358633,-0.14803428744849761,-0.08680728664107591,-0.04907618238057039,-0.12094823303502954,-0.11558687874300037,0.05216515424511439,-0.11880371999587978,0.15881726155993098,-0.07496019273971187,0.04295130136304746,0.0502418030450292,0.13318782593677012,0.007866650278141946,0.21026590742948473,-0.03476578755532461,-0.03667600785353264,-0.09038339601065294,-0.266925600279749,-0.13209054806729284,0.07510518020529197,0.31213755339904126,0.42016971225531374,0.16709711539658484,0.008814342037769948,-0.13422856432068064,-0.010202556471790305,0.25079244278729573,-0.08748571295250036,0.016701472014074133,-0.24534129154771464,-0.05411242386838227,-0.04556396564226196,0.009984484275818523,-0.10959363400224821,0.06593705344667602,0.0002606250831540329,0.060526242522773985,-0.04122841761176067,-0.13320011519477915,0.09465311992985585,0.03216278035559157,0.2914530209363758,0.1407933312206461,-0.2387854151132234,-0.3198344781928587,-0.1826310041373158,0.0869622601172714,0.11809348070028412,0.3970940893642944,0.33889700351591395,0.2802726799493523,0.07523781713251665,-0.05224308078945506,0.21276034167478217,0.13836531030338053,-0.02169549552449319,-0.2660822140366967,-0.156794951921767,-0.06020152265722868,0.005387528937225102,-0.004998049647782326,-0.07441525550681928,-0.002751870885754255,0.10022980536065575,-0.1416968115827084,0.08473243465083191,0.06548544628647632,0.0066898484825437185,0.10956259587808576,0.1628800677324647,-0.11840035294599462,-0.17898630846017793,-0.35694645437785694,-0.3535444270580808,-0.10018923705052664,0.111480019811641,0.3185573432605936,0.2911334494948596,0.5027943314226302,0.3907460594690304,0.22124312336577825,0.09659290206060239,0.13427653482619795,-0.2669104387295885,-0.24459131643888304,-0.17593573102144386,0.03311367096525855,-0.17780273731465288,0.003071290063355654,0.0076500544708075335,-0.10611224772320178,-0.008082315643823267,0.016672718871429015,0.17395224538897866,0.008638867219380196,-0.0685615762220778,-0.05524549577883173,-0.10509957644294782,-0.11464477783510929,-0.3178831038192638,-0.3443873517796681,-0.310656237288983,-0.25241073456605795,0.060914455193343986,0.0625013770739854,0.3597261450547259,0.4286563086541193,0.4036282679188248,0.08993628236212316,0.2457494424008276,-0.041876784345305895,-0.23309892883817931,-0.08497803203741004,-0.025068751676448148,-0.05593365939474331,-0.17616049895366848,0.11198384585890683,-0.06225680969083242,0.06512729231882863,-0.05012367891198272,-0.150903286022679,-0.12734915697567292,-0.021921356078462448,0.03202291375134239,-0.0035873080446563953,-0.06433652518259003,-0.1688634703956113,-0.23519077639345842,-0.288877287524757,-0.21132245705816682,-0.09430340297922948,-0.012475331798595508,0.22845427435657525,0.4292532169883559,0.12082848223044845,0.2207562790667762,-0.1599218608286336,0.011652353405667823,-0.1523822242406125,0.12489380619668942,0.020831434544082622,0.0025118805289384774,-0.022773429060581222,-0.04842800861494524,-0.05989494882971896,-0.12734383734258287,-0.022344828245117448,0.14738421123469242,-0.03250687993216494,0.05989161660223181,-0.015591622826433657,-0.10260106296246052,-0.06334419146903156,-0.15956141834723103,-0.2582462333731398,-0.09784269504989833,0.004351232591606428,-0.018401331819427907,-0.2719125116508106,0.1619669613478056,0.0543584686189834,0.10618607802889002,0.2668988785619139,0.16061924433619415,-0.17505879111036726,-0.21731505995832656,0.1689934890501254,0.10899127476019839,0.06850997005364567,0.15259180897042401,0.16282563382359624,-0.06803478774512199,-0.38536399542918054,-0.04435957680523605,-0.03298016611511078,-0.09012938894766735,0.002207931943833609,0.10937655018449775,-0.11324014916697966,0.10302611918517646,0.06417582958724638,0.13833905825183113,-0.11918800398438834,-0.13051736295097685,-0.14247158727309484,-0.11804889684450463,-0.05197947765275581,-0.019604778014142635,-0.1046074218557339,0.11511753038100764,0.23041997335901382,-0.19587522954389294,-0.057215158674310755,0.12784625332398472,0.09596104331056414,0.05908858143564684,0.25580094350353483,0.3794863051615505,0.07019843271503773,0.041197100188216935,0.034939685179454755,0.05153118590509102,0.12405739932386181,-0.100874336609983,0.019348301298589554,0.04122062666632742,0.017175398248637633,0.04838594220882981,0.09153413840922042,-0.08821984601745597,0.012039604573345249,0.05610128304027982,0.10298264176351006,0.15002099425395116,-0.05225832320889138,0.0854388756638194,-0.045299668815056156,0.2062030326310779,0.256811903771525,-0.14208558438559157,-0.29606101893693726,-0.07411959969423933,-0.15123803422393284,0.1230868504368697,0.15535481713864926,-0.10125952821172055,-0.10934727178106982,0.14457377237207655,-0.1805014391498924,0.02940634407750156,-0.038905358944885324,-0.019629626612807562,-0.1980808897234141,0.06223612872115065,0.04930100395315017,0.00289282204707322,0.06274669305147962,0.055701149323616465,-0.08109096279551488,-0.03467822545049844,0.16433910528097878,-0.12179264911750853,-0.04681995645228826,-0.2151954792979004,0.07688206812071108,0.2351734130179496,0.047519303055714196,-0.09041718213897042,-0.2556476414231636,-0.08782303184018,-0.2844916665446799,0.06828300211136756,0.14619838024661652,0.10677584621604722,0.13623043858426276,0.06609830069226,-0.11614533902424358,-0.09666337969819343,0.04824235410319907,0.011169885371456825,-0.02706773036987707,-0.06672346878703138,0.0889045103689099,0.10905529048405167,0.021405973926148025,-0.0588123691939028,-0.05871562677236598,-0.12675073103954415,-0.044665342263825625,0.18801214036704805,-0.037865821349129455,-0.07917129516234134,0.19011822990311525,-0.0400439273067531,0.07295262911042387,-0.16567305804139096,0.019675005239086267,-0.014737721955880058,0.10463720774308548,0.01666806221036157,0.04502631996720015,-0.2543563762816208,-0.2972422396495297,-0.04636186280166198,-0.06658139366452175,0.038678871593801185,0.04975705784956014,0.08547267015571072,-0.007205984531281349,0.011102664264051492,-0.02144435124189106,-0.038627993747661474,0.0552924076805464,0.03898996105808423,-0.00961979426840871,-0.08793819611128513,0.03631841721025598,0.14053654542423966,-0.19236923377682602,-0.34469979784158683,-0.11474391172326284,0.25144105847785536,-0.14316819832409441,0.10634591510233195,-0.1700117735733474,-0.2648094701377863,-0.19836643397555756,0.1908944156868928,-0.08262758991756386,-0.39068263407113873,-0.16643318050768388,0.050568206767999654,0.060270285347599956,0.007812652805278089,-0.026121030439432976,0.05599296942765605,0.09575913804624907,-0.07408016600638188,-0.04460427472553427,-0.05506885980061917,-0.19758486598721067,-0.017619686674301686,-0.11519154301254317,-0.05920156280773565,0.02694822415878349,0.02388997160449048,-0.1302516973181733,-0.32261196579030305,-0.2914879781092465,0.2746328059940737,-0.2838313979335374,-0.08635271417775367,-0.05403981775788955,-0.058290106695156434,-0.08282549948639985,0.050051663859947616,0.028300654017129258,-0.06305759591552823,-0.19310029670829343,0.03822791977648924,0.016864399257921648,-0.0664412679168033,-0.12885012926684325,-0.09059915627399177,0.01104530363669042,-0.03101218583547336,-0.01907518527057562,-0.050655232809931866,0.10008482121606924,0.12308012639276884,0.047837401807690284,0.1161560323250006,0.03707161618399546,0.1114020775372662,-0.002765434743759352,-0.09473916185330043,-0.24208801029653415,0.08602677900942583,-0.3906807281989313,-0.03070718289587276,-0.18016093197445457,-0.0916539582922065,0.03025087731345046,-0.10567722605920418,-0.13482007796545156,-0.01798228105682556,-0.12976160659457278,-0.023445825866321168,0.05969673623137584,-0.003245151993467228,0.19131262168051244,0.08597736489541295,-0.03319632325206517,0.09528858096502926,-0.02826267010834191,0.25914404536277147,0.15529293970747152,0.10047512003962333,0.15730859555432944,0.04010825522718988,0.11797363766585067,0.09280966323276199,0.04602951189392992,-0.03858004670477878,0.12432354737269027,-0.15801038007255402,-0.11463327652280839,0.022950524630767292,0.02494592554210605,0.040232302062453484,0.28427322366516083,-0.11440580413658283,0.09087082117825289,-0.17340121679523607,0.09706008733829596,-0.1733921015373212,-0.008133125184030391,-0.022449013218946153,-0.07342479295234389,0.055782551272812037,0.08944131839445822,-0.032831667606564315,0.08099412009086704,0.040983365313350915,-0.03740072264104545,0.16033531885540622,0.11544964071538417,0.032311794128818204,0.010132185802786227,0.03265224491990507,-0.052101099105890274,0.2218369021636311,0.07154860607330903,-0.04490106626176629,0.3196924347026039,-0.23780960825758707,0.03750004973884205,-0.010418578413182129,0.18401391485626428,0.07164073566833175,-0.009916674921453558,-0.18516140613309187,-0.16170581068059905,-0.09197487262522018,-0.1127543575803136,-0.08636926451598374,0.12284431151059873,0.030574223482037793,0.11362556232905442,-0.10556873428790176,-0.023372468961656533,-0.14570890438600315,-0.031931088832973374,0.08255107950384283,0.09449976829340723,0.21909490356921885,-0.011852957629080797,-0.14233497989658264,0.05428873151505336,-0.04727789496448433,-0.04519332747830643,-0.04854579902920466,0.04089146773981613,-0.14922572167612977,0.03166336378962804,0.1935719656931589,0.18914570315596232,-0.009209814332667068,0.07542652168753008,0.03272667563210846,-0.08508792380905952,0.027125455318446994,-0.10886671416340475,0.004179760292277436,-0.02777294924847362,0.03396286521192263,-0.1237580386416471,-0.052492358654681714,0.1634038143290074,-0.021824444102808514,-0.06480923428799112,-0.1797119991399912,-0.034876856210140514,0.04554134981629922,-0.07537317142203456,-0.028486703066690766,0.024146459199918365,0.03200783507014567,0.21305792380813524,-0.15249304876734648,-0.08720724263594211,-0.12407493836931906,-0.13826592947163432,0.1205853481645432,-0.1147504199382462,-0.16059836661943233,-0.04211512283253597,0.04238389212580516,0.020269943717637396,-0.15119162912809875,0.048476896189729494,-0.033379613056470255,-0.13383472244641959,0.08176106244858693,-0.09023066116154753,0.07196499501530233,-0.07007675969997222,0.04461143146998487,0.09808289056557203,-0.19709707949081676,-0.06546083992953612,0.007920155976911033,-0.05724405698899319,-0.01744678088395126,0.037607508212479976,-0.06981572544817381,0.014325793238831269,-0.015041604327801125,0.030642133214530753,-0.09899269281258241,-0.12471126583925018,0.1558356406691243,-0.045216672333578456,-0.10899695183495302,-0.140191632823497,0.06568029468457588,0.04330404342728366,-0.05312761416530587,-0.10946940627704953,-0.17124368885668845,0.04620563918857294,0.22549583288873132,0.0317333393446672,0.049764475776899575,0.008950209183305847,0.026692145354952686,-0.023362452358163994,0.021970246434463075,-0.08709026074858374,-0.12564472349083533,0.013051392035411474,0.003622199935750435,-0.11973264565269179,-0.05356093201560741,0.007028106032930995,0.04477568031394063,-0.0006416109531064356,-0.01869987967476371,-0.12303434583785652,0.04281653285903871,0.04781603673939002,0.18441889232392508,0.0572784948329915,0.09867041706984477,0.08469473217621035,-0.16422584472910134,-0.015018875321755217,-0.01899876614078287,-0.04466004097286892,0.07397283838296329,0.14204839302118574,-0.0834471109961849,-0.0155228376464024,0.03583005951545658,-0.07063802928215965,-0.18881190386540023,-0.02074383396489642,-0.0993235219322067,-0.1730719524589188,0.0779824198260177,0.14282272037631796,0.045326206908674435,0.03552836736128495,0.03643041465704858,-0.008602854007768975,0.03796653651693788,-0.013340327126824753,-0.06810867073629537,0.11119476169724829,0.06444702791523613,0.23313720558019893,-0.0740901128985487,-0.12946929172217822,0.11686146293061234,-0.011032299484002113,0.11818941421922996,0.17628060929793157,-0.12305923503544455,-0.07752144806691769,-0.15034107652569298,-0.015045934683293754,-0.06546935618221117,-0.17328827634879565,0.007467291607152964,0.1122415669776577,-0.08648791257190679,0.10827204459466537,0.06051442349824324,-0.006064518910272849,-0.09150442183693712,-0.04107695930928892,0.1876065636938301,-0.02621184892300637,0.050882881230954566,-0.02762016623861429,-0.09641014064330208,0.07387301367818737,0.1597217643155583,0.10288636334839488,0.14162789330619352,0.011070990133315896,-0.0019607859013309487,0.04490603698426571,-0.02141189372368266,-0.045176317292054444,-0.14261160905606254,0.08827754676789615,0.002659045841371897,-0.1433243661182964,-0.1621776000757476,0.15465945850414933,0.09312151356202905,0.03447250591309702,-0.1211517066485187,-0.025209416803438932,-0.1079147158508983,-0.05112239950490509,-0.047711247142383395,-0.11709320567971683,-0.17924790233797963,0.06976377940157397,0.021649820062522737,0.05306186767832635,0.10967794854873827,0.16629602396373971,0.18310159912815405,0.11878675519431223,0.05069325866376394,-0.033978620186425605,-0.1156225775727564,0.0482632781884053,-0.027549523393426725,0.17483211854445466,-0.04633137209655573,0.023020907326630733,0.019976251180211076,-0.13357902629974003,-0.06707217341161133,-0.17809789416528046,0.0017593108459226141,0.009943291635588164,0.09653753056438769,-0.09778991680045515,-0.13376452485074752,-0.04575419117586996,0.011513048788919006,-0.22722076348175746,0.06418009131929726,0.03505007918580641,0.0963365427742884,0.05317808861792318,0.05452038647734302,0.10467877981346181,-0.07336495745598279,-0.08898434545639837,0.10630632864791353,0.032862291155279236,0.0833421753941135,-0.022580067676205337,0.09208258743011674,0.041105321308369,-0.021128923437895613,-0.02295718141160276,-0.033362493964103276,0.05686545273194353,0.01722000563418985,0.0044319945502464654,-0.023140675431861598,0.02411972499909172,0.18929172824956564,-0.17312239567964186,-0.06960629629865303,-0.12063284006268121,-0.1681216176300323,-0.0947949374250886,-0.19344241316264385,0.02103187594047523,0.09601072595754094,-0.004863024579704261,0.1616218859819577,-0.042243894293880924,0.027859428043575413,0.01270384939069722,0.15483646203880236,-0.09178760493990405,-0.06649486958283456,0.04540617322325979,0.09913281419555753,0.016650135564519133,0.15102963338741351,-0.08585250529526031,-0.05205498592493156,-0.046227616586121935,0.026564669473522397,-0.16730061959786105,0.1470867201908498,0.2134196966544401,0.029514907394433226,0.06682720809883946,-0.004510861532631053,-0.06926700899165673,