-0.012727514852822424,-0.024880331264760917,0.022340223784502584,-0.01155909100945379,-0.040677262518783265,0.0022308971937939665,-0.07337626235874278,-0.019777754955890747,-0.10081763094887328,-0.07594362547449629,0.12768298224492253,-0.10604042876247871,-0.14485867964884558,0.16969606322220798,-0.03611133798442239,-0.02796769380009838,-0.02139646708895528,-0.059144385845783236,0.07899634287665952,0.06343488811900483,-0.1596354161377403,-0.040461380441766163,0.018402530372188742,-0.018919618278480755,-0.037063746615633004,-0.0014518767710247154,-0.1367991034642676,0.079407037037422,-0.0012827461953368274,-0.00029186555916937507,-0.034183310211933236,-0.04211020788455915,0.03694872781421991,-0.17691926116806916,0.009373425626204383,-0.1363432818461969,0.07253026596875622,0.18217548938850833,-0.12841400679427034,-0.06721743710617846,0.005897082756272036,0.13273323592891445,0.05526265243787649,0.05362333449796724,-0.10224716975100277,-0.02137306982056422,-0.007111663057739073,-0.027892952343428413,0.0019094490304861912,0.05625154488192569,-0.09310671694155402,-0.03630547267790219,0.03607195791821397,-0.1478328749307652,-0.08627609533990083,-0.0797406512765324,0.02248549800117251,-0.0019616649265537084,-0.010934999535451453,0.09055713955561902,-0.07558993994476032,-0.11001555954983942,0.11429211406480279,0.07300742271073067,0.25505528451421716,0.07515007490253554,0.1468199303777368,0.01420288163606342,0.08974734778812246,0.226993908705613,0.2516246252058594,-0.09567370256751195,0.045626469383435495,0.10288586743261474,0.1365979349931313,0.05704566404520091,-0.02241121378472984,-0.01130848018454342,0.2494962350364408,-0.04667203154098976,0.004375888743948289,-0.004890470139336282,0.0912911206747555,-0.07810042673471065,-0.0907557059613589,0.0427201742784234,-0.026589082383852068,-0.14384044357842682,-0.06902653099780907,-0.1604604470801502,0.0013955218175107128,0.00725939366835289,-0.027793900268316248,0.08635050319610342,0.12354306766634392,0.11427594952312545,0.3170118034934939,0.3046752023865897,0.49961473267810463,0.22286672948942415,0.2491477110920244,0.1672989350266798,0.03159740204403997,0.11602033179934726,0.16030834214271858,0.1049134736630879,0.0034507101512929114,0.019069281935105313,-0.07874552103440877,-0.004983938314108634,0.17651228011330924,-0.07489812218153824,0.05813905804139915,-0.007014183306296628,0.09485364463776481,-0.15849577763132666,0.06851665187369275,0.06310596782071533,0.012564163123627166,0.13167940566845088,0.13547158991842495,0.15197904408429871,0.3629384904833853,0.2940533976592566,0.09157906540676605,0.18998523819675978,0.08384883598399426,0.14341668708761984,0.10013481974961992,0.09465778842726578,0.1147158768020746,0.03109775560103166,0.1439222452864561,0.04270350916053015,0.21538925209863685,-0.09389855012578238,0.096882340003047,-0.05864305129122449,0.005710829690804585,0.002207498377620715,-0.0868556566764527,0.10534186612365462,0.03582376059505147,-0.058772211829295276,-0.12025734320151472,-0.15703386484180662,0.06223354289697792,0.24434199999910772,0.06905670236944782,0.10291333133629185,0.4399902679372686,0.16736332170566903,0.10835257513538743,0.30263013879215794,0.09754562772356513,0.16500816436052818,0.014612473054360408,0.014390483169280821,-0.025683267934385707,0.12890649873662455,0.10735170664650451,-0.2865162402524115,0.18881424979084974,-0.038259266035306785,-0.12447429808398879,-0.08671280575120717,0.08209206711859794,0.00025853670479513026,-0.15290470274190243,-0.07275677657678836,-0.055726930459937825,0.06830675590369094,0.017952174964892056,0.05549771840149093,0.10099303801598747,0.07444807874132027,0.0899094693525493,0.01972803389331187,0.12984941965668859,-0.0050434643595746904,0.08835503992732835,0.30947435099143894,0.1595712696714328,0.07341679271564551,-0.06837507753913402,-0.24426356367113208,-0.11119045986642037,-0.12189150999739583,0.11315130786423118,-0.006203707210471639,-0.1814559966226844,-0.05911165918480876,0.024141463016142877,0.03838800216398622,-0.10455631060473723,0.039395116490507705,-0.02396767145873296,-0.0734177647164821,0.16743101835307042,-0.02685353518160498,0.038516718602311074,0.03272638338421271,-0.025336310114535403,0.10072066463092928,-0.21978964699063427,-0.2240320031392859,-0.2594815421672104,0.03035488236167607,-0.11787423808729439,-0.07105528384612723,-0.05089408708106907,-0.24067909969910914,-0.4255677656434281,-0.22532217332231239,-0.2918750905630469,-0.07582783326726505,-0.15124869958544412,-0.054092630572381534,0.027490749268089535,-0.26252739563563154,0.00741628529000073,0.08216350905310042,-0.04570347512769148,-0.06404076954311395,0.04364394884106073,0.04238689645275694,0.07966142614076285,-0.09048064680104795,-0.038446067291363,-0.1031786984319095,0.08819226590544108,-0.2008795195031742,-0.3680723818477372,-0.3919799208006093,-0.3869768564892365,-0.41396231806071737,-0.28582978258143377,-0.28455151424676967,-0.24910407237076482,-0.10813633775623933,-0.08188483762317049,-0.11907444954398541,-0.12257555257944469,-0.31487840694070324,0.019974520424740343,0.029512099763816146,0.04532515591485715,-0.014080314212439346,-0.12057942202475552,-0.01714454476547309,-0.03799105815546041,-0.007204138191350978,0.04381893682348107,0.027014118067134767,0.004116161653766109,0.05059132637049607,-0.04616324452353142,-0.04381968594936032,-0.09882830499594335,-0.2068153413195511,-0.3281338458191425,-0.5868104756431379,-0.42561325032617947,-0.6488695102507598,-0.5100157264033434,-0.3126340082019109,-0.24184807396058416,-0.2520797365103628,-0.2354368926981616,-0.11047330332609705,-0.28432269953005257,-0.19891162502500162,-0.016205722480123107,-0.09186293514301803,0.17362094370125383,-0.13463989040139931,0.012335161928088019,0.026341255090932204,-0.01097322808090921,0.0973786529479719,-0.01053671259290959,-0.04322970611437794,0.13903341217701964,-0.14157422959194488,-0.07412501689345319,-0.0956799310234576,-0.2836101283620998,-0.3901280147032648,-0.5778327423501166,-0.6046861594254891,-0.40999842760166233,-0.31786817059495004,-0.22342575740898676,-0.382888662845962,-0.2359232917634143,-0.12644246312277918,-0.06907270221767658,-0.17696316632060086,-0.23333330415706624,-0.17951546203594182,-0.030412054180730293,-0.02578298901604905,0.11568610032506604,0.04776923204651891,0.06728650686977974,0.059723017422360955,0.10307270751488422,0.1023409163248478,-0.05668921219247653,0.018886476027421856,-0.07393248494711907,0.14858170233035298,-0.16269424984988937,-0.09122898865115282,-0.15902420744913134,-0.23386179312387703,-0.19305430997887874,-0.06764933348831735,-0.10280145896121003,-0.04607393133204474,0.14447149670089693,0.1634382835533701,0.14587349423976295,-0.22388100221191254,-0.21518001611963897,-0.15394483652905774,-0.23638154165703545,-0.3262840426662073,0.0020087310743992044,0.03914520809433374,0.11030171421415196,-0.012135042467062476,-0.028449475473347686,-0.19016527834758926,-0.023154422687216233,-0.05531627005821641,-0.0453523687836798,-0.07053643233193645,0.07141681822739178,0.005916840250312806,0.055859711646409786,-0.13093212890083875,-0.25362673500898686,0.016477774057348467,0.27924910536340763,0.2637118066385543,0.276905087088517,0.3749287983419155,0.470941543718529,0.1970735493515737,-0.020745949989427342,-0.11409888374270977,-0.10573214285339513,-0.24020415574581713,-0.18503965689525423,-0.2779833362729446,-0.1268763022016273,-0.08239132309496257,0.0354702805167776,0.2309450521618398,0.10955910433561968,-0.14520347492131766,0.025689323706768977,0.012642353672477255,0.15700057160458575,-0.08141332910510723,0.12141613176553279,-0.050288866249553095,-0.07632142601076607,0.04321831857644712,0.154532418238781,0.03190378458372316,0.1729141602679206,0.29001824145813876,0.4267487650349724,0.3556323627681009,0.1864267702394449,0.1933270718747154,-0.2472506744883465,-0.10031725077337107,-0.22862194650878967,-0.2542108500374089,-0.15073187520060707,-0.09427754077569146,-0.15594732956678775,0.05844432120860851,0.011322697729158346,0.2484910795829809,0.20323904467984352,-0.09658563274716775,-0.11096461464163096,-0.05191900127911834,-0.12977870927632923,-0.19862314554091576,-0.016922703377792378,-0.006988442766632099,-0.000470848458869303,0.06018547852145783,0.08905157055325445,0.036778962864875725,0.307937806281788,0.4632365330747112,0.24734117923214982,0.13533799818311046,0.16603208196466285,-0.013330871160623748,-0.12123219135986475,0.008725114917671835,-0.2350421454961912,-0.2970254500937067,-0.139619894583697,-0.05524838193636715,-0.023591128261771854,0.1351928654867344,0.09554018052382146,0.17685233793512076,0.15035029645693873,0.04731667962287443,-0.037743569880327454,0.09590953585382361,-0.037815841008085056,-0.015387964635337105,-0.030146694687259654,0.018759138886713864,-0.17182910490179065,0.16577120806331608,0.3284657723991419,0.07211096250011721,0.15380892253638642,-0.04248657837428917,-0.05130053489567872,-0.0015397043850171026,-0.029257971300317678,-0.34511896788139884,-0.12191587805490417,-0.07877082921301612,-0.17537922363367664,0.005089801088701194,0.0033448100884528415,0.17312187866394227,0.18942743035852688,0.1189728203996284,0.2713891382673873,0.30276786627403185,0.08488686731131664,0.051170147645605346,-0.0381881488963703,-0.10326599997588383,-0.04678005885619952,-0.08439204735471224,0.0709561458890249,-0.012635385012355135,-0.04058766566941609,0.08643356680692706,0.13677269592045063,-0.07644743091582566,-0.3924452423141874,0.07323041309016862,-0.18642808737286432,-0.05137721092099548,-0.16098792519611738,-0.11794979353506431,-0.24986092753981,-0.11609149699659478,-0.21620072124958836,-0.014610829316211424,0.1471906911834965,0.03688021219937433,0.16074648901437583,0.01740967328006647,0.1752645384642657,0.2235057772299983,0.05355616357005575,0.11972048978348003,-0.08779313201570405,-0.032962819175862,0.015586838321232263,-0.02575617791478869,0.017559598473886877,0.13571988203987673,0.10731398024863704,0.08937975251763419,0.09819241289078567,0.015103032218554566,-0.01991136902244695,-0.08292378090676464,-0.05499460017883495,-0.07266344919937742,-0.3308858532484202,-0.2250238449056043,-0.2749352869850806,-0.2010552672023301,0.07409373453760261,0.038980297565881464,0.09635589185641166,0.13420854012429514,0.35202240524314626,0.2559214942422249,0.25912004152328205,0.2597438334486883,0.1997351005594689,0.004780952553151231,0.060038488319271784,-0.10404506442239708,0.06596208911964983,-0.02755518155690059,-0.07439186813449644,-0.10470319471606274,0.05933597820572299,0.11659077150391658,0.18956654939802894,0.1638866742497217,0.06860908663472157,0.29519795398118953,0.33552612622492634,0.042287871960547646,0.13060284320781468,0.1673009925361562,0.10678658538323761,0.061142279580658106,0.19701103082433757,0.13657242507208153,0.28636260283863674,0.059032282162386124,0.11093260439721414,0.09939321384724113,0.2808580589502918,0.22270441902805474,-0.049190462185236934,-0.015452696650384637,-0.00814106016830083,-0.060108988770386,-0.03452742536886997,-0.08343632914680572,0.022884190273909265,0.08230942070137201,0.01916101144251822,0.15574647201996883,-0.00327341352889031,0.0526731153162978,0.15679057857615467,0.41630625998917936,0.4140519031565086,0.27105285090792836,0.1725625071617445,0.225020770527631,0.32400424262056227,0.08212981147268028,0.2504129214757532,0.17380036782616196,0.06179904992074303,0.09789143710367142,0.06154691767021872,0.1220417340776923,0.04888788902537743,0.1315944862086036,0.11200365804380527,0.09466150545219683,0.0995284007085477,0.05307666427335533,-0.11636110775164935,-0.05305708061941838,-0.012604541701099621,0.0014008897062460818,0.007385190592942087,-0.11119104165762451,0.032574833590362215,0.15305691697340865,0.053231511157539706,0.2975953813973727,0.38867571556854724,0.29332369632968613,0.2571297013606808,0.331435709296483,0.1600137173910775,0.12152552752217724,-0.09567159171069099,0.1853645712065149,0.05118883908850043,0.05909818828425771,0.20971113776489336,0.11630733897977606,0.08430174753765375,-0.05619281002605353,-0.13330336819083813,-0.0908753999189749,-0.18583851198071305,-0.00639193716239544,0.012179050947520137,0.015919011565541676,0.07300299115898098,-0.12887902687045497,-0.036192974419033845,-0.050156685615477425,-0.18050761233438517,0.05431699400921848,0.19168635318188812,0.1812765676411502,0.2904972545170421,0.04124760330987892,0.1291751275337866,0.11382529695778465,-0.0152523185239544,-0.015341333003558798,0.01969315336840145,-0.03539332821684605,0.06615708580693871,0.012914740388869004,-0.0632091464350903,-0.03158440538077105,-0.054907903707902356,-0.17991042613649913,-0.1751039612503759,-0.0055701957710313915,0.0012050935977270137,-0.09045823094113399,-0.08815957248046577,0.03552229114419394,0.15853330278779817,-0.042836549761112015,-0.12854779548868503,0.01357382719554847,-0.19036546323566095,-0.11497397249257522,-0.014878792929173433,0.045392790559279673,0.06367913353634506,0.007440553864024062,-0.06100722425694358,0.11912380088142953,-0.05347285940907983,0.2519759565997935,0.055026846881920735,-0.3016825612622167,-0.09270010623673079,-0.030448110527036738,-0.18991524062741907,-0.11596022013685796,-0.03150334733055809,-0.06926794614213229,0.022725566950150346,-0.044151648691342436,-0.03509784963426187,0.02623069056726757,0.09614983561126433,0.22208275374406217,0.13381989514687737,-0.08584094298069143,0.03258271083507272,-0.0002727822702695092,-0.062444628791151535,0.08651803516413217,-0.16673115875156475,-0.09346230783908746,0.0697206615576706,0.25327765701443655,0.06830246251914776,-0.08066486264192041,0.006775252328106062,0.16470101205567905,-0.06893902553800561,-0.21742050557407858,-0.10112205421430416,-0.08282204345941284,-0.14110139087052825,-0.0964955982544616,-0.14235743650075497,0.13504743579339798,0.19261065560815346,0.18499841420660076,0.03250528537405405,0.0061866547368516775,0.08632465019915611,0.031449642818319,0.1650489572823371,0.11482554903761229,0.11266824888836473,0.05094872113154689,-0.08552458335228125,0.09804686058003612,0.12565976892703326,0.05230519198346488,-0.03351626036283116,0.10047278162568828,-0.04295256823153317,0.10540702437353656,0.022574288877892708,-0.010028086988955439,-0.12814469362111824,-0.024630982615805465,-0.06889328613998576,-0.23516131770256882,-0.14718276359607374,-0.0076831980032497,-0.07467664891797107,-0.09621000388678773,-0.06809128201521664,0.1381671878766864,0.043127404985739894,-0.038663957427591024,0.0087199210537419,0.038779286144647936,0.23319287916058656,-0.06802921732562661,0.03712139083398102,-0.04394311016695278,0.045308233204005725,-0.16987456887365202,-0.18443583591960647,0.025784646191095415,-0.03051297779078879,-0.12186665983897174,-0.030970054316372002,0.03197795530805323,-0.20860009614598785,0.032473000679707646,-0.03417539939941863,-0.2479191587923058,0.07637965976702897,0.00018641742165843723,-0.20629370297609328,0.06144209840304344,-0.049244976771514674,-0.092332882751522,0.01663351745682018,0.08699740547944423,0.18559159082715726,-0.1370536074511659,-0.06098236234971422,-0.12594248926504814,-0.02646206174978317,0.012289525801788203,0.2514121996550437,0.07485445965644828,-0.04728175489248897,0.014019388490989436,0.01430782717158528,-0.09702273943599861,-0.011226321610673641,0.05764026187793676,-0.05798611653710798,-0.0651909296310605,-0.06989887535856763,-0.0655719133102336,-0.14062029641025775,-0.07086356146031109,-0.025223233097889094,0.22106606766814568,-0.10547252374297404,0.06651582989490311,-0.03557656971547015,-0.10748002745958661,0.015353730870260875,-0.04801721545376899,0.11386019481608856,-0.032680713102536334,-0.02902101831751373,-0.06371198098199954,0.11815425509384056,0.017163797218147477,0.03671613566942932,0.09114410907072192,-0.06615761019099912,0.030588841792259215,-0.09603188592300181,0.0572632125827412,0.08388805036468683,-0.054741086975185115,-0.03749183130641496,-0.015073142169545667,-0.12628818245863996,0.03439581481193774,-0.1602670449242203,0.1294453601476455,0.0316068165769493,-0.13494017825025462,-0.09839904913769258,-0.12111909349115968,0.0010019355305692702,-0.09193925568972486,-0.04692017126367575,-0.0489411753918628,0.21800285528437557,0.12506376819704185,-0.055313432175082625,-0.038317054061499045,-0.06451567459730677,0.04347370324992239,-0.1312304740701939,-0.23313614530667676,-0.17710356210823763,0.013692927394456518,-0.017640484522962956,-0.038638113311815325,0.03742660397510901,0.0011060093567679735,-0.0009402221382507791,-0.03259392944117947,0.004470957911471198,-0.014510133005713471,-0.13321022435604668,-0.05887708272479632,-0.028724923826950938,0.17795883526962053,-0.03903777453746027,0.054956943395838384,-0.04147663314985696,-0.13227114462837114,0.05225718938467856,0.013099777854921139,0.15949934041104596,-0.07338663187228027,0.005537426453560836,-0.20883556812599635,0.18789873043308603,0.00034926880670485295,-0.05473511465638031,0.053889261368321034,0.031730135552433744,-0.059083500803119034,-0.14002043155679528,-0.10207548557145017,-0.10855763872988763,0.05442586590207586,-0.1503320671517704,-0.07365271089327176,-0.08543909494084699,-0.11577172248240884,-0.05301007448776395,-0.05209582336817556,0.12118478566773448,-0.022443201126706586,0.06633861466973077,0.0249338199755516,-0.05989547753224015,-0.026993346695622845,-0.06289945600210299,-0.009825214216135207,-0.0058055778098374325,0.02326019493167633,0.11276270997775063,-0.1514297756179499,-0.06864516747247197,0.06369484782725501,0.0626305713513772,-0.05908347948516255,0.11514906014452844,-0.06709796106765369,0.045304146056918716,-0.024265937102194667,0.03961044999046043,-0.04415743620175783,-0.2077847972448765,0.05531419858383029,0.014758594820497772,-0.03380527217708555,0.14261736731906813,0.09255712757351314,-0.015430353776995113,0.06279764727470544,-0.12967917668112006,0.03595639389915578,-0.0576373583001394,0.02419306661596745,0.04338988548846608,-0.05878287185125076,0.09000330067747862,0.028947764670469993,-0.21089813469629504,-0.016087291020281426,-0.028377701202060387,0.05748327887681919,0.07303262661745949,-0.045971483484642785,0.013460726926906709,-0.0235318621787591,-0.04492652247915064,-0.08115966759716206,-0.08081470358714461,-0.1035368145749418,-0.09638416066675713,0.11125403786310346,-0.10541495352763393,0.16207159741568292,-0.054175586258019263,-0.17148654729428928,-0.226290938713642,-0.03337709967025364,-0.14537168499069653,0.058602946628249525,0.12169424038399898,-0.021571591375738736,-0.049716329778658815,0.06716832497967946,0.05989778580217985,0.020836806339292607,-0.10948396368128237,-0.06745343008439016,-0.01796043763044749,0.02583951271250387,0.04973489412806708,-0.0835017222570415,-0.03556630898699954,-0.0465423845717819,-0.20664123383606783,-0.27726091962969085,-0.10776224673108771,-0.010079440070491575,-0.1126233923251195,0.005112274525754095,0.040837511831065834,-0.07735510583109725,0.016401462961393075,-0.08050472546020533,0.017750598149218037,0.10588891210858722,-0.11216025386780334,-0.06794688412257634,-0.10751577646139304,-0.17538471445966392,-0.018494348103823017,0.09426279213006455,0.039983816740750924,0.024556809604782445,-0.26254503919478095,-0.017890258982928446,-0.0709346126835124,-0.06486113774088222,0.03878707706428495,-0.08284668575020339,-0.03285994057511916,-0.006824013275681163,-0.07916570531713955,-0.16610520972951862,-0.06416581807341147,-0.05320948735884839,-0.01027610668541468,-0.09056936256458088,0.033859567148466004,-0.06925792905130819,0.08782733561295837,-0.07670609269639389,0.10922294189967222,-0.10583107850757008,0.07625947284494711,0.1450098377102427,0.060080724668551314,0.013076395907885561,0.019177202742991437,0.13993377637427973,0.062056618075306325,0.02248938264645401,-0.0791708500236233,-0.007657280290450489,0.2215053092929387,-0.16826848495689034,-0.050500873388234856,-0.07908107872695477,-0.09352791802299118,0.11276649828568597,-0.1092767788327385,-0.0298771497962654,0.08351659899565463,0.07216613714210386,0.21915604225725369,0.08077123384036676,0.09996339877411575,-0.04199918782860249,0.15480168151722307,0.02820250746265601,0.11785908418379125,0.1430101706712099,0.07402277745790259,-0.047226320685262224,0.09813645485176378,0.17365494161454095,0.09692240479641719,-0.0024544574327460627,0.049826583051584564,0.008799389820553135,0.0002863670288655263,0.07524153172745231,-0.1749386213535245,0.05222456670669768,-0.03849180710307538,-0.13035254571757107,0.03455053430464142,-0.08391582605077633,-0.06828714892403881,-0.09648465599267339,0.0015453329230720654,0.04956327461196673,-0.08239629178197815,0.15927480558426557,0.2372359357639308,0.2595084199872956,0.2894748708396263,0.18718330928032353,0.24459010752587126,0.24518685768909357,0.07999176491074723,0.23031351058233757,0.06225365782470501,0.012817670757962906,0.05985584677190983,0.037846337631901796,0.11154188678446733,-0.03234635104306519,-0.10651545880411976,0.024024146431928586,0.0003912684613525732,0.058735378429198785,-0.024083250817816693,-0.006563891006600716,0.06795891105675639,0.020389155557914027,-0.009535242220746303,-0.16125576600416963,-0.054041610915370235,-0.03546445296371235,-0.010159626174480914,-0.02484132559637588,0.28740953903560357,0.12423696703738675,0.16933396534201692,0.14355231169060176,0.08876823275658823,0.11904819984811607,0.11070682190971905,0.03285702992939218,-0.03180915922415898,0.021583887896116843,-0.053519642129626684,-0.028501067096033672,0.13571394595854805,-0.14424935284604815,0.028660682922725333,-0.13005489288027275,0.012444218790225158,0.02474702223955044,-0.04218975436474015,0.02453114000611934,-0.010474667949743242,0.05622064475522262,-0.05391163255360477,0.14104016075168246,0.08896587586584495,0.059282049463952324,0.01597867811658713,0.05781155355478879,0.0916855052469796,0.03958781825670614,-0.13055547817156257,-0.09603763449331101,0.13917989532969471,-0.14166685750318445,-0.01764103827109705,-0.047429187577304875,-0.2619464696990477,0.06413842916115257,0.11342909290299524,0.2455147578084255,0.027455109051433467,-0.03763375268944188,-0.05803147772774515,0.0029052842756729924,-0.11578638240700515,-0.005976858235301929,0.01043266571861316,0.02466236533404364,0.13870836952268734,0.053216874412754314,0.13878675751508812,0.09103660815424831,0.16388373844016138,-0.013435873844418918,0.07878500302517681,0.08336282950805896,-0.1561521545387961,-0.12242238994892926,-0.2204602572108974,-0.2324165595264874,-0.18893325602293284,-0.20532405872286927,-0.05852720269764106,-0.1632795240484593,-0.135852410656578,0.11078824570248703,-0.002763955338151723,0.07633101927142837,-0.0906968424288769,-0.029094053033303723,-0.038995664651070884,-0.047746351205342256,-0.02201848964082026,0.0714261399472912,0.014563589399483644,0.03391244182679452,0.1585847553638754,0.05984056021579883,0.11864121454717448,0.11074099835163762,0.04862610500003633,-0.12356164612731924,-0.1796952135662411,-0.09543889792349167,-0.01647389463818812,-0.21631179437098624,-0.19231872980296233,-0.011767434452017072,-0.06235778847078455,0.005713131361565616,0.003203501550022315,0.16509462281413748,-0.11839253768366668,-0.10298534698468415,0.057587625081173606,0.06744862178969939,-0.14232594646513327,-0.037126335715598854,0.09855521907068521,-0.10155697113359728,0.03122328907171497,-0.10101882549381892,-0.10362820737006033,-0.05673215979344818,-0.06392629207138263,0.06291568075201877,-0.02904645206746977,-0.0404608348196812,-0.10047451886268266,-0.19502204570070267,-0.13864397433062042,-0.2568329281150853,-0.1480748959941836,-0.38278195083531275,-0.2905309138006901,-0.20369438500564954,-0.006259602790201293,-0.012898696005971332,-0.004034167697235899,-0.08218836305127901,-0.07165795364572983,0.04199252523503653,-0.016416561340523293,0.023049025651272367,0.11896977359828122,-0.037430322241211476,-0.04120796686625408,-0.10999140444469153,0.05946416954801423,-0.039335407304874836,-0.10963366267235836,0.044846900240990646,-0.057124258428136156,-0.08438666268798671,-0.11835985400815979,-0.12842850216777427,-0.22666570407654207,-0.23779447627632208,-0.22399380033854516,-0.30610979813238287,0.02878281935858155,-0.31929933205203553,-0.3481236442530858,-0.22476280101623805,-0.0005510662874849471,-0.009247554364953076,0.04083157593564198,-0.09820544256037032,-0.028139970439016594,0.1127316676038408,0.013315015554954224,0.038254928537201104,0.002294709572009136,-0.011363514780182792,-0.03407731323412618,0.04288209247586436,0.011454973764914481,-0.26119424448383616,0.05743607951700076,0.007264224858001962,-0.05057323347848568,-0.12745429180328377,-0.11677606015323104,-0.08246866993436984,-0.16617967933359942,-0.29005478393661516,-0.3073978802526925,-0.2587350487626838,-0.22037391357923924,-0.2053184730584906,-0.3497533327655488,-0.18423301550707724,-0.2072729292614539,-0.2509909219557972,-0.24716642912704123,0.006850147777349678,-0.06298279343463935,-0.10750170080985984,0.1338752198284397,-0.03279328416203482,0.14835453702508639,0.14996762242508746,0.0008451654012839289,0.011872649591530489,0.0236246216466914,0.03097409860409438,-0.06304507836850855,-0.11712884662403043,-0.27422404517186694,-0.2287055199171088,-0.18203799868237835,-0.21867291428214675,-0.0769293544533018,-0.002003481281821385,-0.17807524902353045,-0.07867670842692151,-0.17953096892681086,-0.2682096911473572,-0.15777196640827432,-0.5139559190289498,-0.2317104114953306,-0.37817253459521344,-0.27625758476041185,0.006349897648099096,-0.26464970201313753,0.18438854426625115,0.017190291448431417,0.07200733283259632,0.1090587892216887,-0.07459738743367578,-0.017799552455520208,-0.06581525056808406,-0.014253182290626313,0.11889163707314412,-0.023882170986511454,-0.2654338227616686,-0.11484221135265144,-0.1449302916835428,-0.12827708901225152,0.14556018197871246,-0.013140882221719547,-0.12398966946404517,-0.09369037893997184,0.12238747414787322,0.0014025939159253832,-0.24962348364471423,-0.3460700806302211,-0.3574575928290202,-0.3756245278599265,-0.18544830449390354,-0.23502285403120543,-0.10106712093119946,-0.1819384646099475,-0.10157242057779986,-0.12572427032458686,0.09689969323295707,0.07005062674594872,0.11871557245870601,0.1889780215406327,-0.12292237364059878,-0.05818823798093354,0.08411976048539868,-0.093027114065206,-0.10572483754761886,-0.04464912186448978,-0.2487658212692146,0.15177646512662063,-0.06526961061190506,0.2913391866563956,-0.019999071510345117,0.1891160782434399,0.23595294343221798,0.10382607660707685,-0.241279619813768,-0.279266879415863,-0.426079960055599,-0.4566362129870938,-0.36712766420693416,-0.11148180586107365,-0.11927776525057812,-0.06588091524435902,-0.025125090012140548,-0.05181358816108904,-0.15529772351036655,0.05851610587222019,-0.06883354091407566,0.054771329238753635,-0.08072232066115236,0.019746643571896955,0.14676490236083511,0.04890200440063527,-0.02818388731424127,-0.1555096287970977,-0.1665677019777622,-0.04311781019439089,-0.07883243956917199,-0.049925576668100505,-0.05595341188577945,-0.0685514538621222,-0.1825619977606151,-0.10957311759064996,-0.17827760211825636,-0.26177351202016075,-0.3159573871455795,-0.24973073018420522,-0.07228434341473088,-0.02720032581690112,-0.10807057467158374,-0.05795372961612118,-0.008225228802007883,-0.03590749563466556,0.01797189082666857,0.00767168855119906,-0.007869776358064098,0.13320038514560356,-0.1131862037820124,-0.03294715686700774,-0.002096250860015742,0.03607223083533422,0.024655049342085743,0.0687799785655232,0.026839660837701756,-0.007439076086435116,0.051703750639608574,-0.11027490431991617,-0.03947786685213282,0.10574159853401305,0.16381044682522147,0.03985643514490255,0.051351782949362684,-0.164613894647624,-0.1231837718493001,0.12923558750207403,0.0979368313652123,0.02995010789521733,-0.022669448313353522,0.0007504913079611691,0.12703471985822362,0.13831442610944616,0.0606483274016477,-0.0644854948817793,-0.09941368414589345,0.03453992755511513,-0.04741995991096174,-0.07289205858852063,0.0024460270985273798,0.09662734506659333,-0.07183588216013771,0.17957762620334644,0.06213954708013145,0.18344176388323247,-0.01588249905569611,-0.12951415072190342,0.10411479856744692,0.3261856432958162,0.21882247486668904,0.1697315626043849,0.3059402764851329,0.24962809892842974,0.07638252783877074,0.01596778562418232,0.03291751535043555,0.14737074932278738,0.11506844352020286,0.04442693463460434,-0.08250482639820482,-0.037449662774704365,0.2690329101851499,0.007088910941647989,-0.12666467146299354,0.05512217433831117,-0.09616163354834359,-0.048767129056183335,0.004108266099199642,0.03182214605493554,0.059264681825686,0.0008016345002658505,-0.1985630243688782,-0.09247931392382436,0.022661656163612726,0.17830342969184365,0.07566221512290101,0.16052209237937953,0.17300494688888785,0.20721449685559212,0.20606370859745513,0.4130798755431656,0.15920129324662188,0.2449321851075106,0.18957163189502887,0.1315535025175754,0.03180369334590427,0.07966968612430277,0.11891141139149092,-0.01697975770947646,0.0006755190949150249,0.0852989481237806,0.04325850145083089,-0.11783683762033026,0.03443282389644037,-0.06375606256123892,-0.0651238817822691,-0.07061169657291026,0.05305407012065293,0.0728444821411968,0.09457373851791254,0.11537224488674207,0.22171454984622815,0.08756269157832455,0.1029589869901704,0.10280831800840944,-0.03342057883961886,0.2103814997435344,0.22723027857458958,0.2528979097941519,0.38124768777998586,0.3956110989694739,0.2031853294930326,-0.09503699622721494,0.021134062569744313,0.14488183765436338,0.07068023370744257,0.03761586020652243,-0.042764039969806454,-0.17418871871959296,-0.029663042836894735,0.016079904546283143,-0.0018048637478613842,0.02203121079048611,0.02575162906959659,-0.025723025425047463,0.006922738458476818,0.15885625622157012,0.05213336049286579,0.06548279177827507,0.22457910086979924,-0.08212593912630566,0.20556699712989965,0.11155470148361345,0.05547400429471223,0.22042983914487324,0.18518234402776024,0.21417742250119093,0.2538361977875824,0.24997718502367175,0.15876445764469957,0.18384938633796558,0.02029125824617315,0.1309988953970071,0.09598534479889677,0.15358227302935087,0.13266246032583467,-0.03479567694181746,-0.0021555277762393293,0.08568023941916401,-0.02340926950001475,0.053859499302718064,0.009447186489267349,0.04217780436484607,-0.06479584261514224,-0.15322891297751298,-0.05193441735892104,-0.025656634808636492,0.027407512930765817,0.016480197846040635,-0.045124693735610275,0.14955672098504338,-0.0074886140641870725,0.17401721374323414,0.009201601754667789,0.21540891624833705,0.2780231943778487,0.27006878233422194,-0.015850893038764555,0.02817970989341765,0.1057136364900974,0.05620439547638584,0.18161638451430967,0.09214521567523934,0.010370976379408366,-0.04080560870449576,-0.039717397809152066,0.0727351511212684,0.07860063023218232,0.08639383650996159,0.029631002034167214,0.04521689509987306,0.03213310270164469,-0.1734659285140315,-0.026329838073554313,-0.1165922370907009,-0.06821602738149042,-0.09095873347655767,-0.16788422733442573,0.09215984163651442,0.05589384800044083,-0.000882029719827747,0.1424212534738972,0.2536750232677946,0.04596765921589736,0.2623255310882063,-0.021359938192955792,-0.11890052611399565,-0.11286744058618559,0.09552736222890063,-0.024658721610601952,-0.07519776583502676,-0.05001152521609014,0.11519701458379668,0.015423518988757599,-0.011740467880751173,-0.09583055143055304,-0.10209965978322273,-0.0017229537253566274,-0.10762274040136637,0.0283766986179735,-0.0774269390279756,-0.024304677783491754,0.007455599013269082,0.08904305392804744,-0.08562360769051763,-0.042547861494971057,-0.11253879841898294,-0.010740784613671454,0.03183753915327821,0.00404606993855698,-0.07212167992700448,0.026207775042332532,0.15928822381301921,0.0853854608452081,-0.14275288403430184,-0.02976093741132038,-0.014445901169955165,0.14868121357839512,-0.008765165889976678,-0.0036092278067141764,-0.10483103718851859,0.06949775357736436,0.0991947507237529,-0.06449586896970934,0.03064885054396648,0.001927306132863105,0.05933229613127114,0.016954160188903937,-0.005970023443519655,0.014794692643458958,0.004399686133149854,-0.01819079163539617,0.09340452720789628,-0.11499747007373558,0.04705007878427548,-0.03878254904154823,0.017017119798559778,0.10257421393505262,0.13717872536120954,-0.061653379806843246,-0.0796168382447908,0.002661074797174052,0.15215643315209587,-0.03686956165612994,-0.03873522857754408,0.09808045060574844,-0.07299210342229924,-0.03746919820854511,0.07757751091743899,0.05189116236011129,0.04194432112309018,0.11142562782700159,-0.011814911977786608,-0.06432980066009396,-0.055869551175089564,-0.04570159226259845,0.18558898628549433,-0.09709990913853707,-0.007316434301090294,-0.11245430900510371,0.007383861909720354,0.15137155244935394,0.20390931931191086,-0.09146380900363026,0.06539646075928814,0.18029504301282306,0.022608723837452407,0.023036869299063473,0.04306418007756408,0.1489195119613164,0.18094003149436974,0.07529996284770248,-0.028669512376240786,-0.21425028126531445,-0.020945439820842533,-0.08256620169203173,-0.09736920127312272,0.04661730443087394,-0.02004664505877295,-0.029934628843823228,-0.12660839986800984,0.020223611517788242,0.04288315468590454,-0.041517539145055404,-0.08870761617966234,-0.19678031768660803,-0.0963202264586827,0.0741554633057476,-0.1397963267020531,-0.11916672957237205,0.04690197970758002,0.020806213108792562,-0.04751617609956323,-0.04373498990617829,-0.0021265062121541924,0.02710698218067391,-0.08555243327805631,-0.19227191264096058,0.12096391865457523,0.14299772259758467,0.024867945121963702,-0.006302470232139988,0.013219782565768138,-0.044090004223581857,0.10827814697306822,-0.15595112900058863,-0.07606047351358693,-0.1480336275457446,0.08597826797043538,0.08672923889005753,-0.06664567638901614,-0.13185485146453066,0.03632674932746074,-0.1059356399365771,-0.10009838595065847,0.163831516371195,-0.17552094676807928,-0.02998107286646693,-0.17300234085678515,-0.0904873497042637,0.0710719901280577,-0.03502857587963324,-0.05189513069249137,-0.07707156545290604,-0.1866296008848025,-0.02000624633682809,-0.11846957475112743,-0.05180986915751575,0.003993624943817547,-0.13077394576022977,0.14767744107033925,-0.021316037729994818,-0.013168901418761357,0.08055912965421709,0.021817999599126125,0.03978848741496808,-0.04509114633165173,-0.12017879145184307,0.07436282765717096,-0.018959288305334925,0.014627096440643653,-0.06219674310979124,-0.0767585288410759,-0.019032899564913084,0.06205206469761198,0.003583176564812484,0.014584008710642799,-0.010287401778666607,-0.020396472697438172,-0.04301237683395995,-0.10548494748867739,-0.0783292054889058,-0.23034169703952403,-0.1915811887745505,-0.008631737971183943,-0.2575934351671301,-0.12213028455684007,-0.09046806384305721,-0.12971490772051802,0.05904576061209302,0.17661039550097665,-0.08236430567998372,-0.043075051296767496,-0.0994152488057743,-0.07898189834372561,-0.03623519209799792,-0.16536763559218154,-0.05695331721635214,-0.08083717346866101,-0.12941325094597347,-0.02075788096974109,0.059416693659716836,0.07105458303555823,0.14030340079158743,0.2502977564119954,0.019022592821202257,-0.08263310848456282,-0.15315541394830412,-0.049671219163981366,0.07917416484881876,-0.1041254432889748,-0.025845757597993752,0.05667930091295822,-0.198593682772557,-0.06609764654395477,-0.1941340026511558,0.06297202146267854,0.03072981539575535,0.08658189974045949,-0.11635483532815814,-0.1408124624057642,-0.04931007863346345,0.11513227354986301,0.00855806516719461,-0.03529871494559529,-0.10091132988150879,0.08083972213504048,-0.030657925724449087,0.0832068883574667,0.17933135661744729,0.20208411412277544,0.4049367004038435,0.1401650005665092,0.43658450814708577,0.15476636671378163,0.2288417611694448,0.0989204207411199,0.12524415962263963,0.09662703507481434,-0.05824687987821059,-0.14403080266743923,-0.041981997873058986,0.030333652197857677,0.027543472400695452,0.06557813107814459,0.01954493317312675,0.1619894091088123,0.14563530957311005,0.20396854347842033,-0.1276439384705182,-0.03238453269900545,-0.05514535461289435,0.04559404005804407,0.06140940900052577,0.18950625129954743,0.06790935198083403,0.09732343765346517,0.24219274810688907,0.31362919342852763,0.22433373114236185,0.15622355524956272,0.27477535140331394,0.030154855384518096,0.09179483372000923,-0.09575209110631708,0.18477411150285825,-0.018326301373597507,0.16354717866286164,0.13575932058750037,0.076905230399955,0.16459961263113432,0.11447731071181334,0.038270254481082976,0.1703252097453761,0.1304735255777775,0.01605638409531092,0.08556956252680077,0.009001108283475742,-0.0844533746860423,0.025673547302198133,-0.08806062389536079,0.2498811016837999,0.22105045358042713,0.28686158768336123,0.29801474956041235,0.2594504744752335,0.08297519855838857,0.2862030205960074,0.21163786558302794,0.28826434662909073,0.07274089889420934,-0.07780914484684084,0.09938000223138346,0.20689159130136436,0.1620652581165727,0.13914266234948067,-0.031581064815714655,0.023595673552345584,0.16201293529278696,0.17391071722924767,0.04239610146315082,-0.11394375210200385,0.09710010298356112,-0.2103726603993143,0.03402027032318384,-0.08228678132168737,0.028781506700556753,-0.22247049818481268,0.03819664651012567,0.1582587639536011,0.07679727821932388,-0.03746347046601813,0.3680113079674721,0.356920909151882,0.27858985244444034,0.23420211745927177,-0.01037335263256759,0.026405851601860222,0.2122784599752449,0.19410208214540575,0.18630376968011175,0.3060184328371659,0.28263846474418924,0.0793513721687637,0.2156722558983192,0.2570743300968486,0.34722535748824135,0.18876683502864136,0.052028397128936754,0.20691574194623716,-0.10284949964172461,-0.09277120835550598,0.09471865136573268,-0.07214821672120375,-0.014049658455837897,0.05122326757043316,0.15852887176345618,0.05238422615714145,0.11407696651441451,-0.023284691372802386,0.07515175818931187,0.15750384173231421,-0.03773711712821599,0.16858425764913826,-0.024466610400325706,0.11570762035250501,0.11345588259796671,-0.03140729664270131,0.19634498277965556,0.34121990963952853,0.5058773838019107,0.2447409617125975,0.1356131455618135,0.09049867239643479,0.1941997032759703,0.3243420691455869,0.21360907386160363,0.2477345526333199,-0.0001193192541779443,-0.01775924199930991,-0.11077156767111089,-0.015946129768820566,0.13854708386878856,0.05481596780671697,0.010012876867058911,0.016882098926597228,0.12594948810278472,0.10842326971446728,0.11896353589582495,0.06406459448368608,-0.062236281365739804,-0.06933792726842525,0.13821868833482814,-0.09427324598947943,-0.02479060376909143,-0.0017087319915853549,0.27391807566624216,0.21375509340638127,0.1976604165526319,0.08581823587272455,-0.045816982719899785,0.01250282911096389,0.24271642374170196,0.044629585138200034,-0.07617165943430836,0.09453390043814261,0.08659552908078728,-0.020721242147867226,-0.11346923337842126,-0.03586999576713806,-0.03403669102531686,-0.1993984774309893,0.02533279067030882,0.05739821385812794,0.14110836301525445,-0.09910704507384954,-0.24362667756888975,-0.2513291094879099,-0.170329540508428,0.0001533896966186741,0.010921107342296451,0.1389396254007677,0.17767909563361448,-0.015902202540709554,0.070196710220429,0.2867210773048313,0.04466378064849634,0.07417238971737962,0.07985554915004762,-0.034214406380473766,-0.034203108164320074,-0.014517415394940978,0.05204288763332589,-0.09497016120526793,0.09532033066376047,-0.03416706130467343,0.040585146071046234,0.06354795621681704,-0.015309715146588194,0.13405878755563894,-0.03946002353077099,-0.23939135897088937,0.13997050837797184,-0.11674752158376603,-0.3021842193039568,-0.20529223463006133,-0.2573368401271437,0.021113348998048023,-0.011425423367510346,0.18894113605489024,-0.030211265941574493,-0.06939324737970377,0.07596791234666213,0.0991765570301684,-0.09482899899191391,0.08872516771127666,0.1273350499815165,-0.1237122474403152,-0.16489928981679583,-0.041536004444083854,-0.196693458577187,0.014206284360901229,-0.07179734146999289,-0.022306463988480983,0.10795134828125845,0.03585111536978871,-0.05645785654862505,-0.08770165022659035,0.06617986975617858,0.1074293275443024,-0.060465098695368306,-0.09052101423702481,-0.17992991812780815,-0.28277791283518033,-0.34566544849656156,-0.0878741688775734,0.0827186534837736,0.15549737825925686,-0.0061532735047428256,-0.09733731943080529,-0.01927488849853605,0.13773464368009786,0.05411387336505168,-0.026612410692310504,0.14742310801914768,-0.04421515249878135,-0.04532243303398782,-0.011943651977193388,-0.03505249119150471,0.00343442046772074,-0.21113421451729025,-0.10259492674807279,-0.01813997314956795,0.04725783654185474,0.07112532290226106,-0.0027544554685857725,0.03501709334997638,0.15078181969047078,-0.23548959233980957,-0.26309144811263036,-0.557379718671698,-0.2995347108554996,-0.12292817684013319,-0.2613527673098943,0.05748460106429108,0.016386783976536597,-0.23847544622403521,-0.11809969546870455,-0.09373884787967775,-0.03072741713703771,0.09419666075745979,0.27565064229467356,0.2444935421866954,0.09347047458092501,0.04220808953296526,0.05613400356631304,0.061535699208200206,-0.09253708298928179,-0.2041531112655986,0.06775583243298897,0.08249507344487648,0.007694303703449535,-0.012887125646923615,-0.09434109980825005,0.10385856332137593,0.18822063809162273,-0.010889286925279398,-0.41013143182608797,-0.39362811873799614,-0.40089321718158266,-0.14255007369696962,-0.24203397419744832,-0.050245664145299206,-0.130817491195585,-0.2294677170483431,-0.21396087715833922,-0.16629003807989873,-0.17407821506793117,0.14882867662239782,0.10308238569590222,0.12736825826933593,-0.10038673189642427,0.03514088984595641,0.17252786847846435,0.2168031761812611,-0.013116331824848919,0.10001347048077702,-0.17212218707094107,-0.11575105278647639,0.04526244369228368,-0.11718050079794833,0.10747103182061019,0.1902655247828777,0.17722397018411506,-0.03477222512687595,-0.20435762382074826,-0.402128646783725,-0.06277847862758362,-0.17917224227974327,-0.23096103623526015,-0.14710496516527727,-0.28736548254855093,-0.23755451911565698,-0.05666797567153473,-0.19045708540772227,0.1551167907094634,0.16253775285203706,0.025011694783541122,0.05523527242628703,-0.03925953608330353,0.031035511636440274,0.18438901782438533,0.08663048153478727,0.07659514573547496,-0.13173988052578908,0.09236053613355477,-0.10223161504354021,0.06893655220864194,0.08981832245633115,0.1531007557829742,0.03148162655784283,0.12982199797829172,-0.11818436754353497,-0.03716755092144418,-0.1329657099555612,0.00865801850344795,-0.10359974784136917,0.00982239189576509,-0.09004641395208816,-0.2661612582083674,-0.40523909016613685,-0.23452323110034487,0.02200086393201422,0.14048658107103582,-0.035988433723244354,0.2736839084885699,0.16179262532127053,0.0400424933958223,-0.01974608938753515,0.0055084422162251095,0.034016947191151226,-0.02253924581180242,-0.11579554009692698,0.0748200855063477,0.005496287381003874,-0.14463816350836453,0.10103808109991685,0.15245705977253202,0.05394690046688895,0.14802207736580333,0.24791134219403566,0.08032026812224688,0.0670247117471418,0.04024218362380217,0.056715632626724063,0.2856685810015531,-0.14668281893333388,-0.23716935395054164,-0.1712507020590813,-0.2621603870097579,0.10756809982735722,-0.008818386056932297,-0.04079782525511579,-0.049921031195336786,0.029440965855809062,-0.030126421265276364,-0.03295170406083279,0.08687735578131428,0.18091618720018884,0.021989534508535497,-0.037620050777315756,0.08031190363459964,0.05646499218398404,-0.13621833585597162,0.0387102521155218,0.06464902300267232,0.045314004640162144,0.18195487198439578,0.3099152958172615,0.403536273876629,0.28709158497338577,0.060003835665262184,0.18447632934589045,0.22227728381928866,0.005576623162621488,-0.03773489981082956,-0.008688005280973639,-0.05093593233971302,-0.08486724502631843,-0.009695351996737402,-0.11091491705457839,0.10336003901523258,-0.041175140207195086,0.07553822705513158,0.07261285287533728,0.06173664435713439,-0.1485274724676475,-0.001581273989068314,0.0790671695271305,-0.0911652308247401,-0.013762808735269043,0.09438367866476234,-0.030812271386192042,0.0489622957185583,0.07884549507347349,0.30459045948514274,0.27839496972358674,0.20906833405853395,0.29258977837141464,-0.024271289140405432,0.19025771671729555,0.08211600357566137,0.07410008333753779,0.015353030422976019,-0.31050772993038855,-0.18564991730197639,-0.1032905998056924,-0.1751140429476201,-0.19850459712260468,0.027212585707625418,0.00022600018710100176,0.12320260364639947,0.10199718563007337,-0.03346656414887373,0.05456731207899888,0.1335556173224521,0.05489248081623898,-0.07088478541550397,-0.1338087733625589,-0.05539763465297112,-0.10633146019500965,0.0633398602784669,-0.04099886803662828,-0.011775977081231898,0.03874761063102301,0.12727723774818583,-0.0038250006402314237,-0.0822862954047762,0.04776934837254066,-0.00030913520748166443,-0.33485964505788945,-0.13822340731685903,-0.293270813158634,-0.08528503271801492,-0.05128282817966443,-0.04649605937177272,-0.19083593515821268,-0.04722842304690815,-0.029148474622461184,0.18658417975575958,0.1544500728827578,0.010225534535057644,-0.031359942054909086,0.024794806844122483,0.22381577642053882,0.0689041852434643,-0.043271175030686206,0.15187010127751208,0.036749983048719445,0.0824682688164129,-0.009391998054147211,0.1885143521837713,0.28849225400066253,0.22401937270843017,0.17619226186814566,-0.044594129690135355,0.06271463235617297,-0.05424347457589951,-0.011003169222987054,-0.03431197959257621,-0.13659383382607768,-0.07419650619752372,-0.2394895882496664,-0.09708951447041957,-0.2052477778907442,-0.07224350508735769,-0.11654276787533543,0.16908995037725214,0.18447060825592398,0.007031015387059225,0.1325755286861202,0.13189674950655622,-0.053824820952972995,0.050301585179351405,0.01977465185663926,-0.007894831620541514,0.031054653083679697,-0.05169531721857662,-0.051331833271607265,0.06083802667637688,0.0580296079200727,0.21789040116270428,0.2238044808953133,0.07912284787330431,0.2984431436282131,0.24456381342675404,-0.015243139135723472,0.2017542136306639,0.13001305279212613,0.013518151416913312,-0.0619705625217151,-0.04223367602770538,-0.35091544211952347,-0.1253786517328394,-0.1734351907335112,0.27613940715658497,0.09260312420457094,0.03872656512149035,-0.08078021648506437,0.10321133257433035,0.01853674532893137,0.12021169198932939,0.0190313804265709,0.0062752294698419685,0.1681844042799522,0.005454098202571224,-0.1267669473201681,0.19526514767899503,-0.03534388414755277,0.08817430478245776,-0.047007260789238114,-0.02069778598427887,-0.012375893027430945,0.024824421321758636,0.199204084859931,0.11505050439934739,0.12266979942064399,-0.04592052705714531,0.22818967446679492,0.038046578036408436,-0.029842745558041058,0.009267706948944281,-0.054890584942988575,0.08593432452282523,0.11737818800393497,-0.072238617802199,0.012937201961855363,0.0001415225034548072,-0.010842020095317742,-5.518915220846674e-05,0.006431773148705981,-0.033599322056562846,0.020615896234172364,-0.009505491851397888,0.14505882716987334,-0.06253221611194835,-0.00680973085658922,0.03471411607173341,-0.11218658319614688,-0.11076785821785841,0.00614919536367461,-0.12072194541545903,0.08670059169259293,-0.1520326339753399,0.14231814322950276,-0.06566981764906513,0.07222049170798062,-0.029670206040105607,0.006077493227034463,0.03962426360806557,-0.010083631273069367,-0.009319630348896766,0.07992094302738771,0.07352135340912462,-0.025072951755188276,0.0809795928979819,0.05040160789056167,0.03663187111987359,0.059887820008492514,0.04984029758557807,-0.0301959635975239,0.06319865807788987,0.08173270641559198,0.006237523711448221,-0.08424076720705817,-0.15886281187351964,0.11911867422561531,-0.10606621277133817,-0.046491513333844325,-0.10207267506132228,-0.06663601380634468,-0.04876968510195469,-0.11758534728489607,-0.032873899910057555,0.08757383573260322,-0.2236477218645179,0.007405973622256584,-0.03893299885649823,-0.0919193910016024,-0.037386307759994006,0.021429850329348077,0.17364025482840573,0.07307370862552501,0.12054250086848921,0.1089146427487299,0.041770273087162586,-0.041494346427944716,0.033099414890737124,-0.06182506920451441,0.06163672989198445,0.08263002140337583,-0.09408234085663408,-0.05952881489852243,0.1487593847464879,-0.009990943792930824,-0.10635552762848821,0.01029247958318085,-0.03163790310149572,0.03541204310557771,-0.024514494505119444,-0.1212519375184281,-0.05619229066911455,-0.14481745606899976,-0.07748923369457819,-0.16565152974760716,-0.09668737398999364,-0.16041483850295288,0.07202309432781635,-0.13728862571304296,0.1259322194658199,0.08268983671849715,0.027286602302080968,-0.15986253895675887,0.02497181184788048,0.02420800266069945,-0.1920760371608865,-0.11063713151359487,-0.07330403880146037,0.034787948042467313,-0.05140121951629167,0.025933263435042406,0.05531041044145247,0.05910048263119618,0.052223718233779144,-0.088573957032644,0.07585822565661539,0.027893123827516086,-0.09209253531160823,-0.07799678778363199,0.08504335741658507,-0.12991869527903405,-0.08344451552398739,-0.0763583757061408,0.09516993725865437,-0.08232819272681248,0.007367430447163838,0.11072190798669095,0.20315766378349026,-0.07311799680142313,0.011080420397498968,0.014603516332479832,-0.05937562813394994,-0.06265879331346212,-0.08562653493846843,-0.054302063408193775,-0.19339201915652338,0.005812521602615341,0.06459556493567986,-0.037884942173503085,0.15582788779261406,0.07318549648443042,0.08098098576976247,0.1601075665621529,-0.030463871027321385,-0.03664602140678093,0.014879982512024909,0.00816860489279867,0.10478103161825555,0.056821622024927014,0.015226371337757713,-0.027566595527980523,0.09298225017873671,0.046334598607242795,-0.09625668459373915,0.14193461401660631,-0.06767526648828927,-0.10795961904550673,0.06335859270193415,-0.009786354766175863,0.09507822189005306,-0.0388213411339054,-0.13962200043534223,-0.05454780351012741,0.12406961765899344,0.21460563703094024,-0.05632109348698813,-0.03157518311618501,-0.11528495979586227,-0.047467656426461446,0.09459975833460631,-0.09888362390138605,-0.056899532596344234,-0.03872311004127933,-0.09167719919837083,0.09320647805338854,-0.09426763486809213,0.03452871914644508,-0.053267795684863777,-0.15237733055528035,-0.07965709169583482,-0.15417214159502088,-0.07939366423209822,-0.33464343833873833,-0.07565471298500284,0.01939329577763936,0.003683572065280195,0.036038806996471474,-0.0792103139778554,-0.06089842903663447,-0.015116870804960391,-0.12157371288540723,-0.009435777986235799,-0.044161903198521285,0.010524726584814237,-1.073354950024042e-05,-0.048955676416709636,-0.03411342638353957,-0.014609974741044253,0.09311664908878506,0.08885258619714372,0.02638886826475802,-0.041969294994319215,0.11441829562043576,0.02082782430801555,0.08239477329540794,-0.0985904601958243,-0.12509495810331556,-0.1744462913752741,-0.1230069992929008,-0.3227819544777424,-0.11814076177619837,0.042346775087216085,0.027514398898059695,0.0024844431239808814,0.042846327544809694,0.12275496955484862,0.2087006863681905,-0.01102127320352828,-0.010026781161504343,-0.189111624022559,0.027143281333498994,0.05887105981444536,-0.04720977128586522,0.23658100024699918,0.09625091157821461,-0.14397423604284035,0.2245762454987944,0.17024884116522454,0.021656414963399196,0.013900440455140996,0.06504651726664654,-0.043531434285816316,-0.07767535808308469,0.07935615495861233,-0.0007328411805500523,-0.06335390477735599,-0.22551065043504145,-0.009616909588009443,-0.005806107497065516,-0.1931975564551074,-0.029146203000433166,-0.07169280004126259,-0.0674216885044225,0.0633230249125845,0.07393851065962696,0.01730806247973869,0.035100522619437594,-0.2437476569427959,0.013196799726253802,0.04103809113019082,0.018845652304614564,0.02837876301556843,0.03400875567870641,-0.07371511921316644,0.18072357745478274,0.21080272721632626,0.0022480213518278427,0.11577297769487145,-0.05324876541813214,0.17838066772083694,0.176166577767928,0.07332233872943712,0.12279600924368857,-0.10076135649775086,-0.13242217731087944,-0.17303815391808114,-0.10506683944786176,-0.06895582727324188,-0.0935110496374184,0.16449613921548356,-0.05038512020858941,-0.20726698698175375,0.04796886153969216,0.16159505810848804,0.05093406608211926,0.0009741788085978546,0.017029957988921464,0.006894983038828062,0.045989710897504886,0.16235378186614194,-0.0014614786592773224,0.20584538104613656,0.17120019161520825,0.16813092314835992,0.08125198434945086,0.0874102665124265,0.1019656319394672,0.11617990674132903,0.2519042333054282,0.20354890533339998,0.2316743329451768,0.011375177846439183,-0.09858678704215869,0.08260150438414138,0.23801469542375764,0.015051173883444643,0.09872988909847323,0.022794097525480127,-0.03597465176415473,-0.035921489983851494,-0.04145283365764522,-0.06416454977265831,-0.14712204753709449,0.14101503096324142,-0.028812018450677875,-0.001921139864240488,0.1127054851439433,0.09549688863851763,0.06592616675062274,0.19672507912507498,0.21098594418750574,-0.02753317703906694,0.21613065167777418,0.03159806839355398,0.20403324379705529,0.17069592525432564,0.2512012128718478,0.0970840590868232,0.01904431406090144,0.15270793675654704,0.17154291976548777,0.013252284983396978,0.17264571659054376,-0.048068304471259544,-0.05190720806971785,0.11301523777993724,0.0019511968179886845,0.0910517132714746,-0.0655974697944415,0.16459251082508314,-0.07748259044578912,-0.023457691160835417,0.10005799158435254,0.09455208364659332,0.03412402290394972,0.2173844978722016,0.09052112700594321,0.10369583988305316,0.15780463760487046,0.10188060043092861,0.31022710893470723,0.07994467452017617,0.19110755935733917,0.20008873807523053,0.20636530203515233,0.14283441191934457,0.1728988755997258,0.010784143561471197,0.00663138481122687,0.2070894153035665,0.21724571113560992,0.11515958389881617,-0.2257799274121533,-0.007049487165256584,0.07063158471898075,0.18953910918939942,0.1792782529573906,0.09146887654988686,0.02683290522706173,-0.07004537151048262,-0.1040796644325954,0.11438419912618619,0.09171260703832097,0.0404397579079465,-0.04026522944956778,0.12432180840959324,-0.18882567224051408,-0.10125368904437375,0.03260974318882232,-0.0800624383698692,-0.007016547939551879,-0.033285242373271205,-0.056538352211951026,-0.2102976471965965,-0.001593968210288406,-0.03944244799447731,-0.08950332888825728,-0.02469372170024961,0.14838992995444694,-0.10886743006378627,-0.22492117194463662,0.007010130243632704,-0.02736351913432362,0.052726134704463946,-0.028603090374722286,0.02830996593605658,0.10273744545199495,0.1876259985302749,0.020394475360794,0.03167467600819317,0.03069775069634185,-0.08485017916962324,-0.2063861102596425,-0.26717189761475174,-0.30835219597821667,-0.35625542094024515,-0.25301887450479593,-0.12334239599016786,-0.23051052933459737,-0.2151082723693917,-0.2012224566375571,-0.22434918460463446,-0.1420145737220454,-0.09066761528455279,-0.022716062185866585,-0.12371925022925388,-0.36460711759112757,-0.2819348725023823,-0.03808006755504397,-0.03865906512827129,-0.06682459084896088,0.033489736017507994,0.013258702702445061,0.13646679242743662,-0.05230116021091664,0.015855303803436787,-0.002719531265163348,-0.12780442966339586,-0.24986702888034967,-0.3393267020283967,-0.2902069394927535,-0.4040324585177403,-0.40003650013108694,-0.4563410196305353,-0.22729282809306905,-0.38523078334899064,-0.2170097908714908,-0.035221121089323904,0.014246886552333854,-0.3069169610964363,-0.1018293031293302,0.05298305456930153,-0.2750163343629142,-0.0655769788156318,-0.024003100254838625,-0.30583449984054945,-0.26296253390183166,-0.3410425448041089,-0.0335427383786461,0.009655667303820923,0.17310189843910923,0.12522413577003888,-0.11221703909148559,0.11998747422841552,-0.03171486304788696,-0.3880195503975322,-0.5024839341992712,-0.4516290949655694,-0.3786030592274604,-0.37833771091116397,-0.3475099888987505,-0.36935123327117203,-0.3185041080862884,-0.20907365443903855,0.1364546774923577,0.13552990108247712,0.03343651816445554,-0.031430798355774975,-0.07212365198429112,-0.22249722077203637,-0.16439022379785348,-0.24466821652811005,-0.3038142284792718,-0.19048019986124948,-0.14021868091049414,0.031793423479929084,-0.04620045953639529,-0.08241247410998175,0.1332246845962508,-0.004974022940526162,-0.08694864007350839,-0.1479041933759051,-0.2475762407489579,-0.43738202206954097,-0.6080583069708032,-0.2633552144061781,-0.416592114879785,-0.24173065122805173,-0.1679229817432033,-0.15674349479340896,-0.09263236984274138,0.0433210690727816,0.16643286806131624,0.25923228985427227,0.02305304099098656,-0.17964121947384268,-0.025150749420985326,-0.1326269770821801,0.038036979586097475,-0.06967257361047885,-0.02906172171168901,-0.18668371587374724,0.03548339837104005,0.16177979820398478,0.23161925695938812,-0.057985803857711855,-0.10690707106035452,-0.027155832364962915,-0.016984659265708427,-0.04655886837394247,0.07214218713154313,-0.3876750905003966,-0.3185602972252459,-0.13888584418971164,-0.26080530428725585,-0.11013555357949527,-0.039355198229570044,0.03208660813018555,-0.09692108239641305,0.2471874466792028,0.31199384484107034,0.26330435822863124,-0.03454390962484093,0.09044120933546843,0.02025859382684141,-0.10201070518634812,-0.15963395295904426,-0.08144031616781014,-0.14865639089748123,0.0325446962665331,-0.11731000874827949,-0.03940456475229721,0.15535138178315,0.09920501403182541,-0.10429242906429914,0.07537018886514403,-0.07624003711063988,0.10714933561970846,0.04999241497138151,-0.050855475787557565,-0.18886026727904243,-0.06883626513021673,-0.16165072558419935,-0.06996291689458009,-0.10839058331098107,-0.0802524335252479,-0.060394982732215566,0.07963784630495988,0.3414039756380717,0.11330499813810506,0.02192956692686114,0.025308457610668595,0.11929771095746079,0.0025793968291527303,-0.015447378631931514,-0.04501741455178888,-0.04980371948598218,-0.04694135858011142,0.1719276670573083,0.07808519970339649,0.2378217684500202,0.07796327072240772,-0.14882753916962455,0.1961728097795557,0.032288625674294996,0.0745261795123986,0.13705699802614135,0.07724356111461414,-0.09883197467450008,0.13227355249866074,-0.13474961088596238,-0.02364376724290452,0.06983461519904019,-0.2975695720576619,-0.1965345660126546,0.17315915339067772,0.09618530150157126,0.22475037957848681,-0.13339721273822808,0.0922765118145876,-0.08668709142645509,0.12208942633747347,-0.09448826762140987,0.3085994980070969,-0.09517927313073594,0.09283470969975553,0.16969149276562787,0.12861763138414764,-0.11701825152580195,-0.1275145793467955,-0.04012202641517398,0.13648132073190622,0.06339210257318324,0.24392538289272309,0.1805990527247154,-0.01978851168554139,0.008248011135164077,0.0475793358327553,-0.056716774507720086,-0.1072651857663601,-0.260928947947801,-0.14026789317845606,-0.013338115445480215,0.06762467288207342,0.27967800424571004,0.1896285862414703,0.10890017730928828,0.08091732772119552,0.04536306823993864,0.23202454945551415,-0.015786653529958287,-0.007081944681264852,-0.06525130616478324,0.014550782827578844,0.05007319058801207,0.1048574512710628,0.12918598551743438,0.13956320941641173,-0.11756318187381957,-0.14714120756806418,-0.044671626402796295,-0.01565249688930021,0.04239835761523457,0.10470019340752877,0.054657056282283935,0.16506688594450428,-0.043958035160320895,0.002830210120930743,-0.025101381896463493,-0.16756760356655895,-0.2032340923113536,0.006802531994316593,0.10213609091177665,-0.05060975345105079,0.16971121414074375,0.17667779722387997,0.05089624450982811,0.04581089031792661,-0.04569626898504359,0.035804509411950576,0.012031382631955703,0.03893725235857687,0.060645132306305964,0.10230555881884257,-0.007591372535985886,-0.07522777618514274,-0.12238288840643205,0.06954683981719773,-0.09810258878036414,0.06586877650176791,0.35421836672062323,0.13282198604079698,0.1363470567800553,0.12741944725318563,0.13742320790124424,0.2897464801333989,0.007985127193410569,-0.0014592319285666097,-0.10052530500052544,0.03014544679717702,0.08453163931712893,0.11268507512026892,-0.03492764587617138,-0.0033081265608099395,0.023100848440689888,0.05402609423837366,0.1074077199071937,0.11084594345766138,-0.08247673961799962,0.006452231665649142,0.14952719456243396,0.13971229793922324,0.07811033121874925,-0.04470530456840868,-0.004683687049424623,-0.01457043282220628,0.0385464938757063,0.04508432962341362,0.042799137746519465,0.2391488586518917,0.11440683106154194,0.005159242782342158,0.008449847305407116,0.21628222212377535,-0.10316582013896068,0.2189876433159101,0.04691389209389654,-0.054246154762141716,-0.010616024159413782,-0.046415694506271955,0.20108346838802163,0.14503245433321585,-0.11162693249375738,0.19707893717995817,0.011469199760138469,0.10644273924674028,-0.1056161305180501,-0.09423042731984382,0.08969250912911211,0.08958839136627471,-0.05662204922247998,-0.03720117565823113,-0.019447690589764217,0.027242467699208784,-0.026838965460801865,0.20825419649297858,0.16936229358479749,0.1380997509346347,0.03094172399457823,-0.014080906885581727,0.11202037007324146,-0.1245350003639341,-0.07231483484360803,0.10742421201589746,0.1741236746963908,0.05717358579935353,-0.02003314115824511,-0.07811889484031866,-0.0639584338508864,-0.0016129553732730333,0.008096103019700032,0.06302655492279509,-0.10259920300711989,0.1767630167758605,-0.008914377324515627,0.14566052204427338,-0.09166077662359914,0.050824783672023977,0.090667608411297,-0.11601155737161485,-0.013835534262546152,-0.058623542851841605,-0.014911291570757743,0.019056377643780834,0.07557581186197491,0.08155443472332655,0.035617167609154864,-0.006269720027973794,-0.041983683834566785,-0.1366909897280718,-0.045916876683441604,0.008448629402201044,-0.14587422272355915,-0.11535713321655912,-0.1018974170300759,-0.057854530769135076,-0.1616469417202653,-0.07595424399071107,0.04188080598717256,-0.10285127678898166,-0.09464173733977527,-0.1129978364069866,0.03124500325853088,0.015303451055021896,0.03828142297013237,0.09059299075624165,0.02751159682466295,-0.06061882441215067,-0.12898430451506437,0.13781126820546324,0.08697654633241804,-0.12096520651338213,0.006635094156912307,0.04563812902200956,0.031264866235336725,-0.24806443616378684,-0.15704311959406853,-0.137425603850771,0.057575616946970755,-0.10380057272014474,-0.12655168152558724,-0.20761152951436634,0.026266835716153836,-0.12807702567785959,-0.17271047600942158,-0.005216527868678516,0.0715479333371129,0.0872258792348697,0.006876141284310224,0.0011757567718376138,-0.057555889682720976,0.03846421596597681,-0.08716252137899277,-0.013956673934558904,-0.0458507385277329,0.007024864084509877,-0.042617873128936536,-0.05747483931376789,0.08011477127395149,-0.08657890944483658,-0.07087406625320129,0.03369613323954742,-0.061460497447339266,-0.021152792167301537,-0.040705621497561253,0.06205997636267837,-0.20340802348383147,-0.2025251907604293,-0.17143350475419478,-0.16413632998606018,-0.22886770426169334,-0.0028693099054257123,-0.06743289887311257,-0.1423502163148524,-0.1389330087851955,-0.01933943041339323,0.10326348717023635,0.021081752495576866,0.09047208394161362,-0.06012054891189724,0.00945826094647034,-0.12559918493524105,-0.18706474518617644,-0.07711327364015001,0.09450320579275716,-0.16818493047986893,-0.07387149428189801,0.016595228536658128,-0.09088768346444019,-0.0030564467075221424,-0.1236575039680144,-0.060570708276786484,-0.05545697569851513,-0.06682951487254227,0.020550127132070904,0.038534945576410344,-0.09867846727139253,-0.11164714729347931,-0.016886331553976536,-0.09116326446459845,-0.07227927041794147,-0.037466532920576646,-0.08466536410584827,-0.048986328830793936,-0.03483684607016263,0.06760442112933383,-0.16976412915557995,0.020610348029300413,-0.008814317841150448,0.061939741331734674,-0.07320746840001548,0.2270427293027067,-0.10329298487903892,-0.080411042437332,0.014412539043476186,0.039647005878363,0.04138245208654224,-0.17139894043525158,0.07486560041578597,-0.023529143406317905,-0.049298094150603045,0.04911298239310209,0.027959270805839914,-0.042113119320924014,-0.036763140968023564,-0.06305181289662529,0.07861985707639944,-0.15397421918787482,-0.1061789739893863,-0.0021650762064182104,0.10708536011799732,-0.14114040302724576,-0.1167865845398484,-0.023522816292811447,-0.15331368715841603,-0.0689229638702033,0.0608243854040492,-0.03924167748790564,-0.0019012958630971698,0.032334069413878584,-0.06315797561808144,-0.07177338372599272,-0.12381945282559677,0.05107502001666183,-0.06945075524726634,-0.0758508624011405,-0.023737069028136173,0.019399970022839687,-0.02310462061822966,-0.08209374764211373,-0.06965787614875665,0.0013641135142943481,-0.03062550221962952,0.08604837785318398,-0.0583281174991667,0.013054789824290331,0.019685400987303373,-0.03168403356955323,-0.20007172958272992,0.0033385769184345743,-0.07486590904877971,0.045352885982092264,-0.1501179452484673,0.08115525118407504,-0.06013568104957467,-0.025108139267165906,-0.1040559529349692,-0.002341036845029296,-0.17676865318393148,-0.03190392210951966,0.07917344851109498,-0.11475573261632832,0.0035228664521319212,0.05181243042007408,-0.12621636391627744,0.07274159863395135,-0.10976671313103423,-0.04721524188818649,-0.0004854681861142925,-0.10628628266547194,0.10564124061572061,0.004648459526190253,0.031163779044382684,-0.023461654891928498,-0.02043739978945776,-0.019672426806755353,-0.040449070391230024,0.029289436667906895,0.05044839235645984,-0.10201133637749457,0.15153819273030522,0.011995081309146845,0.08721536918905279,0.005929404001088938,0.046117555505345714,-0.028129883478682432,0.07310346881273175,0.11417665370965657,-0.06665015092561663,0.007619649081217255,0.014910380759182357,-0.137633679254522,0.0020304014837991074,0.004659576583678305,0.020719090712831723,-0.016841945306439725,0.1206606941443161,-0.11261593371356007,0.1033914803357767,-0.05273750968045975,-0.004524695005247936,-0.035237759869548684,-0.0836562252815873,-0.058335388218641045,0.1581842250363176,0.1264448980682874,-0.1821362149928103,0.09280418508696481,-0.015020760082394178,0.08812529930726229,0.10866298452225934,-0.20144513926926938,-0.03789308344731761,0.036704394395814285,-0.07358071552442283,-0.10501118371000964,-0.06222215896012508,0.0931596168738349,0.04405152750782968,-0.0658585692488345,-0.06068222958497773,0.11266044621919624,0.04422032371464299,0.013925570001072037,0.01492032186434811,-0.024909797022369125,0.06281829874274784,0.24607816810106262,0.08039856573331998,0.12828692210980552,0.10976406175663521,-0.044723543008614905,0.09342261712125928,0.028808058454628912,0.0541844689835327,0.09497296160401501,0.14901941391503204,-0.0034410064131923193,0.19384476323283442,-0.021616903734517988,0.010998411473010759,-0.025466977937701214,0.13404520302416606,-0.12050883591364997,-0.006037270487971141,-0.029584081189148917,-0.030791206797474234,-0.044480915458651946,0.026634326207725375,0.059225665829649055,0.058192907717514314,0.11450536725317345,-0.17807150356862836,-0.0544897892616185,0.13351183459223026,0.06873393135164678,0.05076531911964853,0.18356811404166878,0.07362187299270993,0.05623275653968453,0.2865221920063667,-0.23162006817810565,0.12076108257304462,0.04730417701245602,0.04935885193310181,-0.07650241294469097,0.0507744401831094,0.0360192184230751,-0.0575114912616418,-0.28682069972097446,0.0224341517942826,-0.26523966331307286,-0.06219445689151517,-0.03318798501324406,-0.02047910921919955,-0.11918442185028727,0.017459308428340457,-0.13289171652271467,0.01906352397664612,-0.2317064695310653,-0.03365793620556259,-0.048121350196800645,-0.04709277916103016,-0.05933612757083884,-0.22444034568896645,0.04342820809144929,-0.06028687104038393,-0.007057641583727212,-0.05898066100765396,0.056071261995205006,-0.1057158622952606,0.05953853051267114,0.049725140736307266,0.07370072952835176,0.12685697424826595,0.04208263943006671,-0.06816760439631118,-0.06645996021153884,-0.1889233796240592,-0.09991224147766584,-0.0018918492490313707,-0.041819626654169856,-0.12448920064115604,0.11935288116998549,-0.05047366613498803,-0.20048011631849047,-0.1210370930723622,-0.05282092874352516,-0.12976714712734874,-0.2764320694448507,-0.3128484034983735,-0.07270928682752072,-0.08200093260525089,-0.13944775158548492,-0.15430559056867385,-0.12018709422719596,-0.24893751752158583,-0.10994622957547173,-0.11725842957472696,-0.02710338979040717,-0.06521485076243583,-0.031417684520974494,0.05474471661975768,-0.0531555553883769,-0.0018600470511307924,0.021029171567002073,-0.07822033937275072,-0.029004586318946295,-0.18536194761488126,-0.07976307747663801,0.14601294394095599,0.057705127431847636,0.02504553847210391,-0.07437245909844109,-0.03856116357583648,-0.17773724833545676,-0.2613691332904566,-0.21632672826712895,0.04332942193550151,-0.14506441139448295,-0.2036006230108335,-0.15708796544032977,-0.10287782057267417,0.019434674653501648,-0.11432177173677764,-0.08954222079631395,-0.1440511980753698,0.08853717422599346,0.1024364900095466,0.03413648749128754,0.05026723464294534,-0.07072804010156963,-0.11959305076506711,-0.10025020136761682,-0.008258602940813157,-0.06393737541281636,-0.05893925382092179,-0.048152979652841536,0.03212815859850453,-0.14583954109412048,0.13692241735761618,-0.04147247581461913,-0.0511496025606344,-0.12395757974320103,-0.1679447555508153,-0.010185204064025254,-0.0033495445337497027,0.09901296594742003,0.010707404736448134,-0.00987893751339246,-0.020061798691813435,0.14279806210723303,-0.06506284444238206,0.11072177359065863,0.14230880593101525,0.06540584207032224,0.16768765446200123,0.04407133685815206,0.10419818401566215,-0.058597743038366144,0.07825845854274271,-0.009445592533678125,0.05073924847458499,0.005112247567874044,0.07525304574109908,0.0240089085444819,0.11606412710205798,0.047658251159384386,-0.030645245798910512,0.04492199463298704,-0.15711664357225016,0.023363806725603245,-0.02026103616481273,0.10162595953899917,0.28606802655771113,0.09994974244252729,0.11278432646940866,0.2378021491640623,0.12483556020063288,0.15268659680068733,-0.04314610577258926,-0.16948085409700214,0.06515280124163797,0.09446321814510324,0.07531807684950685,0.12414919219702296,0.03024596273230427,0.11876051128204658,-0.05671625061748606,0.01339765640514749,0.1501831848259852,-0.023824703238881913,-0.11646566208538633,0.09134873804752458,0.0864759706769281,-0.16736021043159152,0.12402503159173078,0.03187503925349237,0.11553350920869962,0.09110690844104133,0.28370326750023744,0.22415063768921906,0.16905283188276368,0.3448555015048468,0.18747063495528626,-0.007665414643003187,0.08878337576754183,0.013697014267690839,-0.1466429780852104,0.03460290447812102,0.0894640196554822,0.02905228266218846,0.3171536023933701,0.08122174488859416,0.030819717874218392,0.1205041734237841,-0.07912531055310433,0.0048716434334895,-0.14636334158863662,0.043551702891487375,0.0916548860577078,0.07495544449766887,0.08255477462694748,0.15895693103894404,0.09879979598998961,0.18544517804442337,0.05099728758361274,0.26862909092927534,-0.019876527618468694,0.043989808582530036,0.08269084379042581,-0.0854799381136854,-0.09485239763027682,-0.061221012874302254,-0.17454577695990167,-0.10531367192382032,-0.09695306406155597,-0.021494849470857204,0.10723709999810564,0.05570626522357062,0.23051633338770305,0.16202809958011674,0.02816927826356305,-0.16378804001628638,-0.07905072682070495,-0.004371334791728079,0.1142671832163161,-0.021779439090665143,0.012719800272900261,0.181418317217032,0.018898040964983782,0.023891785035920134,0.11197771439411304,0.14332200518012064,0.07094342926661026,0.10659742881704554,0.05964164383951301,0.11069202784195248,-0.028650048445150157,0.003925419964221916,-0.39098813238511315,-0.3512688354566422,-0.24930273257415989,-0.16762853468540312,-0.30980091282831973,-0.10709943051973854,0.07814281011827848,0.4251424922450701,0.3067227521780504,0.13006785142733196,0.06520717792101664,-0.04013323185362943,0.019117026952849475,-0.1134822674583117,0.2331915267500288,0.011809533442195064,0.06972412208229781,0.04071225257440884,-0.02150604362086629,0.12899990404836134,0.12041944941839038,0.06839034874865325,0.026737094576581005,-0.051037657047724914,-0.11849646380782099,-0.0807748523091481,-0.1446177275824131,-0.2526373270671356,-0.32111077524044535,-0.4979505068112632,-0.012601037549973527,-0.08846339933260107,-0.11020602299464315,-0.10621252381948725,0.186116020721861,0.2952252607912644,0.3378009531685201,0.39622740378867555,0.17322061929545848,0.03456776121947429,0.003590653293689707,-0.04913531932158251,0.05511410036811124,0.04284762164888992,0.05485827533804407,0.11628270688646143,0.12449953436253627,0.25197586133587774,0.2139592532041194,0.015955017852868687,0.11314294214943248,-0.04058079764600907,0.03137734029020864,-0.3499866068612028,-0.1316744722103467,-0.33136750235548745,-0.25898396134473284,-0.13552811524638197,-0.09785025730773583,-0.14235713644402317,0.1016319458721948,0.1135782967339402,0.1925209481532505,0.1360081461030868,0.18524161872398612,0.20148228514810265,0.17006085588849348,-0.09245670142996605,0.01151126614188241,0.006313661359701182,0.009844715056534049,-0.0023140284797975876,-0.07120174636264433,0.09764753744048883,0.04359270685770707,0.08711145054503777,0.050146294802129975,0.2268345236033345,0.028334822258912196,0.2883052173438203,0.22040795479705846,0.022825517468887897,-0.041937293914037055,-0.18656669177841323,-0.3807566002903377,-0.12229909520481896,-0.12187091683737362,0.040288395652054845,-0.029541921181832097,0.08152338018574638,0.27211661460149084,0.1944780481569687,-0.05965200678569623,0.1653124379925358,-0.0649868661607878,-0.07126036603715177,-0.04634922364691192,0.1283166149030746,-0.055644710648223926,-0.030656308374729355,0.12376505355677342,0.049957233810556584,-0.061150975416268204,0.08439562156021331,0.20564456433416592,0.24698782968292096,0.3398030775627684,0.4794292349473165,0.5641924047722982,0.5650043098159756,0.13008377786495867,0.10834269021884874,0.04677084734142084,-0.13912006216454104,-0.0054136203326752095,0.0800374679199892,0.19533829057108507,0.07804204869233519,0.09452227838426089,0.03360218005688478,0.02970151963291741,-0.009622132835331865,-0.09896649498337545,0.04793558903149483,-0.16429307007202923,0.05429389946756033,-0.10126876942597396,-0.1615553509853387,-0.08786672913785767,0.03299837475357269,0.018051246757043202,0.06933155266290121,0.021471452296095428,0.3487989782700129,0.4660651562091794,0.5188511115481371,0.455488365254218,0.5289337544688056,0.44643684177207,0.33502208197268246,0.1987759001980719,0.10645738991829057,-0.06862872990117472,-0.10126936389423823,-0.027850223986411776,0.0048098989292305275,-0.2383925472296133,-0.11925807350146028,-0.14460322404204562,-0.16085003878249332,-0.09690586526485075,0.11002938228639104,-0.11038004675671127,-0.006570046431289187,-0.0663375823923551,0.0105985011825369,-0.07699054537341109,-0.03807880721008219,-0.06950724144472206,0.007125926630699341,0.032705312868046094,0.0586984909491741,0.09721365953005318,0.26029096082432424,0.36698435308276295,0.4019050365245459,0.34568643383867287,0.282660040837634,0.2271375021642282,-0.03636988464242523,0.07814376689531084,-0.042657806925842506,-0.1795612920707848,-0.20781142513645362,-0.22633390822320662,-0.04141798002275117,0.025156253572056975,-0.1334041175562025,-0.13051899113540327,-0.0906302453687992,-0.06667261313809585,0.0191891388159985,-0.10444233820543045,-0.02599380625829836,0.09338564630549019,-0.13712818921171718,-0.032148264734397955,0.01821205602873122,-0.00997234191159764,0.09047421185333661,-0.013651814141762798,0.04888179329556075,0.10734437918722925,0.055652239607757184,0.1918550193373261,0.14032753193922065,0.14918323798863511,0.010791508215509948,0.09715074908984576,-0.007423758041795213,-0.11121684476897999,-0.07525344524977434,-0.06701869847136468,0.05151754505422516,-0.024005732175570053,-0.22481237028392173,-0.2076010222741883,-0.21431687458287302,0.12924990957277213,-0.03788535411555523,0.16596093710077633,-0.07206012177400295,0.06529079563101796,-0.057650675746960665,-0.13714767608665115,-0.02857390835250176,-0.09193068256604775,-0.03875356658728332,-0.09413987078495029,-0.07287294639234086,-0.2799042198675167,-0.08603851566499611,0.046047324193455266,-0.0659634630697628,-0.11620620383445386,0.08079858548303193,-0.03232175704042788,-0.06271978254846194,0.15391284868580027,-0.048907458055838175,-0.045799308595389415,-0.042207834602426345,-0.12498984369779347,-0.03204123492582457,-0.07843994749699337,0.3182625977585174,-0.002066730701527664,0.13434338866513867,0.006790251204502257,0.06865635046344232,-0.016765812412722188,0.015219805129671877,-0.1824135447797295,-0.13866927734506523,-0.024248259221971703,-0.08657252043977186,-0.05151545847544784,-0.15792836518936448,-0.07314630258843226,-0.07408916162973722,0.04891569430082825,-0.005516442648056625,0.11899277063857082,0.04883253275239606,-0.056347850978331455,-0.03605315277720916,-0.20694846684308635,0.11690014819381973,0.07378081543011623,0.08782548041024762,-0.11460955506704447,-0.04827447864587785,-0.10330854445845372,-0.21919078152075455,-0.1533167606590355,0.1006320291567531,-0.032149548141909894,0.012828534490603566,0.06683542539726421,0.0967531161170943,0.06785999582126537,-0.20112226054085058,-0.07198126585469414,-0.02136394349480435,-0.015698715848476538,-0.035444281583937955,0.020185520553595564,0.09123395622115839,-0.015875058018327746,0.11211125258912592,0.20452146704270796,-0.05226818671666005,0.0931838810198943,-0.09648286440213873,-0.07270332143719624,0.01572582893656984,-0.11845724474827106,-0.29693817506328724,-0.1805673977809198,-0.0722853263156137,0.05657664220748519,0.06134913219363024,-0.22298456206317102,0.119775519865775,0.06430019922511937,0.03231592074419889,-0.03023513274063098,-0.061564319916133155,0.11306683181369136,0.012657567657766083,-0.09663213447159877,-0.18080771912910865,-0.03425861752664484,-0.08987911327697774,-0.16311886806967504,-0.007661142877185193,-0.06843011042252131,-0.027078126097035426,0.044374058615260635,0.003623658657427873,0.1970411387278746,0.041941441186202626,-0.04040510613343065,-0.09463021840402887,-0.001966924350711669,0.017732871528068853,-0.06603211551105671,-0.10295223537761858,0.07874617618850896,-0.01824146288421566,-0.029895945398390248,0.11678711899050816,0.1522165438253445,0.12236523810038419,-0.055799006630272575,-0.03743540957013017,0.07986797496837593,-0.0318400405813468,-0.11592622594124982,-0.046669051614987425,-0.1579213035155518,-0.1254842688218441,-0.02487193812363873,0.07999675566194321,-0.1125012832971746,0.18211060023341358,-0.036800029415678205,0.2008838981789064,0.053947290376507646,-0.075067753625027,-0.07708217262090007,-0.1856217242099276,-0.33943393807746125,0.02486547208423972,-0.14653783993630265,-0.024059028681003684,-0.12081160034451076,-0.061253578259719665,-0.061536514072857214,-0.012410288797430277,-0.09070150189811299,-0.04075571863408388,0.10677299116770403,-0.04638291708072445,0.087988958905844,0.06797451325352247,0.1113419159991402,0.07469557456707486,0.03108493003999116,-0.045568497651943186,-0.14396432820763388,0.1395603691271386,-0.018870410124219104,0.07477169753391441,-0.006256323632901896,-0.011600492013018061,0.11499068357458908,0.057472407209078515,-0.1584875771445547,0.05144723803811983,-0.20482015185882388,-0.0017330088811995353,-0.1253741324796813,-0.033765987317132005,0.16384342612608951,0.07414803427682262,-0.05433867182338227,0.06446224753489052,-0.1337011560372539,0.15161322375609432,0.05718556059587415,-0.11341507317874791,0.08002161974005867,0.05917315399593109,-0.0012773239403357174,0.1912059887921003,0.3230931028434635,0.2152320287370078,0.10363643944082719,0.12913397278505337,0.13215529583324723,0.09871387212501155,0.08037136421704338,0.08880200190295216,0.01158252731032021,0.07955470337342874,0.14037262415003998,0.18480069326938325,0.047051542310322,0.09841219020967899,-0.06775613943600914,-0.020608326868309018,0.08012316404097125,-0.04182245892414042,-0.11949678242197542,0.05701820191597902,0.1671445752480823,-0.06644741678699864,-0.07598162943696771,0.016157837362451865,0.1124668411517933,0.09428339267091149,0.062236351363682496,-0.04831496946823732,0.1941745364224726,-0.020090987668372372,0.08709690132986647,0.1591492729936691,-0.08854276781638289,0.11601773306332223,-0.026538379424264107,-0.0851308686586789,-0.007656458523289931,0.07252673033531214,0.053209221234439434,0.035164028268752076,-0.06990650380177303,0.1365441393365501,0.09892372986175058,-0.12891324914773775,0.08940579521802794,-0.10441962841773403,-0.023164742229337665,0.06946797318862524,-0.002222196512775217,-0.14729262909913754,-0.0004877412748123534,0.08656235749820718,0.0069326669895992295,0.04454589718983674,-0.022931296083386028,-0.06024547788824764,-0.21345178424708264,-0.11518552489606458,0.21875123256135492,0.026217926825245437,0.11743909273719497,0.004317455251678167,0.06300808690093657,-0.007787125863109181,0.023158421375385638,0.16828310901913798,-0.05283283210807918,0.11748205168351337,0.026318989023709792,-0.13271778742874865,-0.0009123905348352511,-0.19036387656308743,0.02441300688424056,-0.04525487969652657,0.01356612301179597,-0.14021070718790146,0.053274393893041436,-0.02480678102903276,0.09993692500808378,-0.0815599166317021,-0.05533743417775709,-0.005596723409128649,0.03755955877931892,-0.019478899846883387,-0.016467249788908397,-0.043245238376835804,0.060087359135101645,0.22519465237801486,0.04786373610681182,-0.030581441632599547,0.0019467676862686097,0.12297019156481849,-0.11378963522726039,-0.17505681832379968,-0.054126809186139394,0.005183216187568684,0.00906042645633482,-0.05095030717571275,-0.1136639568913443,-0.07015060678603867,0.007024056359192784,-0.0010340913180412708,0.037845150805341024,-0.013433966043377644,0.014127702532098128,-0.00041152156637451145,0.13069853460513112,-0.16318819153756783,-0.01380412986024105,-0.11617616762820093,-0.08811111725901852,0.2303978844471869,-0.13509781444571753,0.2237810885279649,-0.08179338177373535,-0.059781908144377734,0.05408903480379863,0.11268622985769346,-0.02611570805640193,-0.018390672498674886,-0.13554117044039382,0.0930947155688538,0.13213970028114538,0.062168252730199325,-0.16247163070755186,-0.02420052644385921,0.06606309323322314,0.05380479169832997,0.06376238067627964,-0.08186154566080199,0.057167619839746345,-0.015493110804468215,-0.049406255042340086,0.17595620289658329,0.035604445499197966,-0.12093573419167389,-0.03965676560091406,-0.025151329180115672,0.0324987531366349,-0.09924643341220372,0.2568839060820835,-0.007576019581975857,-0.026780045475851208,0.0916336793671788,-0.010123231697744556,0.06777060913949717,0.04994858840869492,-0.018561981643823097,-0.029148699340574437,0.06581309454969259,-0.09462010469951504,-0.11247206205370741,-0.13157520873260706,0.039153398640422034,-0.1002389352126717,-0.07046427299244398,-0.01438281355365971,0.04750859297886249,0.10360008255497864,-0.15148931406160146,0.02811383821499158,-0.07946102029359571,-0.16552131757979252,0.0837705914142499,-0.020556386537958608,0.20868137381939492,0.00023959072166451537,-0.07974657908885976,-0.09552121733263454,-0.012319102731215642,-0.013289727049594361,0.09871823697199994,-0.011931829606481172,0.049863279702726214,0.04668284960571547,-0.0076430005719237155,-0.11741346373216036,0.02062663105909278,0.06617010957637474,-0.041652203469206166,-0.08174005825918378,-0.018993505691245336,0.16802188112122937,-0.008082135749341317,-0.1746835414044469,-0.16271457277691012,0.0014904996054927971,-0.09596224022997911,-0.024538809963243573,-0.07359121260829159,0.06952303165716091,-0.07391547670214627,-0.1806405244104896,0.008509207565570389,-0.07846940904628505,0.05635470332173702,0.027839573615440358,-0.013972400694155096,-0.09092807749060013,-0.007851140491725101,0.07491819094642621,0.013190175514015462,0.11781541151306307,0.06569691731523176,-0.04844638961533683,-0.05473806999910831,-0.07120767934763429,0.040601104420657855,0.14204177120090966,0.03347828340581789,0.05045026589123653,0.045147605354656076,0.16805699069968125,-0.017631345521086562,0.014148610333805475,-0.1353651566035945,0.16349764590586982,-0.0820665738934387,-0.09654168422552854,-0.00711646810557561,0.030817508158978806,0.015892295484496156,-0.016774278921890574,-0.040959863207810955,0.02925767025096633,0.07772041573832075,0.07196655572767002,0.06581453340008037,0.14185212298943234,-0.1509460700399109,0.04436872110368248,0.07177330501156101,0.0718992570996599,0.2521503645940592,0.27158664401978866,0.17770622219858642,-0.15663539264478346,0.01295489061534219,-0.0790974895660267,-0.020340282077518305,0.05050961429834722,0.17863030734833293,-0.1519799549193299,-0.07732816867139233,0.0028633764344768785,0.026730690393973067,-0.04274861876260696,0.10079005584351518,0.03693816798480931,-0.10870068429801209,0.03854106497475183,0.11966960678193508,0.18381739589152668,0.11085850767544601,-0.0379253824046053,-0.026001864880751617,-0.12462650084500118,0.019211121076063948,-0.07733518478059642,0.12188994684536708,-0.008743235467779586,-0.020967543614689145,-0.028763054306838797,0.17237179961150667,-0.01968663317031612,-0.0774279748472482,-0.022933729056804807,-0.06657000933703182,-0.14356748107662665,-0.0017507471905488865,-0.013011883096513964,0.07672087987578063,-0.13545325750826162,0.016627688295463378,0.05422695638537684,-0.05607733650024761,-0.06004443259358937,0.0007119599203292265,0.037024890020424576,-0.019292076283772896,-0.025893122840307314,-0.006196385263884233,-0.06691784137517515,0.0948654790554204,-0.018870636583025974,-0.02071264823162586,0.1887583386534361,0.08794346556609556,0.0365290002418297,0.06750934066530256,-0.03744507030263079,0.044207937399116354,-0.05323914571649067,-0.11706363434809322,-0.10711253902302005,0.08235292001790474,-0.1575097925580752,-0.09139589287323023,-0.040209380538777484,0.08862596839610365,0.19111058418729285,0.10035288546688427,0.009782806895668088,-0.047370041386032805,0.07858510684273694,-0.14837362313023542,0.09731837688682794,0.017702249096533222,-0.25148800592564985,-0.0831087804767983,-0.07312044491788881,-0.0645845833324828,-0.035627735439189526,0.10972364212841111,0.15522873306463658,0.1769031182968805,0.10084698203226607,-0.0909229730151084,0.030165571267696305,-0.2855834809244941,-0.17678026104928757,-0.37145188302911564,-0.29329438045119127,-0.09856612213295986,-0.14633521465691351,-0.11542329669247511,0.01069987032576989,-0.13061451821208322,0.08658626557526945,-0.12968729841352544,-0.02475421616237903,-0.058952371032953955,-0.2133979155717772,0.050851326993205485,-0.09406224805915794,-0.10203032442960502,-0.13365730518808758,-0.020538267793108165,0.11639919140633374,-0.1025345994135411,0.036105111741965935,0.028150407897851948,-0.011572148883600543,0.17509459979177636,0.10564414865661624,0.2243575615208094,-0.10044181582730047,-0.034743235727944924,-0.20320279894447263,-0.21397121631855162,-0.14431721279347717,-0.011262387131196852,0.14609179234060507,0.0409788543032875,0.0193352992336771,0.009783876225431745,-0.07616840572179402,0.10010676233399063,0.095397295982679,-0.14526277595079595,0.04506960322367653,-0.15283633842437355,0.06420529431494737,-0.02874153347463876,-0.08885735434209298,0.07348190076598367,-0.13478842312097328,-0.08703799711529225,-0.17768850514360188,-0.15372052569781866,-0.012394768667695306,0.013575325720500256,-0.00955347816657277,0.19697531956182132,0.14074193498722223,0.03526718524294925,0.1403894355634006,0.0313377667974863,0.08620873724667023,0.10649389756167481,0.03573229448928814,0.13039664484816116,0.07431208818857735,-0.04066871720833335,-0.054435968227719074,0.05966067141359535,-0.1490334190442626,-0.005934984045668266,-0.22567497851313287,0.017514344289089313,0.015704015493220015,-0.028367967733202357,0.05666726633141375,-0.08890662564484124,0.034671280352583315,-0.18007521599082493,-0.19098682073505902,-0.12988023294350207,0.012204900953321628,0.07647931623949579,0.010098438281031607,0.1325892680249914,0.31920479686386805,0.053999293206589555,0.025819435976857777,0.10607625375693926,0.00502837611254801,0.1924637113739629,0.04656845558401893,0.10607127536592008,0.17840194251270217,0.009964120485777137,-0.031277213679571286,0.10699360213093302,0.017878620750805613,0.07195308695426811,-0.1894667450723139,-0.19063563959775726,-0.025751829127274188,-0.23397345934578265,0.05714678682898462,-0.12126967936724085,-0.00567474662518381,-0.12700299406599266,0.04353867987473957,0.044017304723491475,0.20908255410858215,0.18966597403875904,-0.20654482933303364,-0.026890165006403486,-0.0895919051960782,0.08505191124160214,0.038502214522181395,0.14497996766971527,0.17879983011078118,0.17001033982346023,0.023020505044295387,0.05407881294117941,-0.001690917829894417,0.13607591268742714,-0.1254370431982317,-0.05914004118836438,-0.07600890167724053,0.10860381835892127,-0.03821250155191616,-0.20212820587317992,0.2284468083481244,-0.013646289074470234,0.12787784565939486,-0.07339263057781466,-0.2165455729090664,0.032122268262439885,0.231975477460628,0.46249596177695407,0.25243047076793096,0.05456308656075323,0.04210334878043652,0.010786252339609646,0.11238502387349673,-0.1701491111873021,-0.2083596606843447,0.04419197488944308,0.0189706379030949,0.215107250452112,0.11286210084051483,0.2395841195920282,-0.02354467522990106,0.06697614885512648,0.052179564227272886,0.10148377076627761,-0.01453794527783204,-0.1157249584084701,0.021657592585649192,0.1343134239804159,-0.03189794734856491,0.12576431150192494,0.13538961466505778,0.1750065010591603,0.12321802229230146,-0.007749398409542151,0.23698303422923564,0.44301367753954757,-0.02308165194440718,0.006528592646170465,-0.07926549362025904,-0.008725512085193367,-0.014477330454802614,-0.04853336150045446,-0.058446942029714975,0.021011299712273664,0.1701073866697993,0.2355293286879272,0.005949384134341432,-0.017710997606241497,-0.024746736742278112,-0.1046136081663525,-0.06432884149278581,0.09324797800996147,-0.0037214107312306594,0.1553892698209249,0.08169113828854287,0.05090063259341995,-0.11922459281540736,0.08976758691292404,0.33933204874230677,0.20090215181719714,0.07210543668175484,0.11919587853611806,0.24400941870249368,0.31725133571005415,-0.17793447001378082,-0.191664099668933,-0.00867919953489203,0.055976893417004576,-0.10279033097418284,-0.16569315679210106,-0.21084439593581294,-0.11603740393272434,-0.012535810821736769,0.06336775781592634,0.10426424666604896,-0.2260353784146198,-0.08411644678525479,0.07841466607508232,-0.0879880322879611,0.03176190320284309,-0.03146152399176931,0.04676106629388769,0.06953255549630329,0.03347278324485735,-0.018367084881309812,0.07124063188118539,0.05721529334487302,-0.013794744726963322,0.19961581026954542,0.30845993738592353,0.22119812228833344,0.07756541677411782,-0.2615107524444165,-0.05531005875926895,-0.2813437578398677,0.062021693894454416,0.012293609930349577,-0.04968865156863598,-0.03040197333917584,-0.03711125266921776,-0.03627636303679411,0.046194353864941855,-0.016878565033218253,-0.05169278342407033,-0.14353106136217955,0.04340353648913492,-0.007455772654921257,0.0038920557620860515,-0.029619057750278073,0.01254988015702146,0.1308063689623397,0.014559873583081627,0.011360257463740923,0.1163174647656779,0.017317705915736115,0.10616138698221224,0.17851563588103575,0.32529222978487854,0.2018019123120583,0.06981413562673297,-0.3050795859858337,0.011013032564207884,-0.1399158549306373,-0.20633261415110957,-0.09265981692376506,0.0510265368557939,-0.1724373972463744,-0.04997577930730715,0.17182844449163365,-0.07014081175733262,-0.03718961955796527,0.0001773199228530077,-0.021902910454491695,-0.06371636049376025,-0.07749033348195818,0.03076003163442794,-0.01523239857975779,-0.13612431000758002,0.00852532060928302,0.039018508432674015,-0.06098709732998385,0.09185619505959403,0.08751999800915157,0.18102388777332304,0.25987587276058977,0.22444503848017458,0.1437147853234255,0.13269977831992114,-0.16547323833613303,-0.227881630308503,-0.12517876374865458,-0.15303397883385622,-0.16004176664561354,-0.0765925402689109,-0.17899587044181514,0.0385897401567235,0.25970480800925405,0.10494863689517436,-0.04541737238822905,-0.17738686162420436,-0.11662498345139283,-0.024189000491693775,-0.06004518662103407,-0.11889473113181535,0.011698394390360743,0.04488886478773448,-0.007881692861317778,0.07825430135185839,0.20152349178827364,-0.1243949963541082,0.014340953288546439,0.1752902822296353,0.1156130731350221,0.05269157485433381,-0.0589766818163768,-0.08096013576930992,-0.1457483579898701,-0.25347314324740294,-0.3281215648626205,-0.028889172740323894,-0.025505818181701004,-0.048479223678426546,-0.03881671963090252,0.04889402354025927,0.005608825468848232,-0.05818752225727778,-0.10630327118425116,-0.05708526949914164,-0.041299547998653464,-0.18865968923271986,-0.035969112036141185,0.035654062623186766,0.004775924699644473,-0.05092087695733012,0.017333393761765264,-0.008802482150175876,0.0006272016783217237,-0.04339167640938266,0.09517968242649506,0.05948179625058702,0.07208403671595823,0.1700627416771647,0.07583896270909779,0.15792295130873152,-0.18705471403115614,-0.1276615593360709,0.056157094377368245,-0.11371825708893366,-0.16330783661011397,-0.08745814978644971,0.08303279991875841,0.03706024970176582,0.06210708732010306,-0.0520683058649909,-0.14009419862455785,0.04813610698667755,0.07600818151970004,-0.136879365145902,0.08064185667927487,-0.06620473660254622,0.03728836328783678,-0.1169773393388036,-0.09989408996075747,0.038266497708832295,0.17042458504174618,-0.020290289412711198,-0.04161335599215331,-0.08276265682151175,-0.014021278503971429,0.06136767995805904,0.03840090192891981,0.04942266173851045,0.06798440339243805,-0.031876450708458,0.0993652340815508,-0.05638927000229444,-0.026558447432677785,-0.14256200373043,-0.0581072601805153,0.2084169296327503,-0.006960081262806834,-0.15165281893123717,-0.052184542181723324,0.02628800185176233,0.0651760475167743,0.02237106227707573,-0.0930932946503651,-0.05138813490734531,0.018890764706490558,-0.010450952900919396,0.033260403685257164,0.008517949799599515,-0.0012988354703145453,0.05119098720080825,-0.030667197753236737,-0.02057094620945287,-0.06953812323900038,-0.012459837620258327,0.22192407138388257,0.16684597560194092,0.13112826438726632,0.040956541501787874,-0.013269072104663843,-0.0619375772818572,-0.05066227872342312,-0.05561608714521872,-0.12051767470549338,0.025183899675806105,0.2474471314736661,0.04824344585838712,0.00480175379501589,0.1416058687346575,-0.13404022241402175,0.019496089231524145,0.12683344235964175,0.07222214449254945,-0.002753681118641242,0.06744232187546978,-0.03736917583645014,-0.0937258410955113,0.026331504539247853,-0.10460354365910275,-0.0023966364695365257,0.0834342690302804,0.092198078954388,0.08273904574677522,0.21258857399001665,0.15763638356899964,0.06924462457897149,0.005969967423601677,-0.019437047063700332,-0.029243635982004818,-0.03426926573927322,0.04143501177332727,-0.020785537838759867,0.07642821216670911,-0.13711931245340295,-0.10990397125615368,-0.05924428829412785,-0.07864478117161901,-0.12075000053805783,0.10867591641973902,0.06588211091387501,0.13692723875327487,0.08056525285107619,-0.013113520207640785,-0.08507613183177565,-0.0011396092380591618,-0.1264023624945242,0.07552665004326652,0.15141008894062388,0.11255790223558125,-0.053307689495314045,0.047754215583105886,0.23601991225104538,0.037047410515104184,0.046754453680144734,-0.03642554243935013,0.015971146896559513,-0.007080164838084746,-0.07002639698528175,-0.006962062670407809,-0.10553933019140015,-0.04686223674258981,-0.03051599366732903,0.06991049393730944,0.08249016073404178,0.09336262584682602,0.06204485197807385,0.10712643434747009,-0.023512063594425165,-0.04096698472383237,0.003902054685482004,0.19997293892222914,-0.04568789092867534,-0.005531392122695385,-0.07518764191923397,-0.21231425333876774,-0.053527775853916944,-0.19471862658477015,-0.0020626021284763456,-0.033753761453508314,-0.0025467091603702126,0.05403516351949803,-0.04860471252199521,-0.05845856353550676,-0.055168315753762714,-0.008452403877426483,0.062072219668036305,-0.08424245449839067,0.07123702755266584,0.02018667597629641,-0.08635999469657307,-0.1142453306290959,-0.10132117503146233,-0.02328853104476864,0.016321151389747605,-0.1544604635526279,0.01135897030505625,0.05646677606529213,-0.024765094458230674,0.01724284647108405,0.10708241036708194,0.07485080223067933,-0.014863841902290119,0.06880704963955823,0.006023380877812652,-0.10425756622971946,0.08653753140767514,-0.2220568866568174,0.07267051285269953,0.0760207506761297,-0.01338137165049937,-0.014520500203759949,0.010978732780989053,-0.07224044615180043,-0.03936506127862689,-0.009464880447852757,-0.07027880484788017,-0.06686563407043927,0.07325417020987034,-0.03516298386617049,-0.03351432180915843,0.20841081732579775,-0.11990306593204196,0.0403845810185887,0.14221953381914695,-0.09356049290097117,-0.06353263580838774,-0.12272454273564089,0.005108983022620743,0.03980633023362902,-0.021480201665159265,-0.01630138161543388,-0.05522115835171829,0.0030094855467341767,-0.13654960079376108,0.030308386010114086,0.07623931283535723,-0.05809477908251593,0.01990650963303833,0.05120927716151085,0.004182039210345518,0.08779891483804317,0.018745887852037228,0.1269324349232835,0.03255240000358504,-0.03661950831853961,-0.1223247530932971,-0.02038919272132384,0.13465453144054698,-0.1970293135125827,-0.03435825713393238,-0.11542905906043487,0.07106201048883323,0.011018230614590068,-0.07299668137860607,0.08610404097163685,-0.05481666924098689,-0.03436009686254792,0.08356824452825104,0.0018315009686410005,0.21065488868304408,-0.060082048213167365,-0.08050998861904107,0.21679457703212876,-0.04353932948742814,0.03245899104506734,0.0016558439337717354,-0.015090918529049481,0.05323111848605564,0.05433837351598509,-0.08273059752240519,0.14586681594905124,-0.10614908811389606,-0.03736334219991539,0.06070250403417638,-0.014579131299103027,0.021442763640003654,0.06146883390852111,-0.039444987592603155,-0.10014088024812173,0.13087030440622563,-0.07804593033226392,-0.06268889951117246,-0.05314569803857492,-0.021183045259885666,0.07145062644501143,-0.15721008160295177,-0.0736690213147771,0.027657039913382062,-0.09889337248859215,-0.017573372017965876,0.028716355815189325,-0.10060259444162109,0.05757692358714553,0.10919300464051891,-0.0198525905263342,-0.06992847908643776,0.15870680457941203,0.05446325011868299,-0.004782911303660015,0.03004222778652307,0.0030379840319599348,-0.06954168383733103,-0.08632789313759688,0.1362308939660051,-0.007576136748197177,0.09114056481933405,0.07895709355650868,-0.06524288977649026,-0.15404649836336012,0.0526959413878079,0.18308725738997106,-0.06722742098151595,0.03755887251658415,-0.03459055702363418,0.013077854607313958,-0.06324161055483449,-0.13176455266472678,-0.09028272590720304,0.03579759361306243,-0.10037804302684512,-0.062445043120847754,-0.03289993684363053,0.05394252595608024,-0.182616418489369,0.03510965083226289,-0.025542897889731762,0.08659385030549524,-0.19652506204916018,-0.020204646060158832,-0.0709351102723943,-0.016613721107133876,0.09705056924996824,-0.07774846005311663,-0.05479831555247309,0.0411593146199847,-0.11382556376050679,0.0332293394022631,0.022835440785172988,0.0017152584911499138,-0.03400209270447563,0.0894564423696269,0.05582719759934451,0.031727804894257694,-0.05893770049044127,-0.03918661611096036,0.006667903148001603,-0.08708286389398122,-0.0476925810929649,-0.025133403031530867,-0.07977356392814129,-0.06478086116934516,-0.017897687061327272,-0.11368357605223067,-0.10821708576784228,-0.022256132574253292,-0.21828222396662467,0.017478152486840783,-0.07153386063012197,-0.013324467177172599,-0.054896838794054846,-0.014918826993243173,-0.05990834749146303,0.12030734977865887,0.11466915419587653,-0.04327144088521252,0.0644848094271188,0.022432186441630385,-0.022139232306941717,-0.1509424310387256,-0.1342529104492408,0.049207678872063176,0.029705348495827153,-0.06900927769048402,-0.006647590161762451,-0.047562647068497076,-0.11637800677943703,-0.027178474277083906,-0.14295969000342956,-0.06971791942290002,0.03853682345056297,-0.1026790339721335,0.10463832152722019,0.07936988429748831,0.034591036077784174,-0.10890230050812767,-0.043429263055122416,0.1674742231835087,-0.06998631087723295,-0.13903316012309158,0.09820018240909292,0.08403563075866222,-0.05547727485665648,-0.06733822735940762,-0.0534405833140473,-0.0401691756805128,-0.20031499678775452,-0.013840109908976304,-0.07010995417929364,0.16752156994611286,-0.04469474760631105,-0.0600888703408907,-0.0531065008178596,-0.03954001646204402,-0.10610765971058876,